tree
version=v4
num_class=1
num_tree_per_iteration=1
label_index=0
max_feature_idx=24
objective=binary sigmoid:1
feature_names=horse_id jockey_id trainer_id sex age weight weight_diff impost wakuban umaban race_type around course_len weather ground_state race_class place rank_3races prize_3races rank_5races prize_5races rank_10races prize_10races rank_1000races prize_1000races
feature_infos=[2012100683:2022190001] [422:5667] [399:5784] [0:2] [2:12] [344:630] [-36:42] [49:65] [1:8] [1:18] [0:3] [0:1] [2:4250] [0:3] [0:3] [0:5] [1:10] [1:18] [0:19280.066666666666] [1:18] [0:13180.16] [1:18] [0:9319.8899999999994] [1:18] [0:9305.5]
tree_sizes=3317 3390 3377 3389 3393 3396 3394 3390 3403 3411 3397 3408 3378 3369 3398 3398 3402 3404 3395 3418 3377 3422 3380 3365 3372 3399 3404 3384 3409 3360 3408 3393 3412 3392 3407 3355 3384 3393 3341 3376 3381 3364 3356 3381 3363 3400 3399 3366 3381 3349 3381 3358 3395 3408 3376 3359 3377 3375 3392 3380 3375 3355 3356 3389 3345 3391 3375 3347 3367 3376 3380 3377 3351 3355 3361 3361 3411 3335 3369 3368 3389 3395 3343 3370 3385 3378 3350 3343 3356 3365 3382 3365 3365 3363 3383 3355 3379 3405 3355 3359

Tree=0
num_leaves=31
num_cat=0
split_feature=17 23 18 1 1 1 15 18 17 15 22 18 19 5 19 5 0 0 2 5 5 5 18 1 16 1 2 1 15 5
split_gain=1333.49 217.568 214.3 79.698 80.1361 75.8302 55.6317 54.9552 47.8212 41.7768 49.0257 46.8753 36.7112 34.5166 33.753 33.4774 33.4074 30.7475 31.4357 30.2288 29.6405 29.5505 33.8927 27.0306 26.8177 26.3104 26.0541 25.8571 29.632 25.8903
threshold=4.8333333333333348 3.2041666666666671 38.166666666666679 5319.0000000000009 5340.5000000000009 5319.0000000000009 1.5000000000000002 66.750000000000014 2.416666666666667 1.5000000000000002 140.01000000000002 136.83333333333334 6.1000000000000005 467.00000000000006 8.1000000000000014 487.00000000000006 2022104547.0000002 2020103640.5000002 1060.0000000000002 445.00000000000006 435.00000000000006 479.00000000000006 248.50000000000003 1195.5000000000002 4.5000000000000009 1156.5000000000002 1184.5000000000002 5340.5000000000009 1.5000000000000002 449.00000000000006
decision_type=8 10 8 2 2 2 2 10 10 2 10 10 8 2 10 2 2 2 2 2 2 2 10 2 2 2 2 2 2 2
left_child=1 5 14 12 21 6 8 -3 20 11 -11 -9 -4 -12 -2 23 -14 -6 -19 -8 -1 -5 -23 -13 -17 -26 -21 -7 29 -29
right_child=2 7 3 4 17 27 19 9 -10 10 13 15 16 -15 -16 24 -18 18 -20 26 -22 22 -24 -25 25 -27 -28 28 -30 -31
leaf_value=-2.4424363397374051 -2.5731918176130555 -2.5847038183724917 -2.5140030993625433 -2.3465707995155265 -2.5852448313429117 -2.0927376892871261 -2.519452429823442 -2.4285062482755344 -2.3459900158194116 -2.5295288345142226 -2.4863801060085753 -2.4103909519509514 -2.5613212095079052 -2.4168411355022856 -2.609669288170692 -2.3702531385258943 -2.4951767709541608 -2.2403038936997737 -2.4753371796428922 -2.3619312657045173 -2.1111235303960374 -2.1910806949020012 -1.6615069699052722 -2.1967385338442735 -2.2295780756198482 -1.8299258246236194 -2.5536717138186802 -2.4166398740672745 -2.3285539700360438 -1.9851353574032731
leaf_weight=3.1586296558380154 405.40324974060059 27.260347247123718 350.53922593593597 7.3472472429275495 19.089109659194946 13.527174830436705 16.823136210441589 106.43208622932434 37.010899662971497 73.884467601776123 105.47076416015625 22.522402763366703 638.79851496219635 220.82941246032715 677.73205876350403 3.4332931041717512 86.724983811378479 7.1412496566772452 28.015671730041504 100.93881726264954 18.608448624610901 4.5319468975067139 1.6479806900024412 8.0339058637619001 3.2272955179214478 3.3646272420883179 7.6219106912612906 1.853978276252749 19.089109659194946 5.5619348287582397
leaf_count=46 5904 397 5105 107 278 197 245 1550 539 1076 1536 328 9303 3216 9870 50 1263 104 408 1470 271 66 24 117 47 49 111 27 278 81
internal_value=-2.52438 -2.41352 -2.56414 -2.53395 -2.42877 -2.32998 -2.35709 -2.44613 -2.27682 -2.43923 -2.45597 -2.39364 -2.54058 -2.43932 -2.59602 -2.30219 -2.55341 -2.48307 -2.4276 -2.39472 -2.1592 -2.21102 -2.04986 -2.35422 -2.14362 -2.02559 -2.37539 -2.20524 -2.26265 -2.09301
internal_weight=0 798.653 2226.97 1143.84 67.7732 224.194 184.162 574.459 58.778 547.198 400.185 147.014 1076.06 326.3 1083.14 40.5815 725.523 54.246 35.1569 125.384 21.7671 13.5272 6.17993 30.5563 10.0252 6.59192 108.561 40.0322 26.505 7.41591
internal_count=44063 11631 32432 16658 987 3265 2682 8366 856 7969 5828 2141 15671 4752 15774 591 10566 790 512 1826 317 197 90 445 146 96 1581 583 386 108
is_linear=0
shrinkage=1


Tree=1
num_leaves=31
num_cat=0
split_feature=17 18 23 1 18 15 5 19 19 18 0 23 7 15 18 22 15 2 7 0 0 1 5 16 16 1 3 2 1 22
split_gain=1003.99 193.073 129.372 59.8435 46.3059 39.1336 36.2396 32.9202 32.3963 32.1479 29.5894 29.4037 23.8858 23.0819 37.4382 28.1521 26.9937 22.8936 22.0973 22.0076 21.4794 21.1472 22.122 31.0385 21.0644 19.972 19.6714 18.8383 26.0347 17.9184
threshold=4.8333333333333348 38.166666666666679 3.8775000000000004 5187.0000000000009 333.40000000000003 4.5000000000000009 457.00000000000006 8.1000000000000014 6.1000000000000005 66.750000000000014 2022104547.0000002 2.9800000000000004 59.250000000000007 1.5000000000000002 173.29166666666671 140.01000000000002 2.5000000000000004 1156.5000000000002 53.500000000000007 2022105112.0000002 2020103107.0000002 5632.0000000000009 447.00000000000006 5.5000000000000009 6.5000000000000009 5319.0000000000009 1.0000000180025095e-35 1093.5000000000002 5420.0000000000009 1419.5436507936511
decision_type=8 8 10 2 8 2 2 10 8 10 2 10 2 2 10 10 2 2 2 2 2 2 2 2 2 2 2 2 2 8
left_child=2 7 5 8 -5 6 -1 -2 20 -4 12 -8 -10 14 25 -15 -17 24 -7 -12 -3 22 -6 -24 -16 -11 29 -27 -29 -18
right_child=1 3 9 4 21 18 11 -9 10 13 19 -13 -14 15 17 16 26 -19 -20 -21 -22 -23 23 -25 -26 27 -28 28 -30 -31
leaf_value=0.094464643974734266 -0.045906048785182195 -0.023227035475638563 -0.058074809220309991 0.0052431079079459705 0.0036999593795934748 0.29398149729694545 0.21716994373153808 -0.08290918280084475 -0.038836402996287309 0.068316333667285387 0.12661499248178557 0.14094796519911601 0.10958270903634344 -0.010076057432408459 0.098158441958456494 0.11147844270570728 0.060003550134325151 0.60559704642577472 0.072940598880433472 0.0010314900003652488 0.028374125065918156 -0.018794659275632748 0.32617065609538454 0.11998238351018474 0.45072514720276619 -0.026088941027653495 -0.0045610236455076404 0.48325869535979343 0.10799855403604511 0.37209710709875027
leaf_weight=82.392888911068439 388.83323621749878 128.43577945232391 24.258579969406128 54.476829081773758 6.2325262129306784 4.7139999717473975 86.995356947183609 629.94183048605919 595.20474475622177 109.34316688776016 17.456971526145935 121.00893501192331 11.044487774372099 70.484691590070724 5.2821195647120458 75.400174170732498 108.98897147923708 1.8161110132932661 111.42620013654232 69.546322047710419 216.89990586042404 6.6852486431598654 13.068410865962507 16.542527340352535 2.4950561299920082 2.3996499776840192 63.412460669875145 3.7121898606419563 3.683090016245842 1.8712108731269825
leaf_count=1062 5904 1854 372 763 86 62 1033 9870 8946 1442 248 1554 166 1031 65 1027 1464 22 1448 988 3131 93 166 217 30 31 867 48 48 25
internal_value=0 -0.03718 0.0896008 -0.0088251 0.0662888 0.130973 0.150594 -0.0687863 -0.0158408 0.0540533 -0.0283061 0.172827 -0.0361325 0.0601129 0.0958736 0.0457339 0.0614895 0.285919 0.0819124 0.0262295 0.00918284 0.144485 0.174939 0.210981 0.211268 0.0805707 0.0398615 0.217369 0.296367 0.0652714
internal_weight=0 2154.37 879.685 1135.59 97.0055 406.537 290.397 1018.78 1038.59 473.147 693.253 208.004 606.249 448.889 128.731 320.158 249.673 9.59329 116.14 87.0033 345.336 42.5287 35.8435 29.6109 7.77718 119.138 174.273 9.79493 7.39528 110.86
internal_count=44063 32432 11631 16658 1325 5159 3649 15774 15333 6472 10348 2587 9112 6100 1686 4414 3383 117 1510 1236 4985 562 469 383 95 1569 2356 127 96 1489
is_linear=0
shrinkage=0.1


Tree=2
num_leaves=31
num_cat=0
split_feature=17 18 23 1 1 0 1 21 23 18 5 0 0 16 0 15 24 21 7 0 7 19 18 9 18 22 6 0 16 1
split_gain=774.029 173.474 82.5614 45.36 34.1407 33.762 32.4263 31.1292 30.5349 24.7668 24.6467 22.6471 24.918 21.6653 20.212 19.7 18.8847 26.8849 18.7935 18.5125 20.7424 19.1852 18.3753 18.1561 18.1287 18.8894 22.5405 17.2397 17.7337 16.6842
threshold=4.8333333333333348 37.016666666666673 3.8775000000000004 5319.0000000000009 5340.5000000000009 2019102209.0000002 5319.0000000000009 8.2678571428571441 6.2762289068231842 66.750000000000014 475.00000000000006 2022104692.5000002 2022105112.0000002 2.5000000000000004 2020103640.5000002 2.5000000000000004 248.14020907700157 4.2678571428571432 58.250000000000007 2020101767.0000002 59.250000000000007 6.4500000000000011 160.40000000000001 8.5000000000000018 559.98333333333346 487.23000000000008 4.5000000000000009 2022104547.0000002 4.5000000000000009 5528.5000000000009
decision_type=8 8 10 2 2 2 2 10 8 10 2 2 2 2 2 2 10 8 2 2 2 8 10 2 10 8 2 2 2 2
left_child=2 7 6 5 -5 18 10 -2 15 -4 13 -10 -13 22 -6 16 -7 -18 -3 20 -11 -22 -1 27 25 26 -25 28 -12 -8
right_child=1 3 9 4 14 8 29 -9 11 19 23 12 -14 -15 -16 -17 17 -19 -20 -21 21 -23 -24 24 -26 -27 -28 -29 -30 -31
leaf_value=0.4025326854357813 -0.048480664743279576 -0.067690880011389482 -0.055105494855255038 0.17998573456596245 -0.059290490211008087 0.027318093305940178 0.19024228049886471 -0.084687110473145366 -0.031895758109227269 0.0072873911258185993 0.22015087058223234 0.1432073722942786 -1.9017354850248656e-05 0.055627180255152765 0.066547996248947611 -0.010720774094076395 0.51547019559047036 0.094496582384822295 0.049083552363591298 0.06412306642475564 0.084710785614607154 0.40572753102009662 0.12678462611332794 0.13965375859953741 0.0087772246295154104 0.38659541648896401 -0.015616428095741437 0.26836986025429271 0.11225589047762918 0.082502508986316378
leaf_weight=2.9255727380514172 484.07584211975336 142.8483996540308 23.072116300463676 19.407344110310078 18.56748516112566 206.7394795268774 58.770356416702271 466.11564379185438 424.4598995745182 127.26293570548296 18.428897269070148 14.648604519665239 71.127446390688419 165.57029405981302 40.835134260356426 170.87928195297718 1.7635507434606523 10.853241071105003 15.253633849322794 328.25207298994064 14.862453185021879 2.1283008381724349 13.891527414321898 36.664894320070744 24.346658527851105 2.4135408103466025 12.549619510769842 9.9893229082226735 87.852229423820972 19.026389226317406
leaf_count=35 7781 2181 372 197 279 2982 607 7835 6535 1693 211 187 1008 1961 516 2534 25 155 217 4201 181 25 161 410 288 28 140 107 1006 205
internal_value=0 -0.034703 0.0742585 -0.00835495 0.0648353 -0.0138039 0.105145 -0.0662417 -0.0063207 0.0460615 0.0929448 -0.022425 0.0244408 0.0666114 0.0272146 0.0147358 0.0345665 0.153339 -0.0564245 0.0510014 0.0211429 0.124922 0.174755 0.117928 0.0799104 0.113455 0.10006 0.14277 0.130965 0.163893
internal_weight=0 2087.57 948.007 1137.38 78.81 1058.57 452.429 950.191 900.472 495.578 374.633 510.236 85.7761 182.387 59.4026 390.236 219.356 12.6168 158.102 472.506 144.254 16.9908 16.8171 192.245 75.9747 51.6281 49.2145 116.27 106.281 77.7967
internal_count=44063 32432 11631 16816 992 15824 5159 15616 13426 6472 4347 7730 1195 2157 795 5696 3162 180 2398 6100 1899 206 196 2190 866 578 550 1324 1217 812
is_linear=0
shrinkage=0.1


Tree=3
num_leaves=31
num_cat=0
split_feature=17 18 23 19 1 17 15 5 18 24 0 0 5 0 0 7 15 0 0 10 22 5 2 2 16 2 1 8 16 13
split_gain=605.614 156.375 58.0645 38.4126 35.6872 27.9728 24.9685 27.1959 24.4688 23.7204 23.1643 22.0113 18.9526 17.5595 16.2548 18.2946 16.0062 17.0581 22.7722 15.7871 15.4223 15.1515 14.4346 14.4559 17.1771 24.1858 13.8668 20.2419 20.1782 15.6965
threshold=4.8333333333333348 51.833333333333336 3.4599358974358978 8.1000000000000014 5187.0000000000009 6.5833333333333348 1.5000000000000002 437.00000000000006 333.40000000000003 70.012500000000003 2020100722.0000002 2022104692.5000002 453.00000000000006 2022105112.0000002 2019106958.0000002 59.250000000000007 1.5000000000000002 2021100709.5000002 2021100491.5000002 2.0000000000000004 1960.7900000000002 517.00000000000011 1183.5000000000002 1136.5000000000002 4.5000000000000009 1101.5000000000002 5207.5000000000009 7.5000000000000009 7.5000000000000009 1.0000000180025095e-35
decision_type=8 8 10 10 2 8 2 2 8 10 2 2 2 2 2 2 2 2 2 2 8 2 2 2 2 2 2 2 2 2
left_child=2 3 6 -2 5 10 -1 -8 -6 -4 -3 19 -12 -13 15 20 17 18 -14 -7 -11 -15 23 24 25 -9 -16 -28 29 -29
right_child=1 4 9 -5 8 11 7 22 -10 14 12 13 16 21 26 -17 -18 -19 -20 -21 -22 -23 -24 -25 -26 -27 27 28 -30 -31
leaf_value=0.13136338407453421 -0.038078012948406938 -0.026081817653001962 -0.015633876639914373 -0.077067023645823518 0.0023899796753500901 -0.035567502825669936 -0.040311359308690481 0.086867692554108408 0.10143292674062376 -0.00033274739767114091 -0.015629866427138237 0.11776273859419324 0.13872677352985027 -0.0088434128318241791 0.053407691394114845 0.1136039949244106 0.025574632078424767 0.07257303468543469 0.6067070038577429 0.10138182208572483 0.30504309641862837 0.23700711479330244 -0.00049753165980692844 0.12551315302169383 0.056613550622207756 0.31999788609009822 0.083853820815643243 0.52039402387356348 -0.0056731702848380758 0.15260000827594078
leaf_weight=120.1256730183959 453.30251609534025 111.73068815469742 60.160113617777824 570.98109455779195 49.304735522717237 458.49580948799849 18.620776161551476 15.549186259508135 50.485144812613726 110.14781108126044 67.994283199310303 15.750398196280001 4.0520529374480239 65.38327544927597 396.59028346091509 17.724139779806137 115.90717579424381 50.296395368874073 1.3987281173467634 8.5748961865901929 1.6789956092834462 2.6067034974694243 18.123617231845856 81.999056898057461 113.11671669781208 6.2342235818505278 39.941232021898031 2.9984107539057723 1.9036320000886915 1.8929075375199316
leaf_count=1139 7326 1723 843 10231 669 7227 227 160 562 1432 969 179 59 928 4782 195 1674 709 20 119 18 37 209 856 1185 62 449 31 22 21
internal_value=0 -0.0323361 0.0625534 -0.0598122 -0.00424839 -0.0105249 0.0938066 0.0760197 0.0524972 0.0441003 0.0115212 -0.0245888 0.0290527 0.0226224 0.0503732 0.0192129 0.046752 0.0907832 0.258815 -0.0330533 0.00425224 0.00058238 0.0852366 0.0924003 0.0722727 0.153588 0.059479 0.110998 0.270556 0.37806
internal_weight=0 2026.26 1006.81 1024.28 1001.98 902.19 373.769 253.644 99.7899 633.038 351.379 550.811 239.649 83.7404 572.877 129.551 171.654 55.7472 5.45078 467.071 111.827 67.99 235.023 216.899 134.9 21.7834 443.326 46.7362 6.79495 4.89132
internal_count=44063 32432 11631 17557 14875 13644 3838 2699 1231 7793 5154 8490 3431 1144 6950 1645 2462 788 79 7346 1450 965 2472 2263 1407 222 5305 523 74 52
is_linear=0
shrinkage=0.1


Tree=4
num_leaves=31
num_cat=0
split_feature=17 18 23 21 1 22 0 5 15 22 5 17 1 22 6 1 12 2 16 5 7 0 15 18 12 20 23 0 5 1
split_gain=485.229 100.262 80.7717 32.0265 30.9195 28.4137 22.3454 20.3539 18.8321 17.4429 15.3072 15.0693 13.9867 13.9354 14.2768 13.8924 17.2707 15.6662 15.4167 15.3194 13.3472 13.2841 18.1036 14.1999 13.1223 18.5241 17.5025 16.1592 14.7253 13.0119
threshold=5.8333333333333348 63.583333333333336 3.8775000000000004 8.2678571428571441 5319.0000000000009 34.940000000000005 2020101073.0000002 425.00000000000006 4.5000000000000009 1192.4550000000002 429.00000000000006 2.416666666666667 1211.5000000000002 550.1450000000001 5.5000000000000009 1178.5000000000002 2350.0000000000005 1051.5000000000002 8.5000000000000018 451.00000000000006 59.250000000000007 2021104669.5000002 2.5000000000000004 289.83333333333343 2815.0000000000005 79.90000000000002 6.8588039867109645 2019102736.5000002 451.00000000000006 5659.5000000000009
decision_type=8 8 10 10 2 10 2 2 2 8 2 10 2 8 2 2 8 2 2 2 2 2 2 10 10 8 10 2 2 2
left_child=2 3 7 -2 24 -4 9 -1 11 20 -8 21 15 -13 -15 16 17 -12 -18 -17 -7 -9 23 -23 27 26 -26 -3 -29 -6
right_child=1 4 5 -5 29 6 10 8 -10 -11 12 13 -14 14 -16 19 18 -19 -20 -21 -22 22 -24 -25 25 -27 -28 28 -30 -31
leaf_value=-0.025907497891318229 -0.042020054302959728 -0.058287492020223403 -0.067578724401809051 -0.078682182758393907 0.079372167128325663 -0.014177363791535516 -0.02229643972794277 0.082296640941979582 0.04651395775599533 0.21607390689622977 -0.0059608608272313669 0.068417549969257294 0.080173824295874954 0.12005964736335635 0.43981711034534837 -0.066894249801832922 0.098363657432244067 0.050293133408208714 0.34395569775158819 0.023352682914665593 0.063814989258600158 0.21209457527364234 0.32116436600235154 0.10531563434726283 0.54034301754759095 0.0065868950950578216 0.072019482050218853 -0.035679759770802774 0.00041930302174876012 -0.076090186661625647
leaf_weight=19.998023003339767 544.47256971150637 80.071036797016859 32.930166162550449 423.68762958422303 50.364439632743597 180.3290193900466 40.168451841920614 70.286395236849785 146.80266011506319 3.6425959542393676 60.79129109531641 222.2603493668139 80.405114125460386 4.7105089835822573 1.9846462979912756 23.523471515625715 14.883146103471519 266.67856128141284 3.0860050395131102 93.863510232418776 24.982303999364376 16.056015469133854 5.2789085283875457 55.516085088253021 1.5393289327621436 6.9350665286183366 1.6570351421833036 159.94682358205318 384.97268225625157 6.0281978510320178
leaf_count=230 9341 1318 541 8158 540 2549 521 672 1559 38 775 2214 937 47 19 306 185 3343 39 1181 275 128 49 480 20 95 22 2477 5924 80
internal_value=0 -0.0372919 0.0431455 -0.0580642 -0.00820944 0.0234388 0.0272215 0.0731028 0.0768894 -0.00083882 0.0372717 0.0887461 0.0416764 0.0726994 0.214845 0.0349884 0.045088 0.0398502 0.140541 0.00526787 -0.00468725 0.113716 0.142451 0.12927 -0.0145103 0.0983854 0.297558 -0.0163404 -0.0101766 0.0627537
internal_weight=0 1659.67 1368.18 968.16 691.515 825.284 792.353 542.894 522.896 208.954 583.4 376.093 543.231 228.956 6.69516 462.826 345.439 327.47 17.9692 117.387 205.311 147.137 76.851 71.5721 635.122 10.1314 3.19636 624.991 544.92 56.3926
internal_count=44063 27975 16088 17499 10476 10690 10149 5398 5168 2862 7287 3609 6766 2280 66 5829 4342 4118 224 1487 2824 1329 657 608 9856 137 42 9719 8401 620
is_linear=0
shrinkage=0.1


Tree=5
num_leaves=31
num_cat=0
split_feature=18 17 19 15 5 1 1 22 17 24 15 24 0 0 0 20 23 1 0 0 0 22 22 3 0 2 5 18 9 1
split_gain=399.041 139.032 36.9152 27.4988 29.9154 25.3253 22.4294 21.499 20.8841 19.5372 16.6806 18.2431 15.9694 14.309 13.6149 13.3096 18.0201 18.14 17.1547 12.9456 12.7988 18.6666 15.7912 12.6871 12.6143 11.5331 11.4663 11.4568 11.3886 10.9471
threshold=61.416666666666679 4.416666666666667 8.2916666666666696 1.5000000000000002 461.00000000000006 5319.0000000000009 5340.5000000000009 140.01000000000002 6.8333333333333348 183.35333333333332 1.5000000000000002 248.14020907700157 2022104692.5000002 2019101631.0000002 2022105112.0000002 788.21500000000003 3.8366666666666673 1168.5000000000002 2020106526.5000002 2022100303.0000002 2020100722.0000002 135.05000000000004 138.76500000000001 1.0000000180025095e-35 2020103640.5000002 1100.5000000000002 515.00000000000011 90.166666666666671 1.5000000000000002 1211.5000000000002
decision_type=8 8 10 2 2 2 2 10 8 10 2 10 2 2 2 10 10 2 2 2 2 10 10 2 2 2 2 10 2 2
left_child=2 3 20 9 -5 8 23 -6 10 19 27 -12 -10 26 -14 16 17 18 -15 -2 -1 -22 -23 -7 -8 28 -13 -3 -18 -9
right_child=1 5 -4 4 7 6 24 29 12 -11 11 13 14 15 -16 -17 25 -19 -20 -21 21 22 -24 -25 -26 -27 -28 -29 -30 -31
leaf_value=-0.062012964942610715 0.077012426854612903 0.019535226797421729 -0.072384505880154784 0.0026502347518616047 -0.011173679052407213 0.19056401068682141 -0.050262301577540996 0.051566488704264682 -0.028771918927774493 0.12324019878943571 -0.017048830712662475 -0.059996533973243754 0.096963905789818353 0.12932558868570926 -0.0014309487068447594 -0.059857672965415831 0.21250533140264932 0.020417598946733354 0.39539964571087854 0.023718312105011546 -0.032785458408798838 0.32123856996046513 0.024091195230125938 0.049550478110816622 0.046339057439731934 0.074646866737393527 0.14257019556043243 0.084888708476938177 -0.025290323927727194 0.090771560940055368
leaf_weight=123.52666250988841 173.66232205182314 79.208164848387241 486.71158735454082 158.56316759809852 47.986151911318302 14.493061080574989 18.933684721589088 365.22672491520643 390.86129476502538 69.87227313965559 244.64492032304406 22.884305290877823 17.70482774823904 5.8482038602232951 68.360555768013 10.1534406542778 2.1727821379900005 6.0746429972350588 4.1374430656433105 61.79817271977663 347.3619903549552 1.8694846779108036 41.249796207994223 11.398017764091492 47.254259202629328 39.26370432972908 3.1830666474997988 40.559768013656139 27.560670033097267 88.475029438734055
leaf_count=2162 1727 1048 9931 1844 638 113 273 3816 6395 521 3563 349 185 73 978 137 28 71 45 603 5927 32 698 99 504 543 46 510 381 823
internal_value=0 0.0245717 -0.0526469 0.0519888 0.0405127 -0.000528803 0.0495737 0.0524794 -0.00532135 0.0768047 0.0092744 -0.00132793 -0.0201853 0.0303846 0.0188102 0.0483575 0.0612753 0.156678 0.23957 0.063025 -0.0339574 -0.0250822 0.0369744 0.128486 0.0187053 0.0390686 -0.0352613 0.0416674 -0.00791333 0.0592118
internal_weight=0 2020.28 1000.72 965.584 660.251 1054.7 92.079 501.688 962.618 305.333 485.691 365.923 476.927 121.278 86.0654 95.2109 85.0574 16.0603 9.98565 235.46 514.008 390.481 43.1193 25.8911 66.1879 68.9972 26.0674 119.768 29.7335 453.702
internal_count=44063 25313 18750 9972 7121 15341 989 5277 14352 2851 6794 5236 7558 1673 1163 1278 1141 189 118 2330 8819 6657 730 212 777 952 395 1558 409 4639
is_linear=0
shrinkage=0.1


Tree=6
num_leaves=31
num_cat=0
split_feature=18 17 21 1 1 5 18 0 5 16 24 1 1 16 7 1 0 22 0 22 12 18 1 0 18 11 15 6 21 24
split_gain=332.557 106.197 35.0152 19.8294 19.7595 19.5905 18.5326 25.1356 18.952 18.7715 17.5988 15.7241 15.544 15.8966 14.4835 14.3337 14.1584 15.2108 13.897 13.5397 20.379 15.2722 18.456 17.2489 14.9712 17.2456 13.4035 19.9446 13.2931 12.4426
threshold=61.416666666666679 4.416666666666667 8.2678571428571441 5319.0000000000009 5319.0000000000009 489.00000000000006 180.06666666666669 2020101073.0000002 423.00000000000006 2.5000000000000004 240.02222222222227 5340.5000000000009 1174.5000000000002 6.5000000000000009 59.250000000000007 5514.5000000000009 2020100722.0000002 135.05000000000004 2019105513.0000002 104.70714285714287 1450.0000000000002 106.33333333333336 1211.5000000000002 2021105676.5000002 128.50000000000003 1.0000000180025095e-35 2.5000000000000004 3.5000000000000004 4.6833333333333345 674.01555555555569
decision_type=8 8 10 2 2 2 8 2 2 2 8 2 2 2 2 2 2 10 2 10 8 10 2 2 8 8 2 2 10 8
left_child=2 3 16 5 6 18 7 14 -9 -8 -11 -6 13 -12 -3 -5 29 -18 -2 -10 21 -21 23 24 25 -23 27 -7 -26 -1
right_child=1 4 -4 15 11 26 9 8 19 10 12 -13 -14 -15 -16 -17 17 -19 -20 20 -22 22 -24 -25 28 -27 -28 -29 -30 -31
leaf_value=-0.061944648101895483 -0.014043585717668167 -0.034864412910023929 -0.073803626711907114 0.09897079365160602 0.10549396919377135 0.11067661982768121 0.048839563169204341 -0.085578217004689955 0.016509111038472388 -0.052136800149822575 -0.020127313599843284 0.016509461316874301 -0.041028798042191561 0.027182848833445579 0.07745576833811503 0.02526651986689929 -0.032307829102100692 0.023319082370128582 0.034356978438026313 0.051690677876724538 0.031147858979633528 0.19876930957750555 0.50387876994085012 -0.033064966110054834 0.35273601478000294 0.52836235485062233 0.039125035150351685 0.031961270067988427 0.038133205330066838 0.22729821325376492
leaf_weight=163.70859824493527 67.013297505676746 115.14209496229887 371.62593797594309 102.71993905305862 28.200303539633751 90.752328637987375 41.342976234853268 13.231586992740629 133.86724093183875 136.34710361436009 151.40560365840793 67.128911580890417 118.47232734411955 133.77381775528193 12.751822933554648 35.506620302796364 361.36734310165048 56.896287009119987 516.91985185816884 16.265486564487219 64.91809468716383 4.8817413970828101 1.6326906606554974 3.930754277855157 1.7174522131681449 2.3525783941149712 140.98961950093508 49.881324525922537 6.161309938877821 1.5008966140449036
leaf_count=3129 794 1916 8183 814 212 854 612 192 1826 2058 2316 777 1839 2020 153 325 6426 983 5245 239 893 70 23 52 18 33 1457 483 92 29
internal_value=0 0.021591 -0.0498119 0.044867 -0.00058606 0.0392503 -0.00490574 0.0123674 0.030878 -0.016103 -0.0210751 0.0428329 -0.0105829 0.00206525 -0.0236654 0.0800382 -0.0345311 -0.0247409 0.0288024 0.0374148 0.0648895 0.124184 0.181211 0.153548 0.202084 0.305952 0.0609135 0.0827571 0.106712 -0.0593169
internal_weight=0 2057.31 955.099 1003.78 1053.52 865.556 958.195 376.853 248.959 581.342 539.999 95.3292 403.652 285.179 127.894 138.227 583.473 418.264 583.933 235.727 101.86 36.942 20.6765 19.0438 15.1131 7.23432 281.623 140.634 7.87876 165.209
internal_count=44063 25313 18750 9972 15341 8833 14352 5507 3438 8845 8233 989 6175 4336 2069 1139 10567 7409 6039 3246 1420 527 288 265 213 103 2794 1337 110 3158
is_linear=0
shrinkage=0.1


Tree=7
num_leaves=31
num_cat=0
split_feature=17 24 21 15 5 15 1 19 0 0 21 18 21 0 21 5 19 8 2 5 5 24 20 0 0 15 2 8 9 16
split_gain=277.855 70.2585 37.738 32.5955 25.605 20.2508 19.1812 17.6832 17.6444 14.5908 14.5312 13.2753 16.5565 12.8357 12.7636 12.1162 11.9448 11.4052 11.1057 15.0667 10.8935 10.6644 15.6819 18.4765 14.5488 14.13 15.2306 13.5799 20.8864 13.3268
threshold=6.416666666666667 94.008823529411771 8.2678571428571441 1.5000000000000002 477.00000000000006 1.5000000000000002 5187.0000000000009 6.291666666666667 2022104321.0000002 2019106958.0000002 2.4142857142857146 183.35000000000002 4.7888888888888896 2021105830.5000002 5.154761904761906 501.00000000000006 2.9000000000000004 7.5000000000000009 1049.0000000000002 453.00000000000006 485.00000000000006 334.6400568181819 326.33750000000003 2020100904.5000002 2021101984.5000002 2.5000000000000004 1051.5000000000002 5.5000000000000009 8.5000000000000018 9.5000000000000018
decision_type=10 10 10 2 2 2 2 8 2 2 10 10 8 2 10 2 10 2 2 2 2 10 10 2 2 2 2 2 2 2
left_child=1 5 -2 11 14 6 7 18 -9 -6 20 13 -13 16 -5 -10 -3 -8 -1 -20 -7 22 24 -24 25 26 -11 -28 -29 -23
right_child=2 3 -4 4 9 10 17 8 15 21 -12 12 -14 -15 -16 -17 -18 -19 19 -21 -22 29 23 -25 -26 -27 27 28 -30 -31
leaf_value=-0.030362060883529732 -0.028841151498847351 0.24639240372337554 -0.068784760033672107 0.017675309815227264 0.013298473444840839 -0.014788805808649228 0.036984763681919185 -0.035446737687176537 0.0052032559749266294 -0.006867451640070148 -0.054491633513346183 0.085352263321510413 0.28398539852057847 0.024582250917837535 -0.020343792857777914 0.12854548609889596 0.066687296994095521 0.16009342669497795 -0.0136910743268159 0.05224302149359375 0.20680520549643056 0.065320251381032729 0.24697400246020998 -0.032640228354541008 0.018345755945711549 0.032922156448545181 0.083761794634899647 0.40320028861122603 0.14157111939416331 0.2467077151231476
leaf_weight=36.804889660328627 627.37002805620432 3.8268805891275397 379.67108634114265 334.54834511876106 152.8870333917439 5.3609329611062986 54.628092065453529 211.58973882719874 83.182707589119673 10.487760629504917 105.47364836186171 82.761892855167389 4.4204204156994811 107.6070482544601 119.96599420160055 8.8074696920812112 110.49513578414917 8.7276060841977579 51.528883788734674 105.85179834440351 3.7845837995409966 150.47361344844103 2.5037265568971625 42.106796745210886 90.08234029263258 51.395701922476292 32.093593172729015 3.6851420290768173 17.741701792925596 4.1625656932592383
leaf_count=508 11393 29 8715 3681 1971 84 551 3597 1141 120 1671 558 32 1001 1693 111 1035 87 735 1347 50 1360 26 425 907 606 351 41 196 41
internal_value=0 0.0205238 -0.0439005 0.0339378 0.0252577 -0.00570415 0.00211989 -0.00447625 -0.0195506 0.0396175 -0.044007 0.0623594 0.0954236 0.0493705 0.00764042 0.0170125 0.0727028 0.0539437 0.0190903 0.0306552 0.0769109 0.0495594 0.0367954 -0.0169471 0.0484628 0.0719717 0.103327 0.12492 0.186568 0.0702029
internal_weight=0 1996.99 1007.04 1321.25 1012.13 675.74 561.121 497.765 303.58 557.62 114.619 309.111 87.1823 221.929 454.514 91.9902 114.322 63.3557 194.186 157.381 9.14552 404.733 250.097 44.6105 205.486 115.404 64.0082 53.5204 21.4268 154.636
internal_count=44063 23955 20108 14073 11418 9882 8077 7439 4849 6044 1805 2655 590 2065 5374 1252 1064 638 2590 2082 134 4073 2672 451 2221 1314 708 588 237 1401
is_linear=0
shrinkage=0.1


Tree=8
num_leaves=31
num_cat=0
split_feature=18 17 21 5 0 18 1 5 24 18 16 0 0 22 1 1 1 19 9 24 15 24 7 17 15 5 1 2 6 2
split_gain=237.96 64.0906 31.6861 15.3991 17.4647 17.2726 26.2101 14.9966 14.4226 15.2229 15.0692 14.0112 13.7187 14.2187 13.1235 73.484 14.3441 12.5254 12.3852 11.7425 12.72 11.5626 18.354 11.5198 10.8094 11.1984 12.6117 16.2724 29.3625 10.6883
threshold=61.416666666666679 4.416666666666667 9.1055555555555561 427.00000000000006 2020101587.5000002 183.31666666666669 5187.0000000000009 515.00000000000011 305.03750000000008 469.83333333333337 2.5000000000000004 2022103898.5000002 2020100722.0000002 45.550000000000004 1086.0000000000002 1089.5000000000002 5319.0000000000009 3.7750000000000004 4.5000000000000009 113.46256684491979 1.5000000000000002 245.57777777777781 57.750000000000007 8.4166666666666696 1.5000000000000002 441.00000000000006 5187.0000000000009 1157.5000000000002 1.5000000000000002 1084.5000000000002
decision_type=8 8 10 2 2 8 2 2 10 10 2 2 2 10 2 2 2 10 2 10 2 10 2 10 2 2 2 2 2 2
left_child=2 14 12 -3 7 19 8 -5 11 10 -10 -7 -1 24 -2 18 -17 -9 29 20 -6 -19 -23 -21 25 -14 -27 -28 -29 -16
right_child=1 3 -4 4 5 6 -8 17 9 -11 -12 -13 13 -15 15 16 -18 21 -20 23 -22 22 -24 -25 -26 26 27 28 -30 -31
leaf_value=-0.057050903966163927 0.0089786995283744012 -0.045424678484469246 -0.076955967076073273 -0.028430495409385498 0.029768043102537174 -0.030536374810488893 0.055960664665973305 0.30992843084878086 0.33780351834504629 -0.022103092628413885 0.066411671151361831 0.01557295726500668 -0.067841743893963552 -0.0044646360485791894 0.44310314142138163 0.027582986050497072 0.061606551759360598 -0.029501440928762626 0.14100207026031136 0.068353129007715716 -0.038934956278708348 -0.019454851907459467 0.19387515498761315 -0.050965191549683091 -0.08650431363565933 -0.025049833055268297 0.0017877179026180381 0.53335290653357248 -0.045293207568114578 0.21404372831174401
leaf_weight=180.32465494051576 170.27447360008955 70.857364356517792 226.57573190703988 228.86212735250592 119.9820980168879 247.8534019254148 69.332580361515284 1.6639435216784466 2.2199976742267635 22.794720001518726 26.096560154110193 89.770870354026556 61.070839568972588 201.10600426420569 2.6825348958373061 709.10525334626436 150.15024710446596 16.746103405952454 23.3022445961833 93.367164898663759 34.754521511495113 7.9244385994970825 8.2126321718096715 8.8593292906880361 41.487999871373177 160.0365683734417 7.3981955312192422 1.876342259347439 1.6464017704129217 8.4663686007261258
leaf_count=3831 1653 1137 5713 3735 1494 4070 643 20 26 300 343 1221 1260 3681 24 6879 1139 277 204 1179 520 124 110 142 831 3227 140 35 32 73
internal_value=0 0.0171282 -0.044722 -0.000408052 0.00285199 0.010961 -0.000679907 -0.0191601 -0.010782 0.0387235 0.0876886 -0.0182764 -0.0335708 -0.0246499 0.0344224 0.0392701 0.0335284 0.0422532 0.182475 0.0317123 0.014337 0.0287084 0.0891151 0.0580126 -0.0394913 -0.0310851 -0.0179546 0.0860189 0.262915 0.269158
internal_weight=0 2113.28 881.523 1049.3 978.44 715.031 458.068 263.409 388.736 51.1113 28.3166 337.624 654.947 474.622 1063.98 893.707 859.256 34.5471 34.4511 256.963 154.737 32.8832 16.1371 102.226 273.516 232.028 170.958 10.9209 3.52274 11.1489
internal_count=44063 25313 18750 15341 14204 9938 6603 4266 5960 669 369 5291 13037 9206 9972 8319 8018 531 301 3335 2014 511 234 1321 5525 4694 3434 207 67 97
is_linear=0
shrinkage=0.1


Tree=9
num_leaves=31
num_cat=0
split_feature=18 23 21 15 24 21 23 5 4 1 1 1 20 22 23 13 5 9 0 23 0 0 20 18 20 24 24 18 9 14
split_gain=198.545 50.3955 29.8188 23.0479 18.7195 16.3988 16.0297 15.7373 13.8273 12.8165 17.4677 38.8683 14.7096 14.5855 13.7094 12.5879 12.505 12.4898 12.3562 13.7538 12.0788 11.456 11.3361 14.3557 11.2819 16.6977 10.9407 11.6699 19.5925 17.3265
threshold=61.416666666666679 4.8834841628959289 9.1055555555555561 2.5000000000000004 365.04000000000002 6.5277777777777786 6.2762289068231842 435.00000000000006 6.5000000000000009 1027.0000000000002 1089.5000000000002 1086.0000000000002 176.10000000000002 1419.5436507936511 2.0250000000000004 1.0000000180025095e-35 485.00000000000006 7.5000000000000009 2020100722.0000002 6.1880896226415105 2022104547.0000002 2021109075.0000002 537.68000000000018 401.38333333333338 200.10000000000002 146.26467331118496 102.03571428571429 133.16666666666671 13.500000000000002 1.0000000180025095e-35
decision_type=8 8 10 2 10 8 8 2 2 2 2 2 10 10 10 2 2 2 2 10 2 2 8 8 10 10 10 10 2 2
left_child=2 5 18 4 6 7 -3 15 9 14 11 -11 -13 17 -9 -2 -5 22 -1 -20 26 24 23 -14 25 -17 -8 28 29 -28
right_child=1 3 -4 16 -6 -7 20 8 -10 10 -12 12 13 -15 -16 21 -18 -19 19 -21 -22 -23 -24 -25 -26 -27 27 -29 -30 -31
leaf_value=-0.054209549399614948 -0.044425748778862774 0.027920217733839327 -0.074628067474668686 -0.042510424491634564 0.26249026128584813 0.28309234190921195 -0.020529960625917328 0.095445937264258068 -0.089636695126531718 0.026108597454850092 0.03271136712037697 0.029872098253876763 0.28047548181702692 -0.039641427294591934 -0.014795633078187971 0.049831455127070018 -0.0021917914060237691 0.12870814402279451 0.00087864191977218603 -0.035296081776679131 0.024681134415632838 -0.057985790859921171 0.3915873606365462 0.033379788056904301 0.010259359581111615 0.31255846569825063 0.0026254793644976807 -0.004945285261458477 0.41433180610516251 0.24136730661106945
leaf_weight=171.27826528996229 49.727158695459366 257.23169469088316 211.08626532927155 164.73081104457378 2.9012568183243266 2.5515279509127131 286.80635293573141 12.974863722920416 9.1676591485738737 57.814576081931591 825.73604858294129 7.4239323996007434 8.2253062836825919 2.6046357527375212 86.379269048571587 6.1730656325817161 144.31965866684914 11.683226667344568 160.65560962259769 303.94926847890019 115.23962391167879 9.1478898748755437 4.8885879144072524 3.2923513129353532 12.262875139713286 3.9778858423233032 12.630157060921197 35.340964064002037 1.7230060473084439 4.0034071691334239
leaf_count=3831 526 3154 5713 2536 30 38 4730 100 115 581 7663 59 64 23 894 67 2109 95 2785 6421 1395 95 38 26 137 39 190 522 26 61
internal_value=0 0.0151434 -0.0420617 -0.000859457 0.00899347 0.0298662 0.00796194 0.0292849 0.0326274 0.0337252 0.0374037 0.0777932 0.156185 0.186735 -0.000398956 -0.0130752 -0.0236825 0.207727 -0.031251 -0.0227872 -0.00330296 0.0363192 0.263997 0.209843 0.0748085 0.152787 -0.0127739 0.0286527 0.093337 0.0600864
internal_weight=0 2138.96 846.969 1024.93 715.876 1114.03 712.975 1111.48 1030.19 1021.02 921.669 95.9326 38.118 30.6941 99.3541 81.2889 309.05 28.0895 635.883 464.605 455.744 31.5617 16.4062 11.5177 22.4138 10.151 340.504 53.6975 18.3566 16.6336
internal_count=44063 25313 18750 14753 10108 10560 10078 10522 9658 9543 8549 886 305 246 994 864 4645 223 13037 9206 6924 338 128 90 243 106 5529 799 277 251
is_linear=0
shrinkage=0.1


Tree=10
num_leaves=31
num_cat=0
split_feature=17 18 15 19 24 0 15 5 5 17 12 15 22 20 19 23 8 5 20 19 5 12 18 1 2 1 22 0 5 9
split_gain=169.017 45.5737 27.8213 24.3401 18.8764 14.8745 14.382 15.7911 12.3159 11.9225 11.3082 11.0435 13.8051 14.6753 13.0286 19.4612 20.4298 12.5408 12.402 11.1518 10.6566 10.2754 9.69895 20.5318 11.0315 9.32445 9.2416 13.3408 9.90472 12.7187
threshold=7.166666666666667 93.166666666666671 1.5000000000000002 10.900000000000002 245.57777777777781 2022104547.0000002 3.5000000000000004 461.00000000000006 451.00000000000006 5.416666666666667 1950.0000000000002 2.5000000000000004 132.02000000000004 136.99000000000004 5.5500000000000007 5.7530487804878057 5.5000000000000009 505.00000000000006 245.01000000000002 7.9000000000000012 471.00000000000006 1750.0000000000002 210.96666666666667 1170.5000000000002 1107.5000000000002 1101.5000000000002 28.010000000000002 2020105529.0000002 515.00000000000011 4.5000000000000009
decision_type=10 10 2 10 10 2 2 2 2 10 8 2 10 10 10 8 2 2 10 8 2 10 10 2 2 2 10 2 2 2
left_child=1 5 -3 26 11 8 7 -6 -1 -9 -11 12 19 14 -14 16 21 18 -15 -4 -21 -16 23 -19 -25 -20 -2 -28 -29 -30
right_child=3 2 4 -5 6 -7 -8 9 -10 10 -12 -13 13 17 15 -17 -18 22 25 20 -22 -23 -24 24 -26 -27 27 28 29 -31
leaf_value=-0.037114615669437502 -0.051980766787474236 0.046220197540518287 -0.02512599339404958 -0.081698190378853008 0.00096950446910229211 0.021468724036376934 0.016076154548650044 0.057255282674430842 -0.0054664780647474395 0.20659305405739656 -0.058531739687791663 -0.016600885712912038 0.023035998205966912 -0.0020569163808556962 0.061582056492149422 0.015034554304722459 0.51386522211194563 0.025056394964484936 0.25163556791468189 0.00031094193856931267 0.35874667405080335 0.36227496369562939 0.033546189549535123 0.4667337490379504 0.16917779101290276 0.054071269415819523 -0.038668550245928447 -0.0068910238488010898 -0.10605356386884324 0.19229484925089582
leaf_weight=173.30022947862744 196.55846424773335 374.26630786433816 91.994847446680069 130.91057804226875 50.864558417350054 140.86805934086442 410.31218449026346 134.37978914752603 423.32140579819679 9.7210652157664263 1.9278025850653655 214.66532799974084 11.040261097252371 143.82674037665129 3.4572441056370709 4.7955202236771592 2.3963989987969398 5.8174148797988909 2.9977404177188864 1.8563999980688088 1.4994116462767122 1.6929534412920473 18.02987090498209 2.2317243106663227 2.8207044303417206 11.763310164213179 269.00796208530664 133.74692391604185 1.9488431960344303 5.3555215150117874
leaf_count=3044 5013 3013 1289 3722 528 1752 4262 1064 6776 116 24 2875 115 1549 39 61 27 64 28 30 23 21 159 21 28 104 5643 2537 37 99
internal_value=0 0.0126005 0.0225945 -0.0425923 0.0147563 -0.00775847 0.0267372 0.0489541 -0.0146593 0.0656681 0.162717 0.000789867 0.0129811 0.0272587 0.10196 0.172559 0.272659 0.0179424 0.00690189 -0.0185943 0.160464 0.160425 0.0785274 0.153138 0.300612 0.0941935 -0.0341531 -0.0256076 -0.000698298 0.112694
internal_weight=0 2239.85 1502.36 737.528 1128.09 737.49 607.205 196.893 596.622 146.029 11.6489 520.886 306.221 210.87 23.3824 12.3421 7.5466 187.488 158.588 95.3507 3.35581 5.1502 28.8997 10.8698 5.05243 14.7611 606.618 410.059 141.051 7.30436
internal_count=44063 27012 15440 17051 12427 11572 5994 1732 9820 1204 140 6433 3558 2216 263 148 87 1953 1681 1342 53 60 272 113 49 132 13329 8316 2673 136
is_linear=0
shrinkage=0.1


Tree=11
num_leaves=31
num_cat=0
split_feature=17 18 19 15 5 24 2 0 5 5 22 16 16 8 3 9 19 0 24 15 0 23 20 2 1 2 20 11 5 7
split_gain=141.245 35.9948 23.0477 21.3735 17.0206 18.0242 13.5128 13.3013 11.5232 10.8201 12.6465 10.2272 9.87907 9.80031 13.2247 25.1711 9.52326 9.02 10.1908 15.334 8.73006 10.812 18.5174 10.6389 9.62433 10.6209 12.2213 13.4564 10.5646 10.6307
threshold=7.166666666666667 93.166666666666671 10.900000000000002 1.5000000000000002 483.00000000000006 134.72077922077924 1096.5000000000002 2022109172.5000002 423.00000000000006 459.00000000000006 46.414285714285718 8.5000000000000018 4.5000000000000009 7.5000000000000009 1.0000000180025095e-35 13.500000000000002 7.4500000000000011 2018101375.0000002 46.149074074074086 1.5000000000000002 2019102209.0000002 7.6026315789473697 48.062500000000007 1055.5000000000002 5632.0000000000009 1061.5000000000002 68.050000000000011 1.0000000180025095e-35 479.00000000000006 53.500000000000007
decision_type=10 10 10 2 2 10 2 2 2 2 8 2 2 2 2 2 10 2 10 2 2 10 10 2 2 2 10 10 2 2
left_child=1 7 17 -3 5 -5 13 9 -7 11 -11 -1 -9 -6 -15 -16 -10 -2 -19 -20 -12 23 -23 -22 25 26 27 -25 -27 -30
right_child=2 3 -4 4 6 8 -8 12 16 10 20 -13 -14 14 15 -17 -18 18 19 -21 21 22 -24 24 -26 28 -28 -29 29 -31
leaf_value=-0.03040914086812313 -0.077450298794096692 0.040255164932795011 -0.079650796454228345 -0.040928444330460056 -0.00258821992282488 -0.070355476497665367 0.03866196601184442 0.28631278665668775 0.01332739042694861 -0.031666665907332622 -0.059565157581449937 0.027263537366291342 0.047020496365802994 0.024991766080638467 0.4044089190861585 0.0047315206129152588 -0.086569066208164513 -0.046300383005018056 0.04296512640404046 -0.025281632742157403 -0.024830723610763501 0.46929301380586042 -0.040599974594579973 0.095125442621304193 -0.11159295181049277 -0.0039677631883585267 -0.070338670246094775 0.38416623347278733 -0.091458270660262228 0.043720966246627239
leaf_weight=254.72455633804202 40.291968740522861 386.07628631591797 121.34435480087996 85.973897166550159 181.33767933025956 17.872743807733059 327.45094176381826 2.4845361933112127 487.27603952214122 90.908118344843388 17.012380074709654 34.969234846532345 5.6456461176276207 24.36712766811252 2.8967844843864432 3.4552484266459942 9.7336418814957124 201.63037154451013 36.841142050921917 309.51179545558989 62.576534893363714 1.388834681361913 1.4619671441614626 4.840376064181326 5.3560198135673991 106.17162867635489 2.3679452277719975 2.4139554314315319 6.0815093517303458 134.03443697467446
leaf_count=4225 968 3013 3722 1266 1937 234 3292 26 5204 1701 325 604 65 254 32 43 165 5228 707 6426 908 25 21 63 59 1516 26 30 95 1883
internal_value=0 0.0111742 -0.0399699 0.0199184 0.0130332 0.00145669 0.0259262 -0.00704915 0.00853407 -0.0084769 0.00150177 -0.0234474 0.120147 0.00625997 0.0584916 0.187001 0.011371 -0.0317849 -0.0284272 -0.0180223 0.0102746 0.0139115 0.207806 0.0122046 0.0210751 0.0238517 0.126919 0.191307 0.019825 0.0378537
internal_weight=0 2258.88 709.62 1526.44 1140.36 600.856 539.508 732.438 514.882 724.307 434.614 289.694 8.13018 212.057 30.7192 6.35203 497.01 588.275 547.983 346.353 343.706 326.693 2.8508 323.842 261.266 255.91 9.62228 7.25433 246.288 140.116
internal_count=44063 27012 17051 15440 12427 6869 5558 11572 5603 11481 6652 4829 91 2266 329 75 5369 13329 12361 7133 4951 4626 46 4580 3672 3613 119 93 3494 1978
is_linear=0
shrinkage=0.1


Tree=12
num_leaves=31
num_cat=0
split_feature=17 24 19 15 15 24 1 17 23 21 21 3 20 0 7 9 5 1 18 19 5 12 23 18 14 10 20 22 16 5
split_gain=117.871 28.84 21.6997 16.3643 14.7227 15.7791 12.7501 12.1903 12.034 11.8269 11.6567 11.4948 11.4094 11.7018 11.5563 11.1526 13.5136 10.4319 10.3494 10.2691 9.9764 11.9887 21.4404 16.6496 13.9881 11.8855 9.85067 9.74533 9.68636 9.6075
threshold=7.166666666666667 94.008823529411771 10.900000000000002 1.5000000000000002 3.5000000000000004 378.90192307692314 5319.0000000000009 2.416666666666667 6.253571428571429 2.4142857142857146 5.154761904761906 1.5000000000000002 390.38000000000005 2021105923.5000002 59.250000000000007 14.500000000000002 483.00000000000006 5632.0000000000009 679.95000000000016 6.5500000000000007 477.00000000000006 1250.0000000000002 6.36451048951049 183.31666666666669 1.5000000000000002 1.0000000180025095e-35 116.7 109.26111111111113 9.5000000000000018 473.00000000000006
decision_type=10 10 10 2 2 10 2 10 8 10 10 2 10 2 2 2 2 2 10 10 2 8 8 10 2 2 10 10 2 2
left_child=1 3 -2 6 7 -6 8 -3 10 -5 -1 15 14 -14 20 -12 -17 19 28 -8 -9 22 23 24 -22 27 29 -24 -7 -16
right_child=2 4 -4 9 5 18 17 12 -10 -11 11 -13 13 -15 26 16 -18 -19 -20 -21 21 -23 25 -25 -26 -27 -28 -29 -30 -31
leaf_value=-0.009830660687262946 -0.029513051670687514 0.046967021819691507 -0.077533971535815149 0.067781858208462761 -0.010470849950173878 0.041483703128871487 0.05419348597306748 0.0048287437563155631 -0.015046667499915303 -0.047991307218016366 0.024382983011581726 0.29576242344247378 0.12024699875265477 -0.087538342675687775 0.21392429098815424 0.05839471813427255 0.32625586147163427 -0.04140318213807323 0.0072514045798527764 0.26662979748208226 0.073258617809676782 0.019095910580708576 0.3526996563934553 -0.0085637222999868888 0.27787668585925712 0.44622994763661483 0.26068972379804889 0.036776293102159401 0.19714436559219833 -0.014399246082774132
leaf_weight=93.459352467209101 571.63092558830976 204.6019794344902 112.64360406808555 9.5510936565697175 305.26112242415547 97.957834370434284 45.848277490586042 388.61752909049392 362.58836265653372 115.88057348877192 92.039452899247408 1.7144169844686974 18.856133792549375 3.1653066352009764 2.7005516700446588 5.9916271157562715 2.7469326630234718 11.459415677934883 163.31097662821412 2.3943190202116957 27.419024724513296 269.50794979929924 1.5167378000915039 27.455614376813173 3.8045200780034056 1.9730625227093694 3.344358302652835 2.7408681809902191 4.1677165366709223 5.8031769096851349
leaf_count=1074 13329 1457 3722 134 3804 1009 372 4153 6133 2099 1353 20 161 26 24 92 35 140 1496 35 270 2602 22 278 35 24 23 38 42 61
internal_value=0 0.00991555 -0.0374181 -0.00624256 0.0177581 0.00503452 0.000439057 0.0253101 -0.00425605 -0.0391757 0.0157109 0.0390013 0.0194559 0.0903805 0.0173306 0.0346333 0.142596 0.044364 0.0228662 0.0647369 0.0157253 0.028388 0.0669688 0.0482411 0.0981909 0.243343 0.115292 0.149321 0.0478362 0.0581101
internal_weight=0 2275.88 684.275 743.674 1532.2 570.698 618.242 961.507 558.54 125.432 195.952 102.492 756.905 22.0214 734.883 100.778 8.73856 59.702 265.437 48.2426 723.035 334.418 64.9098 58.6792 31.2235 6.23067 11.8481 4.25761 102.126 8.50373
internal_count=44063 27012 17051 11487 15525 6351 9254 9174 8707 2233 2574 1500 7717 187 7530 1480 127 547 2547 407 7422 3269 667 583 305 84 108 60 1051 85
is_linear=0
shrinkage=0.1


Tree=13
num_leaves=31
num_cat=0
split_feature=20 17 19 0 5 0 24 5 15 24 0 6 16 23 5 2 15 24 19 22 0 22 5 18 1 2 6 23 19 16
split_gain=102.496 29.9931 17.5966 15.5322 16.6013 12.318 11.4846 9.49771 8.92052 12.9493 10.246 12.7446 15.4656 9.72993 16.2765 8.5261 8.41912 8.48338 8.44846 8.35795 10.9389 17.9528 8.48468 8.2528 10.5228 8.18544 16.2556 8.17427 8.06367 9.33859
threshold=54.990000000000002 4.416666666666667 10.450000000000001 2020100722.0000002 465.00000000000006 2022109172.5000002 408.38055555555565 441.00000000000006 1.5000000000000002 68.122500000000016 2020105079.0000002 -10.499999999999998 5.5000000000000009 7.5036231884057978 473.00000000000006 402.00000000000006 2.5000000000000004 120.01944444444446 4.1000000000000005 97.020000000000024 2021101984.5000002 88.050000000000011 483.00000000000006 206.75 1122.5000000000002 1032.5000000000002 -1.0000000180025095e-35 8.4019230769230777 8.3666666666666689 9.5000000000000018
decision_type=8 8 10 2 2 2 8 2 2 10 2 2 2 8 2 2 2 10 10 8 2 10 2 10 2 2 2 8 10 2
left_child=2 -2 7 6 5 -5 16 -1 15 -10 11 12 -11 19 -15 -9 17 -3 23 20 21 22 -12 -18 -25 26 -19 -13 29 -8
right_child=1 3 -4 4 -6 -7 28 8 9 10 13 27 -14 14 -16 -17 18 25 -20 -21 -22 -23 -24 24 -26 -27 -28 -29 -30 -31
leaf_value=-0.057560349731801519 0.019918740565821734 -0.029611202668294485 -0.072197891879350704 -0.013501869048118396 0.015419162967675549 0.19094652293849657 0.025970307805737343 0.3499023998923414 -0.074359524572636226 0.42533275893910427 -0.052228064232121764 -0.045349588044844152 -0.03996411791774971 0.42190189817079882 -0.0020586748110447322 -0.010443506951976949 -0.108275225973159 0.44433559012905549 -0.047116113354873035 -0.042787107695456683 -0.10547745498161537 0.55413399754277359 0.31552891231736435 0.2918495248246748 0.011165905005230676 0.02309923898473595 -0.0026344560933023852 0.21042006610221456 -0.077350023716127481 0.2171524907785144
leaf_weight=95.561284225434065 1153.8162010200322 37.773080326616764 119.8050677832216 383.47353269532323 521.36281427182257 2.969774715602397 38.476241994649172 0.65856074914336105 65.843302508816123 1.3205499872565263 1.8664166610687987 72.268571142107248 1.5561071466654537 1.7043076716363423 1.9321405589580534 222.30888011679053 2.1078283786773673 1.442674554884434 172.86438559927046 9.4493385590612888 1.6249102391302583 1.0611052364110944 0.94499451294541348 2.2352749593555927 3.318735558539629 21.136783611029387 1.8661931119859243 1.2715280391275872 7.0100457146763793 2.7367009334266177
leaf_count=2372 9939 737 4197 5997 7145 34 597 14 1619 33 38 1738 41 37 43 5087 31 21 3431 180 34 22 18 28 45 328 28 35 158 36
internal_value=0 0.00840973 -0.0379183 -0.00266766 0.00377662 -0.0119307 -0.0227735 -0.0293512 -0.0223276 -0.0402773 -0.0166553 -0.0328503 0.173634 0.0499408 0.19664 -0.00937918 -0.0316285 9.40637e-05 -0.0425617 0.0142497 0.112288 0.203663 0.0713854 0.0601938 0.12413 0.0459942 0.192246 -0.0409273 0.0218007 0.0386656
internal_weight=0 2352.59 599.177 1198.77 907.806 386.443 290.968 479.372 383.811 160.843 95 76.4168 2.87666 18.5832 3.63645 222.967 242.745 62.2187 180.526 14.9468 5.49743 3.87252 2.81141 7.66184 5.55401 24.4457 3.30887 73.5401 48.223 41.2129
internal_count=44063 28555 15508 18616 13176 6031 5440 11311 8939 3838 2219 1847 74 372 80 5101 4649 1114 3535 292 112 78 56 104 73 377 49 1773 791 633
is_linear=0
shrinkage=0.1


Tree=14
num_leaves=31
num_cat=0
split_feature=17 17 5 2 19 2 18 18 24 15 20 16 22 0 2 0 12 21 18 16 24 21 12 0 5 22 5 9 6 18
split_gain=88.5333 24.6885 15.7165 13.9482 13.3162 11.9779 13.693 14.1724 10.6456 14.034 13.9944 15.5013 11.6917 10.5497 10.4875 10.0635 9.94928 11.4814 9.63516 15.273 12.1165 17.6559 17.8418 15.0908 11.6574 9.68504 10.3761 10.4627 9.50463 11.0566
threshold=8.1666666666666696 4.416666666666667 421.00000000000006 1057.0000000000002 11.550000000000002 1061.5000000000002 60.125000000000007 37.016666666666673 408.38055555555565 2.5000000000000004 510.97000000000008 2.5000000000000004 49.236111111111121 2022104547.0000002 1079.5000000000002 2022105598.5000002 3395.0000000000005 7.6833333333333345 180.06666666666669 1.5000000000000002 146.26467331118496 8.2111111111111121 1350.0000000000002 2019105425.0000002 501.00000000000006 148.25500000000002 509.00000000000006 13.500000000000002 3.5000000000000004 401.38333333333338
decision_type=10 8 2 2 10 2 10 10 10 2 10 2 10 2 2 2 8 10 10 2 10 8 10 2 2 10 2 2 2 10
left_child=1 -1 -3 -4 16 6 7 -5 9 12 11 -10 13 -7 -13 -15 -2 -18 20 -20 21 -14 -23 -22 -21 -25 27 -27 -16 -30
right_child=4 2 3 5 -6 8 -8 -9 10 -11 -12 14 18 15 28 -17 17 -19 19 24 23 22 -24 25 -26 26 -28 -29 29 -31
leaf_value=0.016843809368726637 -0.036200747071968679 -0.051918660714699076 -0.021313596157234813 0.10364742353380921 -0.083199779378145114 -0.015598905217008574 0.0080453082569175039 0.41103373683597716 0.36592500982012899 -0.023157241718390748 0.0080246900809516891 -0.10805341221773282 0.016075477017728945 0.057011952858506167 0.057076232888866901 -0.0079222695591989675 0.32916368486900582 -0.044634910122671637 0.24203376853892938 -0.045022967087751803 -0.090694763030700995 -0.027425312288120226 0.46841820509383025 0.27498400904400494 0.065428710527100697 0.044691726962147543 0.22848405054240764 0.23763208033892164 0.31153679836746523 0.0055446473955682446
leaf_weight=1184.9341335222125 378.46939356997609 62.715682519599795 258.29701062850654 11.088138800114395 66.454770291224122 270.64171160012484 16.820476993918419 1.7345905862748612 2.0936177633702782 201.73623229935765 40.696497913450003 2.5841318108141449 219.96360148116946 45.610966041684151 11.726088684052231 50.064991062507033 1.6109793242067092 1.6771891824901102 2.2398054152727118 49.739997290074825 4.7813787311315528 1.2474359478801482 1.7350282445549963 2.8512608483433715 11.827785935252903 28.578484829515222 4.3430929929018012 3.1171451583504668 3.7947999127209178 1.7143248245120046
leaf_count=10218 10237 1225 4310 151 2555 5231 214 28 27 3358 480 40 3091 496 143 696 37 47 26 689 62 22 30 36 136 329 42 35 51 21
internal_value=0 0.00638112 -0.00307011 -0.000617346 -0.0418875 0.00477844 0.0673867 0.145229 0.00284739 6.91517e-05 0.0427166 0.107146 0.00679417 -0.0055088 0.07981 0.0230334 -0.034696 0.138501 0.0204336 -0.0144725 0.0287874 0.0193523 0.261028 0.076954 -0.0238041 0.0975658 0.0835291 0.0636667 0.107977 0.216318
internal_weight=0 2496.68 1311.74 1249.03 448.212 990.732 29.6432 12.8227 961.088 898.479 62.6095 21.913 696.743 366.318 19.8193 95.676 381.758 3.28817 330.425 63.8076 266.617 222.946 2.98246 43.6714 61.5678 38.89 36.0387 31.6956 17.2352 5.50912
internal_count=44063 31187 20969 19744 12876 15434 393 179 15041 14279 762 282 10921 6423 255 1192 10321 84 4498 851 3647 3143 52 504 825 442 406 364 215 72
is_linear=0
shrinkage=0.1


Tree=15
num_leaves=31
num_cat=0
split_feature=18 21 5 7 5 0 0 0 1 1 20 24 2 1 6 23 21 9 21 16 23 1 24 20 1 6 18 0 18 20
split_gain=75.4396 18.7607 17.4118 16.0911 13.8853 12.4692 12.0249 11.7619 11.2268 36.4787 11.5494 11.0732 10.5295 10.1236 9.8898 15.0256 10.8076 13.6433 11.6622 9.80586 14.7382 16.8342 14.674 11.1585 9.76031 11.6613 14.6357 11.7538 11.9349 13.35
threshold=27.583333333333339 5.7888888888888896 441.00000000000006 59.250000000000007 425.00000000000006 2018104232.5000002 2019105513.0000002 2021102980.5000002 1087.5000000000002 1089.5000000000002 176.10000000000002 87.00897435897437 1079.5000000000002 5187.0000000000009 -1.0000000180025095e-35 6.8588039867109645 6.3875000000000011 3.5000000000000004 7.0500000000000007 9.5000000000000018 5.5735930735930745 1160.5000000000002 287.5263157894737 606.32000000000005 1211.5000000000002 4.5000000000000009 516.76666666666677 2021101251.0000002 93.166666666666671 125.01000000000001
decision_type=8 8 2 2 2 2 2 2 2 2 10 10 2 2 2 8 10 2 10 2 8 2 10 8 2 2 10 2 10 10
left_child=2 4 -1 5 -2 -3 -6 11 12 10 -10 -4 -8 -7 15 16 -5 -18 -19 24 22 -22 -21 -24 25 26 27 28 -11 -30
right_child=1 3 7 14 6 13 8 -9 9 19 -12 -13 -14 -15 -16 -17 17 18 -20 20 21 -23 23 -25 -26 -27 -28 -29 29 -31
leaf_value=-0.074021959890520433 -0.037162855767389119 -0.059526310850677534 -0.060963386481178342 -0.023262612545092265 -0.0083211823419473679 -0.0095452523641397016 -0.035668613393990183 -0.0053450586158752195 0.021661907007498187 -0.017235918490030578 0.13840754501775512 -0.018959970149747696 0.012393249809521225 0.02735548761118934 0.012856663080873208 -0.078705458971131431 0.46334884921275715 0.30136225215431511 0.048277880012812635 0.019026140792724532 0.48085986413998055 0.04773052980277756 0.18629642624103479 -0.025578473830873461 0.032318381455573274 -0.013429705213816635 -0.020802111979552604 0.012433327926228218 0.1313404061825085 0.043713675987806046
leaf_weight=97.87797830440104 53.968366902321577 45.239942533895373 128.16906639933586 2.1755257956683645 201.80689194425941 675.64025516435504 68.544461701065302 154.72681967355311 11.26362171769142 26.07162344828248 34.211953472346067 122.99012975394726 136.07733613625169 83.53967447206378 16.870012767612934 2.8685926310718068 1.899611096829174 3.3234429210424423 4.0268337279558182 50.628054101020098 1.6963361687958234 1.9051365889608858 10.417962841689583 3.2646134495735177 261.52735176309943 166.91921271756291 89.532823111861944 341.07811036705971 20.345661498606205 119.53438930213451
leaf_count=3070 671 955 3815 22 2613 11664 704 4400 88 383 226 3317 1323 886 172 33 20 31 37 502 25 26 82 28 2013 1617 819 3094 209 1218
internal_value=0 0.00635059 -0.0361631 -0.00579259 0.012697 -0.00852398 0.0144389 -0.0270335 0.0178589 0.0217352 0.109491 -0.0403947 -0.00370657 -0.00548472 0.0647112 0.125911 0.177284 0.224451 0.162711 0.0180837 0.0548829 0.25174 0.0438587 0.135744 0.0156456 0.00993438 0.0164717 0.0230536 0.0448813 0.0564591
internal_weight=0 2434.38 503.764 835.584 1598.79 804.42 1544.83 405.886 1343.02 1138.4 45.4756 251.159 204.622 759.18 31.164 14.294 11.4254 9.24989 7.35028 1092.92 67.9121 3.60147 64.3106 13.6826 1025.01 763.482 596.563 507.03 165.952 139.88
internal_count=44063 29461 14602 13820 15641 13505 14970 11532 12357 10330 314 7132 2027 12550 315 143 110 88 68 10016 663 51 612 110 9353 7340 5723 4904 1810 1427
is_linear=0
shrinkage=0.1


Tree=16
num_leaves=31
num_cat=0
split_feature=17 5 1 2 9 8 16 12 24 18 14 1 19 20 18 23 1 6 1 13 12 18 18 2 2 24 12 16 1 1
split_gain=65.3703 18.5254 15.0967 15.8255 15.7655 28.269 17.0432 18.508 15.1391 13.2996 15.9824 13.0221 12.7677 12.0406 11.85 12.7087 10.3481 14.5074 13.8391 13.2245 10.5902 15.6811 12.4182 11.7245 14.821 10.8923 10.3417 10.1355 10.0289 9.9341
threshold=8.1666666666666696 425.00000000000006 5319.0000000000009 1051.5000000000002 8.5000000000000018 4.5000000000000009 3.5000000000000004 1450.0000000000002 151.53968253968256 55.416666666666679 1.0000000180025095e-35 5568.0000000000009 11.550000000000002 44.050000000000004 524.48333333333346 6.2236111111111123 1091.5000000000002 5.5000000000000009 1076.0000000000002 1.0000000180025095e-35 1350.0000000000002 213.66666666666669 211.06666666666669 1169.5000000000002 1167.5000000000002 272.84675324675328 1175.0000000000002 3.5000000000000004 1040.0000000000002 1123.5000000000002
decision_type=10 2 2 2 2 2 2 10 8 10 2 2 10 10 8 10 2 2 2 2 10 10 8 2 2 10 10 2 2 2
left_child=1 -1 3 9 5 6 7 -5 -7 -3 13 -4 -2 29 15 -6 17 18 27 28 21 26 -22 24 -24 -23 -18 -10 -19 -11
right_child=12 2 11 4 14 8 -8 -9 16 10 -12 -13 -14 -15 -16 -17 20 19 -20 -21 22 25 23 -25 -26 -27 -28 -29 -30 -31
leaf_value=-0.03424631319593812 -0.030373844972178984 -0.045814897478370253 0.041621101654096451 0.097571013990970623 0.011671588098286247 0.011000479292837595 0.00010536061247471865 0.014292901471415057 0.2478538521770568 0.41683407727205452 0.039753998880814448 -0.0065520567429052587 -0.080485855008243373 -0.019829292088785238 -0.026632607530364262 -0.026548876405707453 0.0033044304242754938 0.4763927897066097 0.16329889793916488 0.067477893196527236 -0.03319171227931747 -0.074695995832758613 0.060589913656561016 -0.020103261335297624 0.2777580948436737 0.1278510207225316 0.28193850554541672 0.0088337044893227589 0.19014905222023629 0.026167906515459711
leaf_weight=113.68245166912675 360.45134570263326 100.01510311849415 208.53587291017175 38.986154675483704 423.88118064589798 88.155042598024011 660.93522856198251 84.59187876060605 1.9442489705979848 1.1441205367445939 65.731884930282831 76.772106831893325 59.192030616104603 199.39281677827239 167.93787702918053 109.4650541972369 1.6877711750566975 2.3692694418132287 11.925106078386305 3.2129827551543713 20.987958882004023 4.7537278495728952 66.885662734508514 17.786979164928198 3.2975092194974414 6.0137710459530354 6.320190753787756 20.270904693752527 2.5321361981332302 1.5099090859293935
leaf_count=1964 10321 2066 1496 502 4630 1295 8238 1052 24 20 756 753 2555 2294 2209 2106 21 24 103 32 248 46 690 182 30 48 83 225 19 31
internal_value=0 0.00519715 0.0070678 0.00415077 0.00812631 0.015924 0.00647869 0.0405653 0.0446288 -0.0146997 -0.00307826 0.0286584 -0.0374423 -0.0170129 -0.00346711 0.00382714 0.0620683 0.104966 0.0763999 0.225155 0.0478775 0.117242 0.0359249 0.0524147 0.0707934 0.0384288 0.223213 0.0297525 0.328515 0.194579
internal_weight=0 2510.72 2397.04 2111.73 1743.94 1042.66 784.513 123.578 258.143 367.794 267.779 285.308 419.643 202.047 701.284 533.346 169.988 42.2546 34.1403 8.11439 127.734 18.7755 108.958 87.9702 70.1832 10.7675 8.00796 22.2152 4.90141 2.65403
internal_count=44063 31187 29223 26974 21807 12862 9792 1554 3070 5167 3101 2249 12876 2345 8945 6736 1775 427 352 75 1348 198 1150 902 720 94 104 249 43 51
is_linear=0
shrinkage=0.1


Tree=17
num_leaves=31
num_cat=0
split_feature=20 19 5 19 15 9 4 5 5 12 22 8 12 0 18 1 2 14 1 5 18 15 24 18 17 0 20 18 20 18
split_gain=56.0208 14.9889 14.8605 13.678 10.9817 10.5169 10.3404 12.4501 10.2972 9.90668 17.6695 9.09298 9.05712 12.1707 11.9815 10.9852 9.13623 12.97 9.96617 8.9513 8.68763 8.67935 15.7902 14.7208 15.445 10.2383 8.56199 22.0021 11.9851 17.1018
threshold=54.990000000000002 8.2916666666666696 477.00000000000006 11.550000000000002 1.5000000000000002 2.5000000000000004 6.5000000000000009 481.00000000000006 441.00000000000006 1075.0000000000002 153.80500000000004 5.5000000000000009 1250.0000000000002 2021110066.5000002 102.75000000000001 1177.5000000000002 1049.0000000000002 2.5000000000000004 1087.5000000000002 415.00000000000006 21.166666666666668 1.5000000000000002 176.01250000000002 72.250000000000014 7.5833333333333348 2018110099.0000002 310.02000000000004 420.13333333333338 446.67000000000007 526.35000000000014
decision_type=8 10 2 10 2 2 2 2 2 10 10 2 8 2 8 2 2 2 2 2 10 2 8 10 8 2 8 8 10 10
left_child=3 2 19 8 5 -3 12 -8 20 10 -6 -12 13 26 -15 -16 17 18 -14 -2 -1 23 -23 -21 25 -25 27 -4 -28 -30
right_child=1 4 6 -5 9 -7 7 -9 -10 -11 11 -13 16 14 15 -17 -18 -19 -20 21 -22 22 -24 24 -26 -27 28 -29 29 -31
leaf_value=-0.076950928400801269 -0.045535546657802593 0.36858298891897584 0.036261173903664172 -0.077979101953496263 -0.10484272287629932 0.028245820631084585 0.12982675960167153 -0.066156491636263845 -0.01768031906802223 -0.060796036604466336 0.10782435266557222 0.55042054820051722 -0.066081935974516212 0.27740178283685746 0.0056193368610141462 0.14678714264766654 0.016932489700602609 0.21947105531416528 -0.0007067695376339687 -0.0088584046621823804 -0.012005685262788765 -0.028661745985542331 0.0047809929550598684 0.17065081107659325 0.26427096249845267 0.020595385070256895 -0.05055653604157867 0.32444627293715073 0.17336587837614506 -0.00069775555635813924
leaf_weight=60.614774905145168 42.988317549228668 1.0513947475701559 108.00093897618353 53.588021617382765 1.9516126122325652 6.6558009665459394 3.6905252672731903 26.636320581659675 392.3522194493562 63.262650739401579 0.941361019387841 0.91573196090757847 29.835073720663786 3.3403725065290955 11.349666859954597 10.717878576368092 765.44407999701798 2.4009488224983206 106.7624757103622 223.71448112279177 31.198491208255291 218.58318562805653 398.7164704836905 4.6200200989842406 2.676806364208459 287.72218714281917 28.573020841926336 2.7158632501959792 7.2695624083280554 25.250014647841454
leaf_count=2025 708 20 1263 2511 50 129 58 413 10227 1558 24 23 382 39 119 95 7954 31 1211 3528 745 3415 4444 32 40 2322 344 25 84 244
internal_value=0 0.00568821 0.007114 -0.0300409 -0.0383755 0.0746737 0.0152978 -0.042307 -0.024735 -0.0513661 0.105266 0.326068 0.0168836 0.0363009 0.1009 0.0741824 0.0126496 -0.0109359 -0.0149857 -0.000743331 -0.0548823 0.000951639 -0.00706094 0.0104867 0.0251562 0.0229668 0.0267478 0.0433303 -0.00330445 0.0382132
internal_weight=0 2385.79 2311.01 537.754 74.7786 7.7072 1131.99 30.3268 484.165 67.0714 3.80871 1.85709 1101.66 197.217 25.4079 22.0675 904.443 138.998 136.598 1179.02 91.8133 1136.03 617.3 518.733 295.019 292.342 171.809 110.717 61.0926 32.5196
internal_count=44063 28555 26751 15508 1804 149 12262 471 12997 1655 97 47 11791 2213 253 214 9578 1624 1593 14489 2770 13781 7859 5922 2394 2354 1960 1288 672 328
is_linear=0
shrinkage=0.1


Tree=18
num_leaves=31
num_cat=0
split_feature=17 5 0 18 1 2 18 20 9 8 24 0 21 18 18 24 14 1 20 2 2 22 0 22 12 6 24 7 5 17
split_gain=47.2375 13.0952 11.2923 16.9974 11.943 12.1126 12.8593 17.643 11.7319 20.5561 11.1518 19.6104 10.9432 10.2784 11.3881 10.033 9.87472 9.762 9.6548 9.59094 20.2493 14.0365 11.2002 8.91497 8.86177 12.8234 10.7852 8.48467 9.64472 14.6709
threshold=8.1666666666666696 425.00000000000006 2019101631.0000002 2025.1750000000002 5319.0000000000009 1031.5000000000002 65.166666666666671 60.850000000000001 8.5000000000000018 4.5000000000000009 109.97727272727273 2021109075.0000002 7.2111111111111121 524.48333333333346 511.30000000000013 248.14020907700157 1.5000000000000002 5340.5000000000009 683.30000000000007 1129.5000000000002 1109.5000000000002 308.28055555555562 2020103223.0000002 405.97500000000008 1075.0000000000002 1.5000000000000002 106.16951566951569 59.250000000000007 497.00000000000006 2.166666666666667
decision_type=10 2 2 8 2 2 10 10 2 2 10 2 10 8 8 10 2 2 10 2 2 8 2 10 8 2 10 2 2 10
left_child=1 -1 3 27 5 6 -4 12 9 -7 -2 -12 -8 14 24 -11 -9 -6 19 20 22 -22 -17 -23 25 26 -10 28 -3 -30
right_child=10 2 4 -5 17 8 7 16 13 15 11 -13 -14 -15 -16 18 -18 -19 -20 -21 21 23 -24 -25 -26 -27 -28 -29 29 -31
leaf_value=-0.029907468786155956 -0.046232519420196017 -0.048955857974345519 -0.055234491026925903 0.15670573968289092 0.054830619619505298 0.0062985095151472633 0.056802867019449213 -0.017683977013346289 0.023924272369449745 0.025029202157341696 -0.015323112482983207 0.33999830809207965 0.35222343135560785 -0.024410950447987641 0.19239625142752301 -0.037808974469955535 0.061336776858363397 0.014498906766874426 -0.0085256117997231737 0.044366145556808005 0.42325170903565906 0.010661473552892499 0.11182202688866 0.27566545335802001 0.0012137043036184979 -0.035055815053182567 0.27091735439820186 0.022091624392280643 0.2609938487319462 -0.007247809190588041
leaf_weight=107.89834729209542 244.08847002126276 107.29410167224705 63.381736459210515 5.46919036284089 87.141062628477812 775.10264183394611 3.0016899220645419 129.07337632402778 2.9642804116010648 175.05130201950669 148.81948945298791 1.5696391724050034 2.1534636281430721 161.97530045360327 3.2031272165477267 6.4944131970405605 18.022091064602137 192.77454264089465 14.202788032591341 35.033444847911596 3.1103203520178768 2.3498881310224542 21.77539224922657 2.7609711587429047 507.03356671147048 5.1099040508270264 4.3803891390562057 35.517350187525153 2.1289418190717688 48.23017643392086
leaf_count=1964 8926 1941 1328 48 504 9450 40 1378 41 2253 3918 32 28 2202 28 66 177 1597 109 285 25 22 168 21 6216 68 45 369 21 793
internal_value=0 0.00417698 0.00569999 -0.0171411 0.00774735 0.00495608 -0.0173859 -0.00162961 0.00775615 0.0144694 -0.0330349 -0.0116146 0.180209 -0.00240088 0.00441976 0.0387556 -0.00800238 0.0270546 0.0667844 0.0817389 0.117619 0.255755 0.0774473 0.153821 0.00326071 0.0865955 0.171232 -0.0220632 -0.0320107 0.00409216
internal_weight=0 2522.63 2414.74 198.64 2216.1 1936.18 215.632 152.251 1720.55 1035.88 394.478 150.389 5.15515 684.667 522.691 260.779 147.095 279.916 85.7272 71.5244 36.491 8.22118 28.2698 5.11086 519.488 12.4546 7.34467 193.171 157.653 50.3591
internal_count=44063 31187 29223 3172 26051 23950 2951 1623 20999 12399 12876 3950 68 8600 6398 2949 1555 2101 696 587 302 68 234 43 6370 154 86 3124 2755 814
is_linear=0
shrinkage=0.1


Tree=19
num_leaves=31
num_cat=0
split_feature=20 19 19 5 15 5 4 5 2 12 0 18 1 2 14 1 18 8 15 24 0 24 2 24 22 16 13 0 12 22
split_gain=40.4224 12.36 11.7535 10.9357 9.16312 9.06518 8.1039 10.1715 8.27133 8.59169 9.93345 8.17842 9.84134 8.09295 8.5767 8.51771 8.03207 8.02368 7.88252 12.9955 10.5487 11.4925 22.0208 8.95615 9.12004 8.33759 15.1562 12.0379 7.75193 10.2792
threshold=54.990000000000002 11.550000000000002 8.2916666666666696 477.00000000000006 1.5000000000000002 441.00000000000006 6.5000000000000009 481.00000000000006 1185.5000000000002 1250.0000000000002 2021110066.5000002 102.75000000000001 1196.5000000000002 1049.0000000000002 2.5000000000000004 1087.5000000000002 21.166666666666668 7.5000000000000009 1.5000000000000002 68.122500000000016 2018101999.0000002 324.92704678362571 1144.5000000000002 183.35333333333332 206.82500000000002 4.5000000000000009 2.5000000000000004 2019110067.0000002 1075.0000000000002 153.80500000000004
decision_type=8 10 10 2 2 2 2 2 2 8 2 8 2 2 2 2 10 2 2 10 2 8 2 8 10 2 2 2 10 10
left_child=1 5 3 -2 -4 16 8 -8 9 10 -5 -12 -13 14 15 -11 -1 -10 23 -20 -21 25 -23 -7 -25 -22 -27 -28 29 -6
right_child=2 -3 4 6 28 18 7 -9 17 13 11 12 -14 -15 -16 -17 -18 -19 19 20 21 22 -24 24 -26 26 27 -29 -30 -31
leaf_value=-0.073755710934228849 -0.00091869886987791614 -0.074760749738271459 0.064710605161800411 0.026823617353949475 -0.10432796323437839 -0.0047412821835363696 0.10868242581319734 -0.062906991949940982 -0.031947584357297575 -0.062566856195779591 0.23042313217833046 0.017846664649907116 0.15892994214165623 0.0164586333062972 0.16089851316671014 -0.00073642243913754851 -0.0096790280424075108 0.057116779167355282 -0.068726903965933589 -0.095222406496095147 0.048105300854259847 0.012456807053199044 0.64878676435922289 0.38099336037904313 -0.017804910445219375 -0.031405788531728492 0.58122752854441162 0.019399709240912978 -0.057457405966703415 0.21192514342947555
leaf_weight=54.671535173431039 1177.2894243374467 47.749772500246763 8.1231513880193216 164.35815274901688 1.7409867327660311 221.60642176866531 4.0059218443930176 25.103432014584541 63.600252160802484 28.172297572717071 3.7628518715500858 13.268688209354879 7.8809420056641093 716.84793922677636 2.8745388090610495 106.52864383719862 30.46291746199131 12.02792403846979 59.523041555657983 12.443705875426529 22.893021387979388 1.7162803243845695 0.79609328880906094 1.2198805995285504 1.0821329262107608 57.005183724686503 0.72989543713629135 0.79867599718272686 59.198180185630918 2.5087404455989599
leaf_count=2025 14489 2511 149 1819 50 5810 58 413 728 382 36 139 56 7254 31 1211 745 135 1784 419 588 48 21 28 19 1470 22 18 1558 47
internal_value=0 -0.0263105 0.00462557 0.0058539 -0.0352892 -0.0213347 0.0127967 -0.0392935 0.0141513 0.0164654 0.0357427 0.0945858 0.0704182 0.0121951 -0.0100206 -0.0136681 -0.0508277 -0.0177828 -0.0147239 -0.0319883 -0.00929972 0.00343804 0.21409 -0.00270289 0.193526 -0.00306149 -0.0230732 0.287673 -0.0480921 0.0823657
internal_weight=0 512.699 2397.29 2325.72 71.5711 464.949 1148.43 29.1094 1119.32 1043.69 189.271 24.9125 21.1496 854.423 137.575 134.701 85.1345 75.6282 379.814 155.906 96.3829 83.9392 2.51237 223.908 2.30201 81.4268 58.5338 1.52857 63.4479 4.24973
internal_count=44063 15508 28555 26751 1804 12997 12262 471 11791 10928 2050 231 195 8878 1624 1593 2770 863 10227 4370 2586 2167 69 5857 47 2098 1510 40 1655 97
is_linear=0
shrinkage=0.1


Tree=20
num_leaves=31
num_cat=0
split_feature=19 21 20 5 0 5 7 1 5 0 21 16 15 24 18 19 15 5 7 21 2 7 22 12 5 18 2 5 0 5
split_gain=34.351 14.4226 13.2317 11.0756 9.59401 17.7104 9.83319 10.2197 8.90355 10.8826 8.77201 14.5656 8.57926 14.8575 13.0784 13.8809 10.5393 10.4737 11.2961 10.5511 10.3089 9.58946 9.297 11.9108 11.9993 11.5617 14.053 16.0717 16.4568 9.20825
threshold=8.9000000000000021 5.7638888888888902 54.990000000000002 449.00000000000006 2022106388.5000002 487.00000000000006 59.250000000000007 1064.5000000000002 483.00000000000006 2017105511.5000002 8.4142857142857164 2.5000000000000004 1.5000000000000002 176.01250000000002 72.250000000000014 4.6333333333333337 2.5000000000000004 421.00000000000006 54.250000000000007 3.2111111111111117 1194.5000000000002 57.750000000000007 97.020000000000024 1350.0000000000002 475.00000000000006 74.250000000000014 1129.5000000000002 461.00000000000006 2021105735.0000002 471.00000000000006
decision_type=10 10 8 2 2 2 2 2 2 2 10 2 2 8 10 10 2 2 2 10 2 2 10 10 2 10 2 2 2 2
left_child=2 -2 -1 -3 6 -6 -5 -8 12 -10 -11 -12 14 16 -4 -16 -14 -15 19 -19 -21 -20 25 -24 29 26 27 28 -17 -25
right_child=1 3 8 4 5 -7 7 -9 9 10 11 -13 13 17 15 22 -18 18 21 20 -22 -23 23 24 -26 -27 -28 -29 -30 -31
leaf_value=-0.016899241679397266 0.37749821780960136 -0.077139995521278981 -0.0081261191141100055 -0.034046759969540631 0.02417119870753065 0.7116701935991494 0.3855252193089686 0.037228311060996486 -0.060151994257533981 0.012897559650013109 0.46605790277400705 0.066123207381853316 -0.013634634066582593 -0.090694351162348322 0.0095491940587356834 0.58777174128293774 -0.0578038944242103 0.10000249385574303 -0.0091610880891926649 0.0099681301714583982 0.24244478646679132 0.029544835587154455 -0.00068367906934481415 0.14102597038966844 0.32479148275271136 0.015382698248996744 -0.009935761022637539 0.022902343684446502 0.15822143922363857 -0.077012901151321034
leaf_weight=314.90399329178035 0.83107479102909465 58.789607580751181 269.55232817865908 157.55177391879261 1.5791224408894771 0.49127260036766518 1.0205234549939621 4.8276940770447254 20.319660203531384 943.89044716209173 1.0376505516469459 7.4403323475271463 180.04211356304586 11.758595714345573 265.34675360843539 1.7160994000732883 77.180285191163421 20.988310553133488 338.38155928812921 57.971671683713794 1.9723481908440579 78.941375816240907 7.8125597871840027 14.13190177083016 3.1314294822514048 53.19652421399951 4.0407656282186508 2.2407201603055 1.8570703528821466 2.2445452511310569
leaf_count=7683 25 2663 4347 5972 70 21 29 117 364 9945 13 152 2749 189 1926 21 1437 177 3603 697 22 937 75 128 27 547 57 27 25 18
internal_value=0 -0.0383155 0.0023572 -0.0398564 -0.02661 0.187304 -0.0293205 0.0980067 0.00492102 0.0122621 0.0138071 0.115073 -0.000206839 -0.00729275 0.00848791 0.0210775 -0.0268877 0.00258986 0.00479133 0.0389824 0.0176173 -0.00183942 0.0549266 0.103652 0.145437 0.0338135 0.133305 0.23286 0.364523 0.111142
internal_weight=0 225.091 2680.1 224.26 165.47 2.0704 163.4 5.84822 2365.2 972.688 952.368 8.47798 1392.51 767.236 625.271 355.718 257.222 510.014 498.255 80.9323 59.944 417.323 90.3716 27.3204 19.5079 63.0512 9.85466 5.81389 3.57317 16.3764
internal_count=44063 8897 35166 8872 6209 91 6118 146 27483 10474 10110 165 17009 9811 7198 2851 4186 5625 5436 896 719 4540 925 248 173 677 130 73 46 146
is_linear=0
shrinkage=0.1


Tree=21
num_leaves=31
num_cat=0
split_feature=17 19 5 1 1 1 1 1 17 0 2 17 6 16 12 0 16 24 20 1 0 1 16 1 2 16 1 2 1 5
split_gain=29.414 9.96062 9.69175 9.05495 10.0961 12.4771 8.92958 41.1124 14.6401 12.2386 8.90173 8.57391 14.7909 8.3089 8.26884 8.16347 8.49647 13.4005 18.6829 9.95319 10.0292 9.7461 10.1272 17.1254 14.8516 9.24168 8.9103 11.1089 11.765 9.03424
threshold=8.1666666666666696 11.550000000000002 415.00000000000006 1021.0000000000001 677.50000000000011 663.00000000000011 1089.5000000000002 1086.0000000000002 5.416666666666667 2018101375.0000002 1081.5000000000002 6.416666666666667 3.5000000000000004 4.5000000000000009 1350.0000000000002 2022109172.5000002 9.5000000000000018 330.00454545454551 606.32000000000005 1126.5000000000002 2021106923.5000002 1212.5000000000002 4.5000000000000009 1180.5000000000002 1202.5000000000002 5.5000000000000009 1162.5000000000002 1170.5000000000002 1175.5000000000002 515.00000000000011
decision_type=10 10 2 2 2 2 2 2 8 2 2 8 2 2 10 2 2 10 10 2 2 2 2 2 2 2 2 2 2 2
left_child=2 14 -1 4 5 -4 7 10 13 -8 -5 12 -7 -9 -2 16 21 19 -19 20 -18 22 24 25 -11 -24 -27 28 29 -28
right_child=1 -3 3 6 -6 11 9 8 -10 15 -12 -13 -14 -15 -16 -17 17 18 -20 -21 -22 -23 23 -25 -26 26 27 -29 -30 -31
leaf_value=-0.040638980532887968 0.0038088231469238748 -0.072076733304652071 -0.026912491565949756 -0.036427522702274499 -0.031659308892190555 -0.011954997827333821 -0.050911758785349648 -0.060680272709722149 0.19600501383241165 0.0099861417445538513 0.013255768791221471 0.15374405090528809 0.11696327434967282 0.08102552143260329 -0.031481571530446312 0.078739025360900702 0.049210448553893782 0.19805812682567059 -0.049043978746021157 0.0016009745118880784 0.25077574839155931 0.015861997525117227 -0.020900267086641625 -0.034046383732287328 0.27822126236515432 -0.0048386215833333707 0.035532665863034461 -0.022485443614284849 -0.0094363631094752584 0.10961213986013196
leaf_weight=49.772848861292005 93.661002885550261 43.724406635388732 44.644225923344493 52.177056025713682 140.93602229095995 27.452826578170061 40.199544167146087 4.4958648458123198 10.966821750625966 425.01079797558486 116.76430587098002 6.4746717251837245 13.168402049690483 51.952215071767569 228.06520482897758 14.829671829938887 28.42714313976467 9.7041306477040035 4.4688615687191477 95.483550963923335 2.7032452821731559 416.72136371955276 175.04670617729425 190.79612860456109 2.0742279514670363 362.09456815011799 125.40190003067255 49.763361182063818 54.056691398844123 18.950255043804646
leaf_count=1007 2958 2555 597 765 2016 256 734 33 125 5542 1463 101 118 330 7363 124 381 83 42 1340 28 3720 2213 2767 37 4560 1371 558 690 186
internal_value=0 -0.027294 0.00305264 0.00392784 -0.0148531 0.0109655 0.00586821 0.0242571 0.0902797 0.003712 -0.00208877 0.0468717 0.0298371 0.0697392 -0.0212078 0.00482352 0.00426447 0.0279323 0.120145 0.0176101 0.0667136 0.00243355 -0.00155444 -0.00717387 0.0112889 -0.000645054 0.00516488 0.0197604 0.0303562 0.0452577
internal_weight=0 365.451 2534.54 2484.76 232.676 91.7401 2252.09 236.356 67.4149 2015.73 168.941 47.0959 40.6212 56.4481 321.726 1975.53 1960.7 140.787 14.173 126.614 31.1304 1819.92 1403.19 976.11 427.085 785.313 610.267 248.172 198.409 144.352
internal_count=44063 12876 31187 30180 3088 1072 27092 2716 488 24376 2228 475 374 363 10321 23642 23518 1874 125 1749 409 21644 17924 12345 5579 9578 7365 2805 2247 1557
is_linear=0
shrinkage=0.1


Tree=22
num_leaves=31
num_cat=0
split_feature=21 7 0 8 22 15 5 12 8 14 6 2 6 5 0 9 15 5 1 1 12 8 24 6 0 24 22 5 6 15
split_gain=25.3377 9.60621 17.5893 10.85 9.66694 9.59101 9.27358 11.1627 12.1358 10.9189 13.0299 14.1124 15.8318 8.62488 8.06168 7.61488 7.42832 10.1199 12.5316 11.1092 17.6711 11.917 19.4852 9.31574 8.2467 8.01756 14.3211 7.3825 8.33974 11.671
threshold=7.8944444444444457 59.250000000000007 2018100395.5000002 1.5000000000000002 46.414285714285718 1.5000000000000002 441.00000000000006 1075.0000000000002 4.5000000000000009 1.5000000000000002 5.5000000000000009 1141.5000000000002 -1.0000000180025095e-35 489.00000000000006 2020101587.5000002 10.500000000000002 2.5000000000000004 503.00000000000006 1180.5000000000002 1169.5000000000002 1650.0000000000002 1.5000000000000002 27.674242424242429 -3.4999999999999996 2022102626.5000002 71.992857142857147 87.050000000000011 459.00000000000006 2.5000000000000004 3.5000000000000004
decision_type=10 2 2 2 8 2 2 8 2 2 2 2 2 2 2 2 2 2 2 2 10 2 8 2 2 10 10 2 2 2
left_child=1 2 -1 13 5 -4 -2 8 -8 10 11 12 15 -3 -5 -10 17 23 19 21 -21 22 -19 -9 25 -23 -27 -6 29 -29
right_child=6 3 4 14 27 -7 7 16 9 -11 -12 -13 -14 -15 -16 -17 -18 18 -20 20 -22 24 -24 -25 -26 26 -28 28 -30 -31
leaf_value=-0.071971985450189971 -0.067493897780181403 0.044131121991539408 -0.0066051171887302369 0.019446475145459444 -0.0048806537141384077 -0.060841740047785968 -0.051703818891501566 0.013918777002206629 0.020006610013032167 -0.10457258402965047 -0.10377836498533717 0.00024852720102029878 0.71563426593664481 0.33482446385173031 0.17225755410999466 0.4724419917372174 -0.055921997526497014 0.67099561086785176 -0.063459981925569953 0.62789208481321745 0.055938387879321622 -0.035882464217323433 -0.10379370681154761 -0.04080309073110025 0.39366435950179324 0.38958643561767897 -0.019380519956534725 0.018618627267977219 -0.0031396681323313754 -0.0030869050503128776
leaf_weight=32.159629227593541 51.052397894673049 1.8891149982810009 127.36724856309593 43.018927665427327 656.25349285081029 43.822728624567389 3.8017545891925675 44.621779013425112 0.80413698591291927 1.0885518193244932 0.85301902890205372 0.95781420543789852 1.211199081502855 2.2202200815081596 3.7535926513373843 0.69225276447832584 57.776758811436594 0.77544476091862313 7.2696298435330382 0.95165314525365774 1.2493527289479969 8.8387234751135058 0.55828039720654499 102.73542778473347 0.60405267216265279 1.4106039758771669 2.1788062490522861 836.40039337985218 505.99716233834624 351.96994898840785
leaf_count=766 2411 24 2827 487 8876 1260 129 1673 25 35 32 33 32 24 37 21 1878 33 261 25 41 344 18 3675 25 36 45 9273 5490 4227
internal_value=0 0.00237338 0.00151623 0.0453974 0.00245339 -0.0204891 -0.0288148 -0.020531 0.0862208 0.179739 0.248234 0.330155 0.44686 0.201189 0.0317099 0.22931 -0.0249176 -0.0144539 0.0459979 0.0940284 0.303235 0.0619758 0.346679 -0.0242326 0.032839 0.0153016 0.14134 0.00412424 0.00761197 0.0121899
internal_weight=0 2604.85 2553.97 50.8819 2521.81 171.19 289.432 238.379 9.40873 5.60697 4.51842 3.6654 2.70759 4.10934 46.7725 1.49639 228.971 171.194 23.8365 16.5669 2.20101 14.3659 1.33373 147.357 13.0322 12.4281 3.58941 2350.62 1694.37 1188.37
internal_count=44063 33291 32719 572 31953 4087 10772 8361 307 178 143 111 78 48 524 46 8054 6176 828 567 66 501 51 5348 450 425 81 27866 18990 13500
is_linear=0
shrinkage=0.1


Tree=23
num_leaves=31
num_cat=0
split_feature=19 5 17 21 24 20 0 16 12 6 1 1 17 17 12 23 5 0 1 17 21 21 22 19 0 0 0 0 9 9
split_gain=22.7069 10.767 9.31925 8.91983 8.33511 11.954 11.7067 8.87103 8.77153 8.55341 8.28198 8.49131 8.34752 15.5919 24.4868 8.52527 8.42905 12.7717 8.25556 9.6146 8.05249 15.7876 10.5562 14.7315 8.43215 9.267 7.69631 15.537 22.5961 11.0323
threshold=8.9000000000000021 449.00000000000006 4.416666666666667 5.7638888888888902 408.38055555555565 788.21500000000003 2020103107.0000002 3.5000000000000004 2450.0000000000005 -13.499999999999998 5502.0000000000009 5568.0000000000009 8.5833333333333339 8.8333333333333339 1650.0000000000002 7.6339712918660299 447.00000000000006 2021100643.5000002 1162.5000000000002 9.5833333333333339 5.5277777777777786 5.3875000000000011 176.01250000000002 5.4500000000000011 2020106712.5000002 2021100191.5000002 2021105322.5000002 2021105830.5000002 2.5000000000000004 9.5000000000000018
decision_type=10 2 8 10 10 10 2 2 10 2 2 2 10 8 10 10 2 2 2 10 10 10 10 10 2 2 2 2 2 2
left_child=2 -2 -1 -3 6 8 -4 9 -6 -8 12 -12 20 14 -14 16 17 -15 19 -18 21 24 23 -23 -11 -26 -5 28 -28 -30
right_child=1 3 4 26 5 -7 7 -9 -10 10 11 -13 13 15 -16 -17 18 -19 -20 -21 -22 22 -24 -25 25 -27 27 -29 29 -31
leaf_value=0.0080795884438183262 -0.07271017296107167 0.2679658152733333 -0.021839003240434716 -0.032739278276838812 0.03914309500840981 -0.03200650345979205 0.22129969449680581 -0.0045656201328019832 0.20508374216824385 -0.094284024905079214 0.29357371553033718 0.017331890031294976 0.63800998679672238 0.53475863201689255 0.058865940322076753 -0.10386661175872472 0.33647359920181225 0.0070872500786438343 -0.10500572268616887 -0.035006696525112048 -0.019401310527011106 0.35750074798704928 0.41352101967842031 -0.033955083644290902 0.21751836752507897 0.019070415557668537 0.71349897099626591 -0.0034427749236901374 -0.10262427844284408 0.27779201563970529
leaf_weight=1242.6774646490812 50.634603348560631 1.0708212181925763 338.46246642619371 124.49767027422786 64.133305758237839 26.37874349206686 2.0951526928693047 838.73283967375755 3.3519297763705245 6.3731552176177493 2.1796015910804263 2.2733539249747992 1.2103411275893425 0.93893811851739861 1.8398050032556055 3.2122148126363754 1.3589953649789097 0.89679827354848385 2.4707879833877087 1.4296863991767166 63.674172692000866 1.4970398023724545 1.5240757316350935 2.6866102144122124 2.4329765718430272 71.70155487395823 0.72808344662189783 27.190847123973072 1.4785694740712645 1.5737485103309152
leaf_count=10215 2665 23 7078 4876 851 341 35 13780 37 90 21 29 30 25 52 100 31 23 58 34 1220 20 18 44 32 1002 23 1186 64 60
internal_value=0 -0.0326264 0.00173406 -0.0196609 -0.0037387 0.0250736 -0.00574646 -0.000345801 0.0473852 0.0204987 0.01799 0.152545 0.0143197 0.0900689 0.288678 0.0312969 0.0924894 0.276979 0.0280961 0.146025 0.00756926 0.0274883 0.188202 0.10612 0.0160942 0.0255832 -0.021642 0.0229669 0.21292 0.093515
internal_weight=0 207.174 2683.53 156.54 1440.85 93.864 1346.99 1008.53 67.4852 169.795 167.7 4.45296 163.247 13.3576 3.05015 10.3074 7.09521 1.83574 5.25947 2.78868 149.89 86.2154 5.70773 4.18365 80.5077 74.1345 155.469 30.9712 3.7804 3.05232
internal_count=44063 8897 35166 6232 24951 1229 23722 16644 888 2864 2829 50 2779 353 82 271 171 48 123 65 2426 1206 82 64 1124 1034 6209 1333 147 124
is_linear=0
shrinkage=0.1


Tree=24
num_leaves=31
num_cat=0
split_feature=22 0 22 5 15 1 16 5 5 24 22 5 5 24 23 17 0 9 0 0 22 2 0 7 6 0 20 8 5 18
split_gain=19.6805 8.96057 13.0814 8.78458 11.6438 12.3858 8.51024 8.49896 8.33617 8.1156 9.15141 10.3157 16.9966 10.9533 10.7214 10.3185 8.15447 7.95406 12.3248 13.6532 7.72711 22.5791 9.85328 7.41507 7.4133 6.93409 7.65671 9.23895 6.91537 12.6537
threshold=34.940000000000005 2019103004.5000002 1192.4550000000002 441.00000000000006 1.5000000000000002 5187.0000000000009 9.5000000000000018 451.00000000000006 459.00000000000006 320.00833333333338 205.00500000000002 495.00000000000006 497.00000000000006 132.22273901808788 6.8355855855855863 3.416666666666667 2021105062.5000002 6.5000000000000009 2021104828.0000002 2021106206.5000002 46.414285714285718 1171.5000000000002 2019104358.5000002 58.250000000000007 1.0000000180025095e-35 2020102679.5000002 198.10000000000002 4.5000000000000009 497.00000000000006 93.500000000000014
decision_type=8 2 8 2 2 2 2 2 2 10 10 2 2 10 10 10 2 2 2 2 8 2 2 2 2 2 10 2 2 10
left_child=3 2 23 -1 5 -5 8 -7 -3 10 11 20 -13 14 -14 -15 -11 -9 -19 -20 21 -8 -22 28 -4 -24 -27 -28 -2 -30
right_child=1 6 24 4 -6 7 9 17 -10 16 -12 12 13 15 -16 -17 -18 18 19 -21 22 -23 25 -25 -26 26 27 -29 29 -31
leaf_value=-0.060735047264399745 -0.039608088170493813 -0.0074294309177150956 0.01020340631811037 -0.011375822669518011 -0.06092988715835615 0.37685082891082344 0.045970866153332686 -0.046296536320023174 0.0062931635207216299 0.06389295182643169 -0.034136398975833322 0.36566105916860275 -0.043933159395943597 -0.030640341429256326 0.22206562933566132 0.23743462152674144 0.26576129200678467 -0.05189272440209565 0.49024330755122397 0.074673647905408452 0.22416658511258414 0.61221663306348661 -0.062201326102726967 0.017900103601915043 0.18525761469001856 0.0087096112403685002 0.31305879582826102 0.014906559071310808 -0.062163691403352622 0.02576909292968891
leaf_weight=57.363601022399962 144.61149249970913 619.3940487569198 4.7641410697251541 167.77852761466056 47.366629818454385 1.0350850671529759 4.5945011451840392 3.3482622969895584 1551.6746892295778 15.494571530260147 26.944720689207315 2.0921960566192892 8.9649133514612931 2.0058980211615554 1.8234920352697361 5.0523171685636044 2.2978069633245459 1.8574473103508351 1.5089240334928038 1.6606684792786834 2.0952662136405698 0.83167089708149422 13.151285852305589 44.622992891818285 4.914892578497529 70.079744684509933 1.8726934306323517 2.3354497440159321 24.018050057813525 51.35880727507174
leaf_count=2743 3246 8665 51 5795 1803 26 105 85 17290 137 275 28 124 13 38 56 17 50 34 41 36 17 276 541 45 945 22 26 776 757
internal_value=0 0.00200473 -0.0150916 -0.0258096 -0.0168878 -0.00511431 0.00401672 0.106523 0.00237818 0.026301 0.0183154 0.0306157 0.096006 0.0643938 0.00102684 0.161249 0.0899634 0.0731134 0.152647 0.272511 0.0168858 0.13276 0.0098633 -0.0192683 0.0990938 0.00472805 0.0165766 0.147589 -0.0268076 -0.00224977
internal_weight=0 2605 274.29 281.919 224.556 177.189 2330.71 9.41039 2171.07 159.637 141.844 114.899 19.9388 17.8466 10.7884 7.05822 17.7924 8.3753 5.02704 3.16959 94.9606 5.42617 89.5344 264.611 9.67903 87.4392 74.2879 4.20814 219.988 75.3769
internal_count=44063 33486 5416 10577 7834 6031 28070 236 25955 2115 1961 1686 259 231 162 69 154 210 125 75 1427 122 1305 5320 96 1269 993 48 4779 1533
is_linear=0
shrinkage=0.1


Tree=25
num_leaves=31
num_cat=0
split_feature=19 17 0 5 6 1 15 24 5 0 24 18 18 2 8 19 9 23 15 5 23 5 2 19 23 20 24 22 23 7
split_gain=17.5362 9.81666 9.62099 9.22149 7.30106 14.3359 6.92138 14.7791 7.45126 7.26125 6.71596 10.7249 9.18401 8.2037 8.05967 12.0534 14.501 8.22949 8.04857 9.24971 10.4363 10.2253 10.1214 11.8793 8.95887 7.79685 15.308 12.8658 7.57757 7.08817
threshold=10.900000000000002 6.166666666666667 2018102578.0000002 483.00000000000006 19.500000000000004 1178.5000000000002 1.5000000000000002 68.122500000000016 411.00000000000006 2022105785.0000002 311.22619047619054 601.76666666666677 450.01666666666671 426.00000000000006 4.5000000000000009 2.5500000000000003 5.5000000000000009 4.8360215053763449 3.5000000000000004 483.00000000000006 3.4599358974358978 493.00000000000006 1156.5000000000002 4.2250000000000005 3.3245614035087723 288.01250000000005 280.68333333333339 289.97500000000008 4.6267857142857158 54.250000000000007
decision_type=10 8 2 2 2 2 2 10 2 2 10 10 10 2 2 10 2 10 2 2 10 2 2 10 8 10 10 10 8 2
left_child=1 6 -3 -4 -5 -6 8 -8 -1 10 13 12 14 -9 -12 29 -17 28 24 -20 -21 -22 23 -23 -14 26 -15 -28 -18 -16
right_child=-2 2 3 4 5 -7 7 9 -10 -11 11 -13 18 25 15 16 17 -19 19 20 21 22 -24 -25 -26 -27 27 -29 -30 -31
leaf_value=-0.066320627255184492 -0.053953650420624159 -0.053690504081083848 -0.012618017442262023 0.0062714062273560318 0.0066656153790785114 0.40477557888993526 -0.060212220880895485 -0.072048706540670526 0.014814484641515045 -0.071933490698993102 -0.013263442738191154 -0.00234270015873878 0.072313561024583486 0.0014911571173389759 0.1133251125211571 0.2330438655365219 0.053460125388112081 -0.039034757641641209 -0.0084198962002208395 0.013267424860681849 0.28179218572632597 0.012098358124662067 -0.079650471959417199 0.28711590427575634 0.21960190916888742 -0.020876203668964501 0.16777818870914962 -0.01030055509797121 0.2308885095719802 -0.042649805566181864
leaf_weight=11.530627768486736 60.51053211838007 43.115953357890248 623.5711973477155 334.34476204961538 2.6696516294032326 1.3680286165326832 38.970767449587584 16.778796441853046 617.04636839590967 12.991402164101599 62.789123680442572 231.03444430604577 19.635849520564083 496.0929217915982 3.3496809005737331 4.4726285301148883 39.741474458947778 9.4446066468954069 25.682266969233751 12.878237940371038 3.6700537800788871 3.0689156949520093 2.6667794585227966 3.2170569971203804 5.2295139655470839 155.4086502995342 10.345294561237099 6.6746299080550662 2.5622289925813666 22.378186773508787
leaf_count=177 3722 1404 14415 6571 61 30 831 190 5525 115 539 1947 122 5558 23 34 329 114 228 85 28 26 23 29 37 1558 89 67 26 160
internal_value=0 0.000453696 -0.00747689 -0.00540554 0.00788561 0.141551 0.00483889 0.000352333 0.0133261 0.00240452 0.00325382 0.0127185 0.0284789 -0.00298631 0.0136951 0.0343507 0.0602947 0.0453639 0.0566157 0.0339407 0.0766024 0.141219 0.0835929 0.152848 0.10329 -0.00125296 0.00469042 0.0979418 0.0642065 -0.0223424
internal_weight=0 2822.73 1005.07 961.954 338.382 4.03768 1817.66 1189.08 628.577 1150.11 1137.12 451.821 220.787 685.3 144.738 81.9488 56.2209 51.7483 76.0487 51.1833 25.501 12.6228 8.95275 6.28597 24.8654 668.521 513.113 17.0199 42.3037 25.7279
internal_count=44063 40341 22481 21077 6662 91 17860 12158 5702 11327 11212 3750 1803 7462 1225 686 503 469 578 419 191 106 78 55 159 7272 5714 156 355 183
is_linear=0
shrinkage=0.1


Tree=26
num_leaves=31
num_cat=0
split_feature=17 1 1 17 0 24 6 18 5 0 21 24 20 2 16 24 20 20 5 17 12 21 7 6 24 15 1 1 2 20
split_gain=15.2573 8.4889 40.1232 11.6668 10.1994 8.785 8.25172 11.8885 16.4825 8.09269 7.89471 13.4395 7.39883 6.63564 6.5062 7.67485 15.1213 8.12374 7.61235 9.33588 6.60106 6.68907 6.64292 6.22702 11.0544 14.0078 11.8932 8.52035 6.2255 16.0682
threshold=10.41666666666667 1086.0000000000002 1089.5000000000002 5.416666666666667 2017103379.5000002 73.114379084967339 8.5000000000000018 420.13333333333338 511.00000000000006 2022109172.5000002 5.5857142857142863 290.01428571428579 176.10000000000002 1108.5000000000002 9.5000000000000018 324.92704678362571 606.32000000000005 396.22000000000008 455.00000000000006 1.5833333333333337 3365.0000000000005 2.2928571428571431 56.750000000000007 5.5000000000000009 105.34313725490198 2.5000000000000004 3165.5000000000005 1124.5000000000002 1134.5000000000002 190.02000000000001
decision_type=10 2 2 8 2 10 2 10 2 2 10 10 10 2 2 10 10 10 2 8 8 8 2 2 10 2 2 2 2 10
left_child=1 5 3 12 -4 -1 9 -8 -9 14 11 -2 -3 -10 18 -16 17 -17 19 -6 21 22 -21 -23 -25 26 27 -26 -7 -30
right_child=10 2 4 -5 6 28 7 8 13 -11 -12 -13 -14 -15 15 16 -18 -19 -20 20 -22 23 -24 24 25 -27 -28 -29 29 -31
leaf_value=-0.034717167350041031 -0.039168538603107227 -0.0058699722589559576 -0.071620467540990607 0.15903559677779736 -0.097611604481918621 -0.01378972605613149 -0.031669439262696657 -0.0057255503714508105 0.049083796166033977 0.075425445681038608 -0.040960776754439557 0.44594803802529753 0.076779699274120039 0.22655131639822429 0.014483814307140436 0.074504908486739727 -0.071194261279382817 0.23776476824353146 0.004754790769269491 0.021373212215808332 0.1953925073506429 -0.015211140005764687 0.17136622723596179 -0.04082604421718368 0.25752428609335726 -0.027139570106218498 0.32962409612073018 0.049125935157891071 0.055990054511446397 -0.017959036008864868
leaf_weight=121.9262177515775 1.5408853851258748 14.263533916324375 19.249391249381006 13.782083868980406 11.852315405383704 204.86630105599761 145.4475737567991 27.083660630509257 3.6090613454580289 15.436899416148661 108.82222940586507 0.90734213218092907 45.012282706797123 5.0620332472026348 145.16731935553253 7.4044156521558779 4.5393867939710608 5.1801963597536087 1404.1615576678887 21.001969747245315 1.5946243554353703 387.89047492109239 3.4357153773307791 15.271726859733461 2.417693909257653 9.6365737169980985 2.4318442121148101 10.405588831752537 52.973243272863328 65.982872951775789
leaf_count=2644 45 102 485 150 124 2687 2130 236 33 125 5577 21 261 34 2369 64 45 40 17753 143 21 6845 29 387 27 144 19 113 731 679
internal_value=0 0.000801248 0.00322836 0.0761608 0.000858423 -0.0118385 0.00148433 -0.0189697 0.0326918 0.00329421 -0.0369655 0.140621 0.0568917 0.152686 0.00274634 0.0219527 0.0852695 0.141707 0.00107958 -0.00999613 -0.00770923 -0.00842498 0.0424609 -0.0113301 0.0261526 0.0672458 0.126868 0.0884172 -0.00322419 0.0149718
internal_weight=0 2767.09 2321.34 73.0579 2248.28 445.749 2229.03 181.202 35.7548 2047.83 111.27 2.44823 59.2758 8.67109 2032.39 162.291 17.124 12.5846 1870.1 465.939 454.086 452.492 24.4377 428.054 40.1634 24.8917 15.2551 12.8233 323.822 118.956
internal_count=44063 38420 31679 513 31166 6741 30681 2433 303 28248 5643 66 363 67 28123 2518 149 104 25605 7852 7728 7707 172 7535 690 303 159 140 4097 1410
is_linear=0
shrinkage=0.1


Tree=27
num_leaves=31
num_cat=0
split_feature=19 0 14 6 22 15 24 0 24 15 21 22 18 18 20 1 19 18 12 5 1 1 18 2 0 1 1 5 18 22
split_gain=13.6852 8.66353 16.1116 13.6397 8.39086 10.3958 9.78014 7.31366 12.731 8.5681 7.43569 6.62124 6.55999 9.23291 13.0735 8.21852 10.1152 10.4114 10.2554 12.4183 6.7769 9.44827 8.9551 6.38238 8.2709 6.29599 6.24449 6.27286 18.2326 9.70365
threshold=11.550000000000002 2022103022.0000002 1.0000000180025095e-35 -4.4999999999999991 46.414285714285718 1.5000000000000002 174.43055555555557 2020100722.0000002 531.93645320197049 4.5000000000000009 2.7888888888888892 48.00500000000001 38.166666666666679 41.583333333333336 111.05000000000003 1145.0000000000002 3.7083333333333335 787.70000000000016 1450.0000000000002 489.00000000000006 1070.5000000000002 1116.5000000000002 473.75000000000006 1090.5000000000002 2021101535.5000002 1178.5000000000002 1162.5000000000002 523.00000000000011 133.50000000000003 206.82500000000002
decision_type=10 2 2 2 8 2 8 2 8 2 10 8 10 10 10 2 10 10 8 2 2 2 10 2 2 2 2 2 8 10
left_child=4 -2 3 -3 5 6 -1 8 12 10 -10 23 -6 14 -14 16 17 18 19 -15 -20 22 -22 25 -25 -9 -17 -28 29 -29
right_child=1 2 -4 -5 7 -7 -8 11 9 -11 -12 -13 13 15 -16 26 -18 -19 20 -21 21 -23 -24 24 -26 -27 27 28 -30 -31
leaf_value=-0.0068474507158293929 -0.079042025020206297 0.46740571443227164 0.72286469546484466 -0.10156937042260604 -0.044990119862427465 -0.049679094839931853 0.32525476592592562 0.093296321452989023 0.038404298950507156 0.021859314124834477 0.28223926690405404 0.0042629742427165605 0.04232827605307124 0.038807148379374906 0.41348759083979952 -0.070359055180102353 -0.008483241157070387 -0.049010313440690303 -0.039556870803621025 0.29997089447899528 0.27618542094813398 -0.013305832568889507 0.033090069831850706 0.23385623902127028 -0.039618552200373067 0.38103518211051896 -0.025978816805900935 0.089476851111717437 -0.034856815342966661 0.39750735138175725
leaf_weight=240.4907344551757 31.244383417069912 0.52724988665431816 0.36378129199147213 2.0972342947497955 63.403860608115792 68.833971155807376 0.89003246650099654 2.0015592258423553 2.5468252897262564 59.067209048196673 2.4573047086596489 2035.4073526775464 5.4062675256282082 3.2856857143342522 1.1510635167360304 28.83364799246192 146.24570341408253 7.6232884898781768 6.3505570068955448 4.0834236070513725 3.5423284061253053 4.9345449171960354 2.6482564508914948 1.4688075445592401 4.4760479088872671 1.2263751719146965 129.83528244681656 2.4474582988768789 8.8224412798881531 1.7567960340529678
leaf_count=7516 2345 37 25 148 2209 2530 11 39 27 706 20 22697 133 37 24 510 2419 74 57 36 32 49 23 28 85 21 2060 39 99 27
internal_value=0 -0.0634841 0.0991845 0.0127358 0.000123402 -0.0153986 -0.00562291 0.00202736 -0.00902035 0.0325032 0.158141 0.004645 -0.0153492 -0.0100845 0.107481 -0.0122845 0.0027265 0.0532184 0.0845859 0.183525 0.0428655 0.0899147 0.172192 0.0894151 0.0279494 0.202616 -0.0279091 -0.0193415 0.0468122 0.218191
internal_weight=0 34.2326 2.98827 2.62448 2839.24 310.215 241.381 2529.02 484.442 64.0713 5.00413 2044.58 420.371 356.967 6.55733 350.409 178.714 32.4681 24.8448 7.36911 17.4757 11.1251 6.19058 9.17279 5.94486 3.22793 171.696 142.862 13.0267 4.20425
internal_count=44063 2555 210 185 41508 10057 7527 31451 8581 753 47 22870 7828 5619 157 5462 2727 308 234 73 161 104 55 173 113 60 2735 2225 165 66
is_linear=0
shrinkage=0.1


Tree=28
num_leaves=31
num_cat=0
split_feature=19 24 15 15 24 0 21 15 5 7 1 18 17 0 21 7 3 18 0 0 8 3 23 20 21 24 20 0 13 12
split_gain=12.0519 7.31342 15.7118 10.1911 14.4932 11.5575 8.55258 8.31782 11.9088 8.30948 9.53062 8.21176 7.79968 7.79224 12.9796 8.12403 9.25627 10.5028 13.4162 7.71325 8.2564 8.24894 7.69443 7.59686 7.56939 9.88109 7.16428 7.10314 8.72042 9.48971
threshold=11.550000000000002 94.008823529411771 1.5000000000000002 2.5000000000000004 315.84720588235302 2021100951.0000002 2.4142857142857146 3.5000000000000004 501.00000000000006 57.250000000000007 5354.0000000000009 476.7000000000001 2.416666666666667 2020106892.0000002 1.8452380952380951 56.750000000000007 1.0000000180025095e-35 923.15000000000009 2022103022.0000002 2020101401.0000002 4.5000000000000009 1.0000000180025095e-35 3.3416666666666672 154.02000000000004 3.683333333333334 436.87506631299738 316.10000000000008 2022109172.5000002 1.0000000180025095e-35 1550.0000000000002
decision_type=10 10 2 2 10 2 10 2 2 2 2 8 10 2 10 2 2 10 2 2 2 2 10 10 10 10 10 2 2 10
left_child=1 2 27 5 -5 -3 -4 8 19 13 22 -10 23 14 -9 16 17 18 -15 -6 -21 -22 -11 -7 25 -24 -18 -1 29 -29
right_child=-2 3 6 4 7 12 -8 9 11 10 -12 -13 -14 15 -16 -17 26 -19 -20 20 21 -23 24 -25 -26 -27 -28 28 -30 -31
leaf_value=-0.0020366248056497833 -0.061277106749557567 0.027625093951547771 0.055270721977331683 -0.016574799718686247 -0.043535473481502253 0.13828535721416263 -0.039149024746437548 0.14510444432872516 -0.097711754674638024 -0.0093688627638997529 -0.057423810343336656 0.065698931110813139 -0.0021874620719730467 0.12428681693952943 -0.022345017303032018 -0.021751166841031903 0.17228387788020061 -0.054532113100088042 -0.015416197360604539 0.046132478675241596 0.22335739211757166 0.059572955374137863 0.0421154956986175 0.018617222300172761 0.044053480788494914 0.24581539620937987 -0.0054094272775644129 0.27122279897537643 -0.040497424286522969 0.03827282393779443
leaf_weight=758.7264831289649 32.381257656961679 286.51297861617059 10.171675164252518 454.85780239570886 3.8857069574296501 5.4832796528935424 168.73853208869696 4.7600513473153105 7.3382195383310291 22.762821137905121 11.159320501610635 5.2935917377471933 529.77189639303833 25.855166582390666 168.22438606899232 42.973417557775974 2.3776634223759165 6.1456061601638785 9.3636663667857629 11.486874114722015 8.2343042530119401 4.9078685045242301 4.9313953816890699 163.0672951862216 55.612591164186597 4.6051628217101097 49.638242248445749 3.2435178682208043 3.9188989773392677 3.7946370635181665
leaf_count=14875 2555 3551 134 7578 35 32 4787 30 54 167 95 28 4838 202 2100 355 25 50 70 84 54 39 40 996 703 36 449 30 37 34
internal_value=0 7.71761e-05 -0.00708707 0.00367435 -0.00398981 0.0107127 -0.0337809 0.00874359 0.0515978 0.0044261 0.0296308 -0.0292315 0.0037737 -0.00364618 -0.0177373 0.0142304 0.030789 0.0660947 0.0871438 0.0874046 0.108063 0.162193 0.0406813 0.0225103 0.0581686 0.140481 0.00271299 -0.000882179 0.0790579 0.145627
internal_weight=0 2837.84 948.594 1889.25 904.414 984.835 178.91 449.556 41.1466 408.409 99.0713 12.6318 698.322 309.338 172.984 136.354 93.3803 41.3644 35.2188 28.5148 24.629 13.1422 87.912 168.551 65.1491 9.53656 52.0159 769.684 10.9571 7.03815
internal_count=44063 41508 19897 21611 12194 9417 4921 4616 294 4322 1041 82 5866 3281 2130 1151 796 322 272 212 177 93 946 1028 779 76 474 14976 101 64
is_linear=0
shrinkage=0.1


Tree=29
num_leaves=31
num_cat=0
split_feature=21 5 6 0 1 1 8 0 1 16 9 12 0 24 1 18 22 1 24 14 15 5 1 1 12 6 23 0 13 15
split_gain=10.6815 6.9905 7.06692 11.0859 13.9731 19.795 13.7917 15.1391 9.08568 6.89992 6.87627 17.2205 8.38137 8.70217 9.65107 8.10923 11.238 8.26063 7.55364 12.7706 16.2947 15.265 8.41679 7.42413 11.1208 17.4685 10.1492 10.0285 9.64978 8.19081
