tree
version=v4
num_class=1
num_tree_per_iteration=1
label_index=0
max_feature_idx=24
objective=binary sigmoid:1
feature_names=horse_id jockey_id trainer_id sex age weight weight_diff impost wakuban umaban race_type around course_len weather ground_state race_class place rank_3races prize_3races rank_5races prize_5races rank_10races prize_10races rank_1000races prize_1000races
feature_infos=[2012100683:2022110153] [422:5664] [399:5783] [0:2] [2:12] [344:630] [-36:42] [49:65] [1:8] [1:18] [0:3] [0:1] [2:4250] [0:3] [0:3] [0:5] [1:10] [1:18] [0:19280.066666666666] [1:18] [0:16032.719999999999] [1:18] [0:10915.24] [1:18] [0:9305.5]
tree_sizes=3314 3383 3375 3389 3383 3385 3387 3390 3406 3401 3375 3400 3392 3402 3385 3410 3399 3394 3387 3396 3384 3404 3400 3383 3413 3377 3415 3413 3375 3359 3375 3408 3364 3398 3367 3374 3389 3337 3375 3367 3350 3407 3346 3390 3362 3405 3364 3357 3369 3400 3361 3354 3392 3388 3376 3380 3363 3383 3377 3370 3371 3357 3355 3390 3353 3345 3377 3342 3373 3374 3350 3351 3363 3391 3365 3386 3375 3345 3391 3359 3360 3348 3383 3364 3358 3378 3367 3368 3386 3374 3366 3353 3380 3364 3378 3385 3385 3366 3355 3363

Tree=0
num_leaves=31
num_cat=0
split_feature=17 18 23 1 1 1 15 17 0 5 19 18 15 18 22 19 0 15 1 0 5 5 5 18 16 7 7 1 2 1
split_gain=1299.12 207.738 206.145 86.6545 67.0165 74.7398 46.9044 52.3515 40.518 40.2595 38.2233 38.2205 37.1765 63.2392 42.8213 35.1606 34.4649 33.1924 29.5301 29.1067 28.2202 27.9657 27.1144 41.0965 26.4746 23.5772 23.4172 23.3563 24.3886 27.1299
threshold=4.8333333333333348 38.166666666666679 3.8366666666666673 5319.0000000000009 5319.0000000000009 5340.5000000000009 1.5000000000000002 2.416666666666667 2022104495.5000002 483.00000000000006 6.1000000000000005 66.750000000000014 1.5000000000000002 128.50000000000003 140.01000000000002 8.1000000000000014 2022104662.0000002 2.5000000000000004 5528.5000000000009 2022105108.5000002 435.00000000000006 487.00000000000006 479.00000000000006 248.1166666666667 4.5000000000000009 59.250000000000007 54.500000000000007 5319.0000000000009 1097.5000000000002 5458.0000000000009
decision_type=8 8 10 2 2 2 2 10 2 2 8 10 2 10 10 10 2 2 2 2 2 2 2 10 2 2 2 2 2 2
left_child=2 15 3 6 10 22 7 20 -7 26 -3 -4 13 27 -14 -2 25 -16 -5 -18 -1 -15 -6 -24 -23 -12 -8 -13 -29 -30
right_child=1 4 11 18 5 8 9 -9 -10 -11 16 12 14 21 17 -17 19 -19 -20 -21 -22 24 23 -25 -26 -27 -28 28 29 -31
leaf_value=-2.4487169270474451 -2.5705005297730019 -2.5106941691114266 -2.5800309495505465 -2.1952553913311577 -2.3485752455597737 -2.5208531741908717 -2.3417001165687501 -2.3592770282505908 -2.2634494149100597 -2.3501977293114753 -2.5625253435157678 -2.4589688484760974 -2.5380274231920166 -2.3311213577187853 -2.3900567429592874 -2.608243457492331 -2.3477510341895047 -2.4729856318727159 -2.3667933062103805 -2.5155472600807469 -2.1315126422531634 -2.3467660010884517 -2.2185146913313414 -1.6190406770408932 -1.9577514361054014 -2.4203530981867751 -2.4616214435310635 -2.5766070580008362 -1.9035011056145679 -2.3694975341896765
leaf_weight=3.3014448881149319 393.62852280586958 339.84248317033052 23.797915235161781 41.13050089776516 6.740449979901312 44.707066193223 19.739889226853848 61.214290633797646 7.0843504890799514 87.419509433209896 591.78399619460106 80.472719147801399 68.161080919206142 21.046711161732677 69.467902854084969 661.80213986337185 12.380418330430983 158.12545412033796 13.274559654295443 62.658672772347927 18.639407597482204 2.8199841752648345 4.1268061101436615 1.5819423422217367 4.6082668229937553 11.898957617580889 92.990697681903839 1.8570627495646466 2.3385234624147415 2.68242397159338
leaf_count=48 5723 4941 346 598 98 650 287 890 103 1271 8604 1170 991 306 1010 9622 180 2299 193 911 271 41 60 23 67 173 1352 27 34 39
internal_value=-2.52243 -2.5626 -2.41133 -2.3527 -2.53182 -2.43276 -2.3749 -2.31177 -2.48564 -2.40113 -2.53807 -2.45681 -2.44969 -2.40166 -2.4685 -2.59417 -2.55178 -2.44767 -2.23711 -2.48786 -2.17924 -2.27225 -2.21276 -2.0524 -2.10543 -2.55972 -2.44062 -2.44385 -2.26698 -2.15246
internal_weight=0 2138.24 773.088 337.71 1082.81 64.2406 283.305 83.1551 51.7914 200.15 1018.56 435.378 411.58 115.826 295.754 1055.43 678.722 227.593 54.4051 75.0391 21.9409 28.475 12.4492 5.70875 7.42825 603.683 112.731 87.3507 6.87801 5.02095
internal_count=42328 31088 11240 4910 15743 934 4119 1209 753 2910 14809 6330 5984 1684 4300 15345 9868 3309 791 1091 319 414 181 83 108 8777 1639 1270 100 73
is_linear=0
shrinkage=1


Tree=1
num_leaves=31
num_cat=0
split_feature=17 18 23 1 1 24 18 0 23 19 15 0 15 22 0 5 18 5 7 15 24 21 0 1 3 21 16 5 16 19
split_gain=978.768 187.152 123.272 49.0384 43.9501 39.6558 36.4472 33.8155 37.3079 32.1579 28.6618 28.0075 27.6316 35.8194 32.421 29.8979 23.4537 22.4386 20.3454 20.2096 21.847 25.8038 19.2716 18.3543 20.1872 21.7005 17.8997 18.5958 18.348 23.2902
threshold=4.8333333333333348 37.016666666666673 3.2041666666666671 5319.0000000000009 5319.0000000000009 408.16750000000008 66.750000000000014 2019102065.0000002 6.2784237726098198 8.1000000000000014 4.5000000000000009 2022104662.0000002 1.5000000000000002 140.01000000000002 2022100317.0000002 461.00000000000006 136.83333333333334 455.00000000000006 58.250000000000007 2.5000000000000004 248.26129032258066 4.2678571428571432 2022105108.5000002 5389.5000000000009 1.0000000180025095e-35 3.9500000000000006 4.5000000000000009 463.00000000000006 6.5000000000000009 2.6333333333333337
decision_type=8 8 10 2 2 8 10 2 8 10 2 2 2 10 2 2 10 2 2 2 10 8 2 2 2 10 2 2 2 10
left_child=2 9 4 7 10 -5 -4 18 19 -2 17 -10 14 -14 16 -15 -8 -1 -3 20 -9 -22 -13 24 25 -7 27 -19 -28 -30
right_child=1 3 6 5 -6 23 12 8 11 -11 -12 22 13 15 -16 -17 -18 26 -20 -21 21 -23 -24 -25 -26 -27 28 -29 29 -31
leaf_value=0.088903612704881951 -0.045998934772416435 -0.069070667478112774 -0.054541397150125008 0.0045572778924248018 0.23205795734949991 0.37999641497469699 0.096162198267905369 0.029555648981403549 -0.035720002395294922 -0.08330885490544146 0.0700973368720096 0.13461713367369096 -0.0086296627062551184 0.018591326960777244 0.009798287920416919 0.086952730705341041 0.18482355223613517 0.51699193470179139 0.050996008459654685 -0.0092138226298239534 0.52524502869762724 0.10818235546036535 0.006155479074895079 0.063673732578532802 0.09639179674904369 0.025739249456882437 0.10158343142561894 0.22602183119491018 0.25460189785334236 0.11512995158271631
leaf_weight=40.308006450533867 371.44702275842428 141.88411013036966 24.450337171554565 38.888519987463951 50.174388512969017 8.5595656037330681 89.682679124176502 198.400251083076 404.03701179474592 611.0353941321373 60.84104872494936 14.333951622247694 70.464867033064365 85.537352167069912 29.443640030920506 253.80740164220333 44.71070758253336 2.551524884998801 15.671961948275564 166.09251029789448 1.7367519438266725 10.172516703605652 63.026676304638386 12.756972357630728 7.7224446684122077 2.1668917164206496 34.567260414361954 15.782437860965727 28.796036384999752 20.494008548557758
leaf_count=511 5627 2107 369 543 575 103 1197 2880 6059 9562 801 180 1032 1150 390 3405 532 31 217 2435 25 147 911 174 93 25 436 196 352 263
internal_value=0 -0.0375824 0.0897997 -0.00896125 0.148238 0.0719354 0.0650296 -0.0145459 -0.00672469 -0.0692031 0.127555 -0.0251656 0.0701261 0.0562491 0.104837 0.0697211 0.125659 0.152087 -0.0571277 0.0168602 0.0374522 0.169003 0.0299578 0.155902 0.219675 0.308432 0.177009 0.266516 0.15744 0.196612
internal_weight=0 2067.93 851.612 1085.45 253.515 70.0944 598.097 1015.36 857.8 982.482 203.34 481.398 573.647 409.81 163.837 339.345 134.393 142.499 157.556 376.402 210.31 11.9093 77.3606 31.2059 18.4489 10.7265 102.191 18.334 83.8573 49.29
internal_count=42328 31088 11240 15899 3165 938 8075 14961 12637 15189 2590 7150 7706 5587 2119 4555 1729 1789 2324 5487 3052 172 1091 395 221 128 1278 227 1051 615
is_linear=0
shrinkage=0.1


Tree=2
num_leaves=31
num_cat=0
split_feature=17 18 23 0 1 19 19 5 15 18 23 0 18 7 0 19 1 7 2 5 5 7 18 1 5 16 24 2 6 18
split_gain=755.476 167.976 82.4013 39.0823 40.5966 32.0591 31.252 29.3473 28.594 25.5929 23.4918 22.0153 21.4757 19.7883 28.0409 22.6168 18.9234 17.5793 16.5322 16.1902 16.1775 20.8409 15.4236 14.9544 17.7905 16.654 14.9272 14.863 14.6221 14.5834
threshold=4.8333333333333348 37.016666666666673 3.8775000000000004 2019102065.0000002 5187.0000000000009 6.291666666666667 8.1000000000000014 425.00000000000006 1.5000000000000002 333.40000000000003 2.4833333333333338 2022104662.0000002 66.750000000000014 59.250000000000007 2019105565.5000002 6.4500000000000011 1211.5000000000002 58.250000000000007 1185.5000000000002 513.00000000000011 457.00000000000006 54.500000000000007 1896.1000000000001 5628.0000000000009 447.00000000000006 5.5000000000000009 354.95535714285717 428.50000000000006 1.5000000000000002 1027.6833333333336
decision_type=8 8 10 2 2 8 10 2 2 8 10 2 10 2 2 8 2 2 2 2 2 2 8 2 2 2 8 2 2 10
left_child=2 6 7 17 5 -5 -2 -1 10 19 -9 -7 -4 14 22 -15 -16 -3 20 -6 21 -10 -14 24 -11 -26 -19 -12 -18 -22
right_child=1 3 12 4 9 11 -8 8 18 23 27 -13 13 15 16 -17 28 26 -20 -21 29 -23 -24 -25 25 -27 -28 -29 -30 -31
leaf_value=-0.017796187661583633 -0.043164719316359179 -0.06563768107540803 -0.051652072553054922 0.017983682373723463 -0.012868894339351717 -0.031065310709022222 -0.080915993851668228 0.21949301249183473 0.1702590915244559 -0.010639523372427871 0.32004664467254706 0.026712818592659116 -0.010675964716431362 0.11223665629410842 0.049190247159678152 0.46110031969179749 0.067353970295932084 0.0010837389499230613 0.0042071649432668277 0.16007181985224483 0.12070689721477797 0.011763816618029764 0.28826167025229438 -0.02501544443029266 0.24616853491219137 0.095666800609843797 0.2571669406459362 0.11572025646302267 0.1755621806114957 0.042138255728248059
leaf_weight=18.423115521669388 357.02540062367916 141.28524593636394 21.612707279622555 316.09510864317417 37.676017921417952 440.85473598912358 568.41089281439781 35.682292759418488 10.693634718656538 6.0353339836001387 3.7092379704117766 77.547756738960743 85.457231961190701 16.177343413233761 300.75313221663237 2.0994932428002349 28.193909734487534 13.624411873519422 19.194455221295357 6.3215349838137618 199.1288600191474 37.006792239844799 1.7615131586790074 5.9798361063003531 16.164943873882297 13.48693312704563 2.732793301343917 88.518160738050938 22.417050138115883 26.804407827556133
leaf_count=224 5627 2211 346 4505 532 6790 9562 335 127 75 41 1067 1140 197 3875 25 352 180 228 87 2295 463 23 82 174 159 37 979 281 309
internal_value=0 -0.0351016 0.0744618 -0.00826912 -0.000387339 -0.00711712 -0.0663519 0.105741 0.11115 0.0651705 0.150594 -0.0224223 0.045753 0.0503609 0.0461124 0.152311 0.0587103 -0.0542753 0.0939203 0.0119791 0.100213 0.0472958 -0.00463847 0.121337 0.14586 0.177714 0.0438675 0.123938 0.115282 0.111386
internal_weight=0 2003.24 917.633 1077.8 920.162 834.498 925.436 439.161 420.738 85.6646 127.91 518.402 478.472 456.86 438.583 18.2768 351.364 157.642 292.828 43.9976 273.634 47.7004 87.2187 41.667 35.6872 29.6519 16.3572 92.2274 50.611 225.933
internal_count=42328 31088 11240 15899 13471 12362 15189 5001 4777 1109 1355 7857 6239 5893 5671 222 4508 2428 3422 619 3194 590 1163 490 408 333 217 1020 633 2604
is_linear=0
shrinkage=0.1


Tree=3
num_leaves=31
num_cat=0
split_feature=17 18 23 0 1 19 23 0 1 18 5 18 5 16 15 5 15 18 20 0 23 6 0 0 6 0 22 15 24 17
split_gain=591.201 150.245 55.0421 33.5897 30.8364 30.223 27.7444 20.7832 20.5626 18.0851 17.5705 17.4044 16.1951 18.0142 16.1368 14.4709 17.663 24.9052 20.3001 31.8578 15.8309 15.3071 14.1885 16.9245 13.7966 13.4601 26.5826 19.3706 16.0431 13.4221
threshold=4.8333333333333348 37.016666666666673 3.8775000000000004 2019102065.0000002 5187.0000000000009 8.1000000000000014 6.2784237726098198 2022104662.0000002 5319.0000000000009 55.125000000000007 489.00000000000006 333.40000000000003 471.00000000000006 2.5000000000000004 1.5000000000000002 425.00000000000006 1.5000000000000002 72.250000000000014 73.65000000000002 2021105184.5000002 3.8366666666666673 1.5000000000000002 2022105296.0000002 2022109167.0000002 15.500000000000002 2020100977.0000002 1213.7300000000002 1.5000000000000002 93.016666666666666 6.8333333333333348
decision_type=8 8 10 2 2 10 8 2 2 10 2 8 2 2 2 2 2 10 10 2 10 2 2 2 2 2 8 2 8 10
left_child=2 5 8 14 6 -2 15 -8 12 -4 25 -6 13 -1 29 -5 17 -17 19 21 -18 -19 -9 -24 -14 26 27 28 -11 -3
right_child=1 3 9 4 11 -7 7 22 -10 10 -12 -13 24 -15 -16 16 20 18 -20 -21 -22 -23 23 -25 -26 -27 -28 -29 -30 -31
leaf_value=0.15032459144511467 -0.040411520014088292 -0.013018886230861032 -0.081822284666417722 -0.071409609616797709 0.01049964532256298 -0.078485585075956585 -0.032850625975672253 0.093866488171600732 0.13060029936721351 -0.010376943514400766 0.069749165247181694 0.098308116208150845 0.099180927453990042 0.041863487583053652 -0.059291745487888708 0.019192890652979716 0.105548304006884 0.56963521880603485 0.089100480300497692 -0.054623029184207118 -0.00041355394514208389 0.1710715881814473 -0.017363273120269924 0.18638778709628975 -0.03579938801835187 0.04025538626300925 0.36054435693468528 -0.032958325252826083 0.3180061704091221 0.25103426837363407
leaf_weight=17.096658177673817 343.91794126480818 5.2167890928685647 12.004086580127476 18.958919506520033 44.482932321727276 529.44034560024738 376.23217821866274 21.04047580063343 88.089081354439259 2.9491698145866385 158.49919818341732 45.828426115214825 217.66280103474855 146.79755106568336 142.21662071347237 57.962570264935493 14.933334425091742 2.9494082108140018 23.271998561918736 1.8591800853610037 252.5464306473732 1.4311892315745351 53.852877520024776 4.4106716066598883 7.8453046157956114 251.58449535816908 1.9072153866291035 67.135940086096525 3.0022424161434174 3.0508103370666504
leaf_count=177 5627 71 201 268 619 9562 5957 248 802 31 1957 490 2290 1650 2318 805 206 41 321 26 3651 20 757 62 82 3102 21 900 27 39
internal_value=0 -0.0327144 0.0627216 -0.00759838 -0.000432494 -0.0634925 -0.00647436 -0.0230441 0.0869693 0.0394295 0.04243 0.055058 0.0770993 0.0531776 -0.0513963 0.0137125 0.0182591 0.0572669 0.132046 0.292217 0.00550227 0.43942 0.0234796 -0.00193889 0.094485 0.0291712 -0.0080129 -0.0176304 0.155279 0.0844188
internal_weight=0 1943.6 974.574 1070.24 919.761 873.358 829.449 455.536 477.491 497.082 485.078 90.3114 389.402 163.894 150.484 373.913 354.954 87.4743 29.5118 6.23978 267.48 4.3806 79.304 58.2635 225.508 326.579 74.9946 73.0874 5.95141 8.2676
internal_count=42328 31088 11240 15899 13471 15189 12362 7024 5001 6239 6038 1109 4199 1827 2428 5338 5070 1213 408 87 3857 61 1067 819 2372 4081 979 958 58 110
is_linear=0
shrinkage=0.1


Tree=4
num_leaves=31
num_cat=0
split_feature=17 20 23 0 17 0 15 5 0 5 7 22 15 24 18 18 17 12 2 15 5 21 18 23 16 1 6 20 18 9
split_gain=485.231 91.1773 87.5623 32.6203 25.3869 21.4133 21.1525 19.5308 19.0554 21.4389 16.5049 17.6855 14.5081 29.1572 18.4223 18.0236 23.5095 26.0033 15.5827 14.1741 14.0874 16.5748 26.6223 16.2157 13.9743 13.8095 13.167 32.5182 13.0628 16.5175
threshold=6.166666666666667 39.100000000000009 3.8775000000000004 2022104662.0000002 4.416666666666667 2020103157.0000002 4.5000000000000009 425.00000000000006 2020100403.5000002 463.00000000000006 53.500000000000007 311.02500000000003 1.5000000000000002 134.80909090909094 173.29166666666671 248.63333333333335 3.8333333333333335 1950.0000000000002 1165.5000000000002 1.5000000000000002 473.00000000000006 3.8166666666666669 190.16666666666669 2.6306818181818183 6.5000000000000009 732.50000000000011 2.5000000000000004 720.25000000000011 209.3666666666667 9.5000000000000018
decision_type=8 8 10 2 10 2 2 2 2 2 2 10 2 10 10 10 10 8 2 2 2 10 10 10 2 2 2 8 10 2
left_child=2 -2 6 8 12 -6 20 -7 19 -10 -8 -12 14 -14 -4 16 17 -15 24 -3 21 23 -23 25 -16 -1 -22 -28 -18 -30
right_child=1 3 4 -5 5 7 10 -9 9 -11 11 -13 13 15 18 -17 28 -19 -20 -21 26 22 -24 -25 -26 -27 27 -29 29 -31
leaf_value=0.3045348596666253 -0.069140998497055933 0.06891577842972689 0.055060625415454478 0.034676536459619225 -0.024504719046209173 -0.066264699393292326 0.19713060043414762 0.027302844925836164 -0.039585902610658266 0.0024288200381699875 -0.038666694801185758 0.050722768852157631 -0.027936743586963582 0.13575404852391001 0.052033975932662624 0.03059055976224544 -0.022167265922680014 0.4570675440244778 0.42157091746197922 -0.055482874444709784 0.12162419250598494 0.47071146136746012 0.067403792910669447 0.03486947657294192 0.29909278356408386 0.088123958183895332 0.055135953967654729 0.39417263283623272 0.19753649088992198 -0.041814305223924819
leaf_weight=3.1037749573588362 651.91135907918215 9.5576658435165864 112.87911352515221 99.210048824548721 156.79059210419655 24.077240824699402 6.4529471695423117 303.67722943425179 211.41689918935299 285.40363155305386 27.363663963973522 115.79418005794287 72.007400259375572 15.835568957030775 7.1725892126560193 174.10699806362391 14.772930517792703 2.9950271919369689 2.2355972453951827 219.78462862595916 132.60063629224896 2.5763979852199546 4.4875116124749184 108.5579360127449 3.3628455176949501 58.991145558655262 70.255951590836048 2.9476931840181342 8.441628120839594 4.3787168934941283
leaf_count=30 12082 137 1260 1230 2340 365 65 4249 3403 4496 296 1217 1017 185 65 2104 178 35 20 3695 1239 29 52 1132 28 541 660 27 99 52
internal_value=0 -0.0411871 0.040446 -0.0191081 0.0214685 0.00588938 0.07258 0.0204293 -0.0264562 -0.0154501 0.0406883 0.0336366 0.0395197 0.0273127 0.0679401 0.0453527 0.100716 0.186859 0.181777 -0.0502987 0.0850209 0.0643964 0.214501 0.058183 0.130894 0.0989411 0.102831 0.068788 0.0419291 0.115788
internal_weight=0 1477.28 1435.87 825.373 902.733 484.545 533.132 327.754 726.163 496.821 149.611 143.158 418.188 292.538 125.65 220.531 46.4239 18.8306 12.771 229.342 383.521 177.717 7.06391 170.653 10.5354 62.0949 205.804 73.2036 27.5933 12.8203
internal_count=42328 25043 17285 12961 11997 6954 5288 4614 11731 7899 1578 1513 5043 3670 1373 2653 549 220 113 3832 3710 1784 81 1703 93 571 1926 687 329 151
is_linear=0
shrinkage=0.1


Tree=5
num_leaves=31
num_cat=0
split_feature=17 20 23 0 20 0 1 1 7 15 5 1 24 19 5 1 5 7 19 21 18 9 22 17 22 18 18 22 21 20
split_gain=393.77 83.3322 63.7399 26.8844 22.1895 22.9238 21.8532 19.8149 15.5735 15.5151 14.5404 14.3476 13.9836 13.4902 12.9693 12.0646 12.0194 11.9715 11.549 14.4286 11.106 10.9651 10.7624 11.1255 16.54 16.4398 15.2886 16.3195 31.1608 13.4139
threshold=6.166666666666667 39.100000000000009 3.8366666666666673 2020100403.5000002 54.990000000000002 2020103064.5000002 5319.0000000000009 5319.0000000000009 59.250000000000007 4.5000000000000009 463.00000000000006 5354.0000000000009 263.44525641025649 11.366666666666669 455.00000000000006 1163.5000000000002 411.00000000000006 58.250000000000007 3.3666666666666667 4.2111111111111121 303.36666666666673 10.500000000000002 46.414285714285718 2.416666666666667 555.2694444444445 606.51666666666677 440.16666666666669 311.02500000000003 2.354166666666667 290.24000000000007
decision_type=8 8 10 2 10 2 2 2 2 2 2 2 10 10 2 2 2 2 10 10 10 2 10 10 10 10 10 10 10 10
left_child=2 13 9 17 -4 8 14 10 -6 16 -5 21 -11 -2 15 18 -1 -3 19 -7 -14 -8 -18 25 -25 26 29 -28 -29 -24
right_child=1 3 4 7 5 6 11 -9 -10 12 -12 -13 20 -15 -16 -17 22 -19 -20 -21 -22 -23 23 24 -26 -27 27 28 -30 -31
leaf_value=-0.089007833192819852 -0.058635055261336971 -0.054173931095468301 -0.022272010715586092 -0.030158136394434668 -0.006022176861590396 -0.0017443815938146545 0.15239367226349573 0.055027226062460591 0.07092356361827977 -0.051635450009356487 0.002733012126974849 0.073271595925212943 0.16626637924835938 -0.094762775155391332 0.041411834503466513 -0.026758815446633229 -0.1120589526697789 0.033557304633602063 0.023180544452547459 0.38547616878387453 0.038583852177651395 0.39968838475313218 0.12112088490129791 0.057567044201670671 0.21821104502146241 0.038295832903555892 0.0072779150254685789 0.14638236152526077 0.48010445778850735 0.036855103079704368
leaf_weight=4.5687209069728842 481.45613562688231 202.65071446448565 113.91022203862667 242.23537152633071 254.8365642465651 1.8403085544705384 7.859113007783888 48.13826635107398 29.331208094954491 16.690543457865715 301.93670676648617 33.519372951239347 7.1959729045629492 131.60968216881156 347.11061598733068 63.732711620628834 3.080705761909484 16.846915613859892 72.908169284462929 2.0169652700424194 127.77552084997296 2.322985015809536 77.147935934364796 231.65008099377155 6.591627486050128 37.029202252626419 3.2777406200766555 8.3806210532784444 4.2002264186739913 25.016603171825409
leaf_count=52 9374 3593 1804 3885 3541 22 76 529 321 184 4715 378 80 2708 4203 801 34 239 917 24 1282 21 607 2186 59 327 30 72 38 226
internal_value=0 -0.0385622 0.0350624 -0.0175464 0.0190708 0.0248458 0.0371075 -0.00646832 0.00192 0.0619575 -0.0119083 0.104852 0.0347133 -0.0663908 0.031036 0.00540164 0.072263 -0.0474404 0.0321021 0.200733 0.0453912 0.208812 0.0741218 0.0755802 0.0620117 0.0964285 0.114667 0.206019 0.257798 0.100487
internal_weight=0 1424.87 1481.99 811.808 929.388 815.478 531.31 592.31 284.168 552.606 544.172 43.7015 151.662 613.066 487.609 140.498 400.943 219.498 76.7654 3.85727 134.971 10.1821 396.375 393.294 238.242 155.052 118.023 15.8586 12.5808 102.165
internal_count=42328 25043 17285 12961 12108 10304 6442 9129 3862 5177 8600 475 1546 12082 5967 1764 3631 3832 963 46 1362 97 3579 3545 2245 1300 973 140 110 833
is_linear=0
shrinkage=0.1


Tree=6
num_leaves=31
num_cat=0
split_feature=18 17 19 15 5 1 1 1 17 22 15 24 18 0 5 0 0 22 22 9 12 0 0 2 6 5 24 3 8 5
split_gain=328.048 97.37 37.9826 20.9569 22.7349 19.9579 19.258 24.7242 22.3095 17.3207 14.0106 17.6569 15.0764 13.6159 18.6445 13.5652 13.3793 16.1806 16.9338 12.5205 25.0064 12.2594 12.864 11.4032 11.1268 11.2233 10.8747 10.644 11.7521 10.4685
threshold=61.500000000000007 4.416666666666667 8.3666666666666689 1.5000000000000002 461.00000000000006 5319.0000000000009 5319.0000000000009 5340.5000000000009 7.166666666666667 140.01000000000002 1.5000000000000002 240.02222222222227 524.48333333333346 2019101751.0000002 517.00000000000011 2020103667.0000002 2020100653.5000002 135.05000000000004 138.76500000000001 13.500000000000002 1250.0000000000002 2022104662.0000002 2022105296.0000002 1114.5000000000002 5.5000000000000009 415.00000000000006 633.35157004830933 1.0000000180025095e-35 6.5000000000000009 497.00000000000006
decision_type=8 8 10 2 2 2 2 2 8 10 2 10 10 2 2 2 2 10 10 2 8 2 2 2 2 2 10 2 2 2
left_child=2 3 16 5 -5 24 8 27 10 -6 -3 -12 13 14 -13 -9 26 -18 -19 -15 -21 -10 -23 -14 25 -2 -1 -8 -29 -24
right_child=1 6 -4 4 9 -7 7 15 21 -11 11 12 23 19 -16 -17 17 18 -20 20 -22 22 29 -25 -26 -27 -28 28 -30 -31
leaf_value=-0.063690564401178651 -0.056541428471764979 0.039088642801496168 -0.07084753658521209 0.00148081657981913 -0.014080655553528882 0.1276935199557338 0.19096960703473417 -0.057205087765039991 -0.030826599055117667 0.050820746789666964 -0.015499413156108123 -0.05947131539228933 -0.074205461151904212 0.057201839243923351 0.24699451632973579 0.043224530347880027 -0.02885224159100155 0.33647531184787993 0.023376557387515644 0.45300195744033644 0.071294501244773698 0.074955475239349229 -0.026691618888569205 0.032643520196652703 0.011123946041761311 0.069014327014010238 0.24820070058795005 -0.0089914359905316887 0.24027698948876097 0.11472642795515445
leaf_weight=112.72660976275802 7.3619914427399626 123.0373377352953 445.92930509150028 158.36986785382032 45.205804996192455 44.786990225315094 13.439425982534885 19.331142902374268 316.89524035528302 455.01818135380745 247.37810768932104 16.777368325740103 20.235970668494701 64.826642267405987 2.2515163347125045 44.2036436162889 335.47323642671108 1.8040980249643315 40.627836305648088 2.4873726926743958 5.5364226400852212 23.55181347578764 52.541794300079346 19.723165232688189 46.526090934872627 216.09074638783932 1.1291173696517933 7.419282391667366 2.5385381877422333 5.8137036561965934
leaf_count=2062 84 1595 9605 1787 604 332 102 270 5323 4456 3682 281 286 860 35 473 5855 30 668 33 74 252 728 266 422 1970 21 69 25 78
internal_value=0 0.0221975 -0.0497123 0.0446454 0.0345013 0.0658701 8.20925e-05 0.0450307 -0.00425445 0.0449555 0.00976678 0.000253267 0.0298112 0.0521123 -0.02321 0.0126677 -0.0305469 -0.0214932 0.0366887 0.0717869 0.189624 -0.0219129 0.0125739 -0.0214666 0.0556142 0.0648777 -0.0605975 0.132912 0.0545543 -0.0126028
internal_weight=0 1961.35 937.69 973.36 658.594 314.766 987.988 86.932 901.056 500.224 502.254 379.217 131.838 91.8793 19.0289 63.5348 491.761 377.905 42.4319 72.8504 8.0238 398.803 81.9073 39.9591 269.979 223.453 113.856 23.3972 9.95782 58.3555
internal_count=42328 24087 18241 9655 6847 2808 14432 939 13493 5060 7112 5517 1835 1283 316 743 8636 6553 698 967 107 6381 1058 552 2476 2054 2083 196 94 806
is_linear=0
shrinkage=0.1


Tree=7
num_leaves=31
num_cat=0
split_feature=18 17 19 1 1 1 18 0 22 18 1 5 24 15 5 2 2 11 6 24 18 23 15 24 22 0 0 5 15 12
split_gain=273.384 75.0582 35.5355 16.6748 15.4193 15.0143 19.8567 19.564 18.4129 17.9589 17.3686 16.9276 14.8687 14.7381 13.6827 12.946 18.0427 12.7881 12.7866 16.3999 22.099 19.8272 14.7514 17.7197 13.2257 12.026 11.9091 11.4869 10.9987 10.592
threshold=61.500000000000007 4.416666666666667 8.3666666666666689 5319.0000000000009 5514.5000000000009 5319.0000000000009 180.06666666666669 2020101149.5000002 301.18500000000006 470.03333333333336 5340.5000000000009 423.00000000000006 108.81666666666668 1.0000000180025095e-35 489.00000000000006 1051.5000000000002 1061.5000000000002 inf 2.5000000000000004 354.95535714285717 807.83333333333348 3.6754385964912282 2.5000000000000004 830.84632352941196 467.15142857142865 2022105443.5000002 2019104643.0000002 509.00000000000006 1.5000000000000002 1450.0000000000002
decision_type=8 8 10 2 2 2 8 2 10 10 2 2 10 2 2 2 2 8 2 10 10 8 2 10 10 2 2 2 2 8
left_child=2 3 15 14 -5 6 7 17 13 26 -7 -9 28 -8 -2 -1 27 -3 22 -20 21 24 -16 -24 -21 -12 -10 -17 -13 -14
right_child=1 5 -4 4 -6 10 8 11 9 -11 25 12 29 -15 18 16 -18 -19 19 20 -22 -23 23 -25 -26 -27 -28 -29 -30 -31
leaf_value=-0.059193103584258555 0.024619591288425984 -0.031868263561037155 -0.068222612319396567 0.089104591006778755 0.013658114904153274 0.1087183261216353 -0.0062392367271047675 -0.083376543890301691 -0.013856617040017725 -0.022650627188365708 -0.0021427303279601753 0.030639662244835178 0.10834085594904037 -0.043709989986300518 0.094599543650339318 0.055911904626052403 -0.024274065298542757 0.060373128087033559 -0.0037829582682135468 -0.0035547762134641573 -0.023869736932856628 0.37968136864332158 0.025022583468884571 0.17897545459529857 0.19228885532453241 0.1517093117785327 0.084827115175445958 0.34082589058724444 -0.038079530735632208 0.040367067360974493
leaf_weight=105.84780002757907 575.40551974624395 104.20830611884594 418.23008044436574 108.25822155177593 36.128856405615807 25.541464149951935 200.63407552987337 12.362763814628122 17.050807666033506 53.562534127384424 58.559942524880171 101.94518869742751 37.261198412626982 220.14145764708519 94.249090142548084 14.765428345650436 356.71641715988517 17.562956128269434 70.042335104197264 6.1917941644787842 11.060656681656836 3.2514136359095565 85.229550138115883 8.1950600519776327 7.7822021469473839 5.563269615173339 43.242973625659943 1.5650465264916409 30.187789872288704 59.579200580716133
leaf_count=1911 5831 1812 9605 805 312 196 3093 191 278 784 698 1322 521 3413 836 261 6436 225 694 52 105 34 843 77 66 45 574 28 463 817
internal_value=0 0.0195493 -0.0469257 0.0387765 0.0702262 -3.60005e-05 -0.0039331 0.0141132 -0.0161896 0.0194867 0.0389824 0.0306014 0.0367553 -0.0258432 0.033505 -0.0283266 -0.0195685 -0.0185644 0.0513816 0.02217 0.086435 0.157263 0.0666865 0.0385271 0.105512 0.0112053 0.0569198 0.0832169 0.0149397 0.0665213
internal_weight=0 1993.2 897.125 1005.79 144.387 987.404 897.739 363.107 534.632 113.856 89.6647 241.336 228.973 420.776 861.408 478.895 373.047 121.771 286.002 98.3284 28.2861 17.2254 187.674 93.4246 13.974 64.1232 60.2938 16.3305 132.133 96.8404
internal_count=42328 24087 18241 9655 1117 14432 13493 5351 8142 1636 939 3314 3123 6506 8538 8636 6725 2037 2707 951 257 152 1756 920 118 743 852 289 1785 1338
is_linear=0
shrinkage=0.1


Tree=8
num_leaves=31
num_cat=0
split_feature=18 23 21 21 15 24 15 23 0 0 22 8 21 7 16 14 18 19 24 22 24 12 5 1 2 20 1 1 2 8
split_gain=229.291 62.8666 30.3251 17.4621 16.3476 17.7284 16.0316 16.9765 16.2788 13.3037 16.5647 24.434 22.2665 11.5466 11.2615 16.5976 26.1479 16.3699 24.5696 18.0363 11.1237 11.1187 11.0005 12.2116 11.8241 29.6236 10.8714 11.6921 17.8972 11.4754
threshold=51.833333333333336 5.2873015873015881 9.1055555555555561 3.2111111111111117 2.5000000000000004 100.03333333333335 1.5000000000000002 6.253571428571429 2022104662.0000002 2020104460.0000002 215.00500000000002 3.5000000000000004 5.7638888888888902 59.250000000000007 5.5000000000000009 1.0000000180025095e-35 173.29166666666671 7.1000000000000005 133.53644501278777 157.93500000000003 157.72626774847873 1175.0000000000002 441.00000000000006 5373.0000000000009 1161.5000000000002 20.775000000000002 1027.0000000000002 1095.5000000000002 1032.5000000000002 7.5000000000000009
decision_type=8 8 10 10 2 10 2 8 2 2 10 2 10 2 2 2 10 10 10 10 10 10 2 2 2 10 2 2 2 2
left_child=2 3 9 -2 5 6 7 21 -9 -1 22 -12 -13 14 -7 -16 17 19 -19 -17 -6 -3 -11 -24 -25 -26 -5 28 -28 -29
right_child=1 4 -4 26 20 13 -8 8 -10 10 11 12 -14 -15 15 16 -18 18 -20 -21 -22 -23 23 24 25 -27 27 29 -30 -31
leaf_value=-0.053181191694227942 0.047471194390511069 -0.11249988333815993 -0.077627878822259203 -0.010961478550715139 -0.05895320505585358 -0.0058076035682877534 -0.050652443530868431 -0.020441688195905902 0.027355979877129202 -0.057280684743044721 -0.10644594327765916 0.52566288797933425 0.089863024604260877 0.13286436951071148 0.019938661471502833 0.07609598162287623 0.0098670269717296422 0.63028272388925399 0.095031335797060329 0.42564745792912212 -0.012222129380687619 0.067033620512229497 -0.019608902309557131 0.019508836632171553 0.6456541358938106 0.0041501955077910511 -0.053084563976823589 0.015139340715951044 0.068684655706229822 0.054047528336828014
leaf_weight=227.73628013208508 416.26427234709263 3.7065510973334304 224.10378953441978 87.605454977601767 74.630720015615225 59.056957203894854 67.18806641548872 236.69197621569037 101.94289642572403 82.708470642566681 2.9655052945017806 1.8968850336968897 3.0696602538228035 11.086248368024824 48.932414937764406 7.0220849961042422 10.96566405892372 2.0327223055064674 1.4834588170051572 1.8690200410783289 160.44832422584295 49.751539159566164 253.70999842882156 6.3643941208720189 1.1983151100575926 1.8028324134647844 13.615404661744831 526.83843418955803 106.34829588606954 88.542307306081057
leaf_count=4799 3403 39 5563 1019 1242 824 1097 3815 1203 1675 55 32 63 96 697 97 156 32 24 25 2462 562 4954 120 25 31 156 5891 1206 965
internal_value=0 0.0164805 -0.0463753 0.0307804 -0.00469603 0.00404012 -0.00551914 0.00221479 -0.00605264 -0.0343299 -0.0221927 0.120688 0.256309 0.034861 0.02659 0.0530515 0.122375 0.22181 0.404463 0.149576 -0.0270579 0.0545855 -0.0254703 -0.0154694 0.0966672 0.260294 0.0223378 0.026305 0.0548643 0.0207375
internal_weight=0 2076.02 805.556 1239.21 836.809 601.73 459.281 392.093 338.635 581.452 353.716 7.93205 4.96655 142.449 131.362 72.3054 23.373 12.4073 3.51618 8.89111 235.079 53.4581 345.784 263.076 9.36554 3.00115 822.95 735.344 119.964 615.381
internal_count=42328 25011 17317 12640 12371 8667 6716 5619 5018 11754 6955 150 95 1951 1855 1031 334 178 56 122 3704 601 6805 5130 176 56 9237 8218 1362 6856
is_linear=0
shrinkage=0.1


Tree=9
num_leaves=31
num_cat=0
split_feature=17 18 15 19 5 21 0 5 2 5 22 15 13 0 8 2 21 22 0 21 16 5 0 9 0 0 18 0 6 2
split_gain=193.935 60.1655 30.1357 25.8377 19.3005 17.9917 16.5192 12.8439 11.7464 10.9276 10.887 19.93 18.3467 12.1921 11.0503 10.2848 12.0324 28.8655 11.2916 12.0254 12.1741 11.7901 12.3941 10.524 9.90434 11.3637 9.30134 11.4246 10.1327 9.95369
threshold=7.166666666666667 93.166666666666671 1.5000000000000002 10.900000000000002 475.00000000000006 5.8452380952380958 2022104662.0000002 451.00000000000006 402.00000000000006 423.00000000000006 46.414285714285718 1.5000000000000002 1.5000000000000002 2020100793.5000002 4.5000000000000009 1051.5000000000002 7.2111111111111121 53.633333333333333 2019102630.0000002 6.1833333333333345 3.5000000000000004 479.00000000000006 2019104774.5000002 16.500000000000004 2022105296.0000002 2022109167.0000002 190.16666666666669 2021107169.5000002 -8.4999999999999982 1060.0000000000002
decision_type=10 10 2 10 2 10 2 2 2 2 10 2 2 2 2 2 10 10 2 8 2 2 2 2 2 2 10 2 2 2
left_child=1 6 26 10 5 9 7 -1 -9 -4 -2 12 -12 -13 -14 16 -10 -18 -17 20 -20 -22 -23 -21 -8 -26 27 28 -3 -30
right_child=3 2 4 -5 -6 -7 24 8 15 -11 11 13 14 -15 -16 18 17 -19 19 23 21 22 -24 -25 25 -27 -28 -29 29 -31
leaf_value=-0.039982862190285996 -0.052060041185940077 0.16441274020941632 -0.063427797679909123 -0.084299487455586658 0.029005087682677223 -0.042808285864233596 0.063171737696789396 0.19113788971195861 -0.054596875000914848 0.01480012260669929 0.021550528105325147 -0.053689743327327261 0.45772472639116873 -0.014429544437486237 0.083623283672614401 -0.075277789053727978 -0.035747365394254736 0.41312456605150205 0.094726436182883941 -0.017105356784328871 -0.020207004419803262 0.3124210911261614 0.035821974131597538 0.19911165474780868 -0.0089639837490447499 0.11446018225997601 0.080127126774268156 0.011218842850164933 0.0060663952488873851 0.063108971550863383
leaf_weight=169.62806240841746 252.4382378757 8.210401348769663 18.812529467046261 136.46527503430843 625.11862351745367 75.256068587303162 41.517265751957893 2.9636954553425303 69.42850524187088 351.4780259616673 37.335917349904776 152.86837105080485 1.5951138027012342 163.91380972787738 1.5635098107159136 19.215335160493851 5.6417433805763713 1.92024914547801 21.517603754997253 166.3396871984005 56.028981309384108 1.6657421737909306 58.985273290425539 2.2820256054401389 74.752752527594566 8.2865780368447286 84.859224885702133 82.77796995639801 38.980962205678225 142.11849251016974
leaf_count=2890 5959 74 221 3650 6709 1156 400 38 1119 3871 665 3270 30 3000 26 364 106 33 290 2834 769 27 778 38 1034 84 541 751 342 1259
internal_value=0 0.0142828 0.0260591 -0.0449665 0.0176701 0.00176659 -0.0097283 -0.0168734 -0.00721793 0.0108258 -0.036163 -0.0249308 0.0411284 -0.0333752 0.272546 -0.00867657 -0.04155 0.0782366 -0.000913767 0.00374347 0.0256118 0.012866 0.0434186 -0.0141792 0.0232916 0.00335264 0.0512219 0.0422069 0.0557568 0.0508308
internal_weight=0 2127.79 1427.61 746.18 1070.67 445.547 700.174 575.617 405.989 370.291 609.715 357.277 40.4945 316.782 3.15862 403.025 76.9905 7.56199 326.035 306.819 138.198 116.68 60.651 168.622 124.557 83.0393 356.947 272.088 189.31 181.099
internal_count=42328 25728 14924 16600 11957 5248 10804 9286 6396 4092 12950 6991 721 6270 56 6358 1258 139 5100 4736 1864 1574 805 2872 1518 1118 2967 2426 1675 1601
is_linear=0
shrinkage=0.1


Tree=10
num_leaves=31
num_cat=0
split_feature=17 18 19 15 24 15 1 8 2 15 5 17 22 20 1 20 0 19 9 20 6 7 24 22 20 23 5 8 2 0
split_gain=162.294 47.8661 24.5949 22.7949 17.4639 15.4298 14.2185 13.9896 16.629 13.9122 15.3487 19.7492 12.61 13.7006 12.3111 25.361 11.5727 11.4428 11.3659 11.0865 10.7981 10.6924 10.4622 10.4371 20.5545 10.7077 13.1467 10.5427 16.7558 10.4113
threshold=7.166666666666667 93.166666666666671 10.900000000000002 1.5000000000000002 248.26129032258066 2.5000000000000004 5187.0000000000009 7.5000000000000009 1060.0000000000002 3.5000000000000004 463.00000000000006 5.416666666666667 132.02000000000004 126.02000000000002 5207.5000000000009 39.100000000000009 2021104514.5000002 7.9000000000000012 8.5000000000000018 346.06000000000006 -8.4999999999999982 55.750000000000007 190.36607142857147 605.33333333333348 390.38000000000005 3.3245614035087723 499.00000000000006 4.5000000000000009 1132.5000000000002 2018103116.5000002
decision_type=10 10 10 2 10 2 2 2 2 2 2 10 10 10 2 10 2 8 2 10 2 2 10 10 10 8 2 2 2 2
left_child=1 6 29 -3 5 12 -1 14 -9 10 -6 23 17 22 15 -8 -16 -5 20 21 -11 -13 -14 24 -12 27 -27 -26 -29 -2
right_child=2 3 -4 4 9 -7 7 8 -10 18 11 19 13 -15 16 -17 -18 -19 -20 -21 -22 -23 -24 -25 25 26 -28 28 -30 -31
leaf_value=-0.013820697708266039 -0.077234366129315973 0.044423251016566856 -0.082365846460496675 -0.021934266807669758 0.0043231678221285303 -0.018694905673891406 0.3448986165188852 0.36763793600293859 0.069042729607618133 -0.062008346599312619 0.039777234069812061 0.42554247105061638 0.091812356812098789 0.023074115422028852 -0.080077676768858963 -0.10876804218079905 0.026758567200530305 0.16935410182602795 -0.0032691514719894671 0.040642191063175896 0.036119813280899665 0.17750111395848833 0.35317153553932773 -0.023606459553688165 0.029673733570146611 0.36594962938772707 0.086540814281926837 0.27214856809435289 0.047675714893846768 -0.029679715380724732
leaf_weight=622.10345092788339 50.329293686896563 369.39517139270902 126.23198073357344 84.358638975769281 53.237634684890509 209.99337672442198 3.08400785177946 2.4738750271499139 7.5790784657001495 11.819053731858729 78.755798134952784 2.6081840172409994 13.809994563460348 187.7925185970962 13.200984831899403 2.052200760692358 43.713352855294943 3.2475987970829001 165.04314833879471 3.2558545917272568 219.04579945653677 5.208511084318161 1.7226523645222176 14.443218052387236 10.516734614968305 3.9281533509492865 2.947604589164257 6.8780138939619047 6.4379049763083458 539.9791247472167
leaf_count=10030 1168 2967 3650 1219 530 2824 44 24 79 131 651 31 164 1959 176 30 421 52 1694 36 2253 64 20 105 72 33 25 50 44 11782
internal_value=0 0.0126556 -0.0423016 0.0229672 0.0156627 0.00196299 -0.00894845 0.033089 0.142522 0.0274111 0.0497938 0.0677279 0.0168738 0.0305396 0.0153594 0.163634 0.00197846 -0.0148431 0.0167702 0.195685 0.0310962 0.260265 0.120798 0.0562934 0.0668358 0.136231 0.246168 0.104514 0.163622 -0.0337342
internal_weight=0 2148.65 716.54 1454.45 1085.05 500.925 694.207 72.1035 10.053 584.126 188.218 134.98 290.931 203.325 62.0505 5.13621 56.9143 87.6062 395.908 11.0725 230.865 7.8167 15.5326 123.907 109.464 30.7084 6.87576 23.8327 13.3159 590.308
internal_count=42328 25728 16600 14924 11957 6238 10804 774 103 5719 1641 1111 3414 2143 671 74 597 1271 4078 131 2384 95 184 980 875 224 58 166 94 12950
is_linear=0
shrinkage=0.1


Tree=11
num_leaves=31
num_cat=0
split_feature=18 17 21 1 1 6 6 3 0 24 12 6 1 16 18 0 0 5 24 12 1 9 5 22 15 24 5 22 0 15
split_gain=138.36 33.3766 25.8306 11.7941 58.7931 11.5081 12.5628 11.4664 11.2755 15.8655 12.3541 17.7983 11.0404 10.5031 11.2831 16.3629 10.4881 17.5469 13.1527 12.1568 10.3148 10.3055 9.97805 12.2907 9.78961 13.1943 15.3963 18.1786 16.1928 9.16605
threshold=51.833333333333336 4.416666666666667 9.1055555555555561 1086.0000000000002 1089.5000000000002 7.5000000000000009 3.5000000000000004 1.0000000180025095e-35 2020100793.5000002 107.50151515151516 1175.0000000000002 -1.0000000180025095e-35 5319.0000000000009 2.5000000000000004 180.06666666666669 2022105992.5000002 2020101645.0000002 459.00000000000006 391.45277777777784 2815.0000000000005 5514.5000000000009 6.5000000000000009 499.00000000000006 111.18142857142858 3.5000000000000004 183.35333333333332 495.00000000000006 211.02000000000001 2020104628.5000002 1.5000000000000002
decision_type=8 8 10 2 2 2 2 2 2 10 10 2 2 2 8 2 2 2 10 10 2 2 2 8 2 10 2 8 2 2
left_child=2 3 8 -2 5 6 -5 16 -1 29 11 -11 -6 -9 15 24 18 -18 -3 -20 -14 -17 -12 -24 25 -15 27 28 -27 -10
right_child=1 7 -4 4 12 -7 -8 13 9 10 22 -13 20 14 -16 21 17 -19 19 -21 -22 -23 23 -25 -26 26 -28 -29 -30 -31
leaf_value=-0.052281038385315962 0.00013893132105414089 -0.028387444898341635 -0.071167398939876739 0.16304737623908186 0.01802267468196966 0.30212616680058535 0.0059753392179913573 0.033535918240743021 -0.019205034047546681 0.49483539973616336 -0.0045164705151269679 0.0093462652984394306 0.061328303099686746 -0.0015676270953926424 -0.031760474725473248 0.37588215658783269 -0.024907462870066246 0.026667838929041062 0.02735665784425383 0.27982285533591561 0.0021773272248408427 0.045712703430770253 0.361298016926132 0.057815431272872579 -0.052085651073633998 0.36489676829744533 0.34568579521079362 -0.041331518031867333 -0.043164848679768726 -0.058669544594162376
leaf_weight=139.48670883104205 175.66661252081394 125.0558422729373 185.03905661031604 25.547006413340572 723.86314460262656 4.5263523533940306 6.3595909625291815 44.1924735493958 248.09926429763436 1.3322711028158667 54.189471818506718 1.743119079619645 121.72705852240324 126.94720340147614 242.01024764403701 1.8502088412642472 82.036852411925793 336.72682058811188 30.054326053708792 2.0365029014646998 38.902459058910608 1.9330368526279924 1.4987593963742227 12.173978954553604 32.966241452842951 2.7334594801068279 2.1785227730870238 7.1835939474403867 1.5094668827950952 77.155560418963432
leaf_count=3418 1618 2138 5563 205 6659 37 50 653 5266 28 1068 37 805 1876 3733 22 1207 4421 458 24 314 25 30 227 593 36 25 92 20 1680
internal_value=0 0.0117142 -0.0389564 0.0238842 0.0284137 0.152908 0.13174 -0.00112529 -0.0278297 -0.0192212 0.0236284 0.219662 0.0232856 -0.0128329 -0.0177199 0.001445 0.00829726 0.0165641 -0.0137322 0.0433783 0.0470027 0.207183 0.0147445 0.0910822 -0.00304074 0.00846265 0.102054 0.0556045 0.219724 -0.0285666
internal_weight=0 2136.01 720.718 1096.59 920.926 36.4329 31.9066 1039.41 535.679 396.192 70.9376 3.07539 884.493 463.504 419.312 177.302 575.91 418.764 157.147 32.0908 160.63 3.78325 67.8622 13.6727 173.518 140.552 13.605 11.4265 4.24293 325.255
internal_count=42328 25011 17317 9688 8070 292 255 15323 11754 8336 1390 65 7778 7075 6422 2689 8248 5628 2620 482 1119 47 1325 257 2642 2049 173 148 56 6946
is_linear=0
shrinkage=0.1


Tree=12
num_leaves=31
num_cat=0
split_feature=17 20 0 5 1 19 0 0 1 1 12 22 1 18 24 11 9 5 24 0 12 0 5 5 0 19 1 5 17 21
split_gain=116.305 36.3935 18.9873 18.1264 15.9832 15.1101 11.9265 11.7427 11.683 10.6884 12.7254 15.8603 12.2618 10.6105 10.5639 10.3671 9.7884 9.71175 9.4959 12.068 8.9018 8.85521 10.7332 8.34352 12.6811 11.4495 16.2463 12.6646 9.77296 9.14774
threshold=8.1666666666666696 54.990000000000002 2019109098.0000002 425.00000000000006 5187.0000000000009 11.366666666666669 2022104662.0000002 2022105296.0000002 5207.5000000000009 5319.0000000000009 1175.0000000000002 240.01500000000004 5568.0000000000009 373.10000000000002 444.81333333333345 1.0000000180025095e-35 16.500000000000004 525.00000000000011 109.97727272727273 2021109072.5000002 2050.0000000000005 2021104514.5000002 471.00000000000006 497.00000000000006 2018100184.5000002 7.6333333333333337 1179.5000000000002 509.00000000000006 2.166666666666667 7.8166666666666673
decision_type=10 10 2 2 2 10 2 2 2 2 10 8 2 10 10 10 2 2 10 2 8 2 2 2 2 8 2 2 10 8
left_child=1 4 14 20 6 18 -1 -8 -6 10 11 -5 -11 -13 15 23 -12 -9 -2 -20 -4 -10 -23 -3 -25 28 27 -27 -26 -30
right_child=5 2 3 9 8 -7 7 17 21 12 16 13 -14 -15 -16 -17 -18 -19 19 -21 -22 22 -24 24 25 26 -28 -29 29 -31
leaf_value=-0.02745461427864599 -0.050918539455530869 -0.016311834310865591 -0.042107850802615296 0.046124400443208119 0.17106159109148014 -0.08516046833023197 0.067532490110042406 -0.01606481402366676 -0.061651868636814405 0.058522734475161944 0.0176764518804607 0.33184885047009838 -0.0021176019828215427 0.079104202616634325 0.028454359349448212 -0.045686311040292443 -0.077452782475156676 0.25160371449124153 -0.021908851216580313 0.24609010206716164 0.16324701360778709 -0.0088602675930566817 0.089863555597993208 -0.08643356351642123 0.21706659876370404 0.33425960249575315 0.54045122108387111 -0.10604787680351913 0.012119873830627119 0.20859132553996426
leaf_weight=409.46928314119577 233.02883530408144 142.11002441868186 56.702100694179535 35.813602734357119 5.6656806655228129 83.066058598458767 27.13835896551609 65.237495079636574 10.643139373511074 143.47393757104874 1159.911847576499 3.5630643591284743 43.441060312092304 3.1115247495472431 71.498513229191303 77.682850476354361 10.918241415172814 1.3842727988958348 153.12652170658112 1.6988796219229687 2.1925228647887698 22.257719203829765 21.797063250094652 8.5130761303007585 2.7151262089610091 1.1357502490282056 1.0807831957936285 1.5376860387623308 46.419190261512995 2.4973106719553462
leaf_count=8153 6341 2126 713 401 73 2792 280 983 168 994 12003 34 385 31 774 1206 113 18 3373 30 29 230 187 127 26 22 19 30 629 38
internal_value=0 0.00794121 0.0148363 0.0198836 -0.0142555 -0.0464541 -0.0200879 0.0120838 0.0343678 0.0221694 0.0187403 0.0725005 0.0444293 0.214026 -0.00589807 -0.0145559 0.0167894 -0.0105032 -0.0381644 -0.0189681 -0.0344629 0.0202089 0.0399855 -0.00281705 0.0271951 0.0446604 0.213274 0.081007 0.0324002 0.0221502
internal_weight=0 2377.91 1814.32 1459.13 563.593 470.92 503.229 93.7601 60.3636 1400.23 1213.32 42.4882 186.915 6.67459 355.19 283.692 1170.83 66.6218 387.854 154.825 58.8946 54.6979 44.0548 206.009 63.8989 55.3858 3.75422 2.67344 51.6316 48.9165
internal_count=42328 29792 19700 14703 10092 12536 9434 1281 658 13961 12582 466 1379 65 4997 4223 12116 1001 9744 3403 742 585 417 3017 891 764 71 52 693 667
is_linear=0
shrinkage=0.1


Tree=13
num_leaves=31
num_cat=0
split_feature=17 24 19 15 15 24 1 7 6 5 7 5 18 7 19 5 9 7 19 17 0 17 0 24 6 5 12 21 18 16
split_gain=98.3329 27.6919 20.8647 20.4448 15.9292 12.605 12.3325 12.1839 11.9599 13.8133 11.0502 10.0843 10.9252 16.6983 12.0266 16.4405 11.3989 10.3364 11.6346 11.4674 9.77739 9.76438 9.75376 10.4027 25.3986 10.0564 11.7925 9.66798 9.40318 11.3714
threshold=7.166666666666667 87.679487179487197 10.900000000000002 1.5000000000000002 3.5000000000000004 378.70555555555558 1081.0000000000002 54.500000000000007 6.5000000000000009 467.00000000000006 59.250000000000007 449.00000000000006 677.73333333333346 55.750000000000007 1.9000000000000001 533.00000000000011 4.5000000000000009 57.250000000000007 6.2250000000000005 5.166666666666667 2022109167.0000002 3.8333333333333335 2018103116.5000002 315.79470108695654 -10.499999999999998 523.00000000000011 1175.0000000000002 2.4142857142857146 360.31666666666678 7.5000000000000009
decision_type=10 10 10 2 2 10 2 2 2 2 2 2 10 2 10 2 2 2 8 10 2 10 2 10 2 2 8 8 10 2
left_child=1 3 22 6 8 -6 -1 -8 9 10 21 -7 13 16 15 -14 -13 -15 19 -19 -9 -3 -2 -24 -25 26 -26 -5 -18 -30
right_child=2 4 -4 27 5 11 7 20 -10 -11 -12 12 14 17 -16 -17 28 18 -20 -21 -22 -23 23 24 25 -27 -28 -29 29 -31
leaf_value=-0.035201772485033665 -0.072611725086538126 0.026215342288001559 -0.076668097648531192 0.13053617914028665 -0.011242249605568815 -0.044043527885920877 -0.026585863143798735 0.01136956287469131 -0.0034916446244656844 0.03910805071093533 0.189309508203925 0.0058879880990797316 0.039428444612007146 -0.00049301396274342019 -0.0068143666256615561 0.28753389021931225 -0.022115972399684356 0.10545264415293208 0.28525968800840401 -0.059663740657746982 0.12455980312588649 -0.0081768768456252552 -0.027874450257936306 0.47763688844028124 0.30216541096299399 0.1840315003710091 -0.013647995649696482 -0.055488011926704918 0.14160595429348111 0.33657881367830828
leaf_weight=87.291872162371874 44.014268450438976 188.22826902195811 102.42681849189103 2.8778155483305445 294.50608376413584 23.252076882869005 93.644032325595617 370.87131344527006 134.84305991977453 502.57287205383182 3.5172038674354544 5.7784187905490425 31.35620004683733 44.493041221052408 116.68371703848243 2.9194836392998686 2.2367439977824715 14.384129431098705 2.5127948559820643 5.944380670785903 7.7917449846863738 147.0378903709352 459.08654274977744 1.1994612142443646 1.2218695916235436 3.096157554537057 36.550799690186977 95.710166241973639 10.317057970911263 4.2128093317151061
leaf_count=1383 1168 1541 3650 33 3701 251 1577 5393 1326 4611 27 56 239 448 1070 20 27 126 30 76 69 1848 10987 25 22 58 690 1747 87 42
internal_value=0 0.00909154 -0.0352574 -0.00806817 0.0164504 0.00298271 -0.000670575 0.00571149 0.0241568 0.0285879 0.0129817 0.018846 0.0249177 0.0525204 0.00848341 0.0605612 0.12701 0.0275794 0.0822624 0.05717 0.0136987 0.0111319 -0.0274771 -0.0235131 0.0240813 0.0107699 -0.00343207 -0.0500579 0.168754 0.198137
internal_weight=0 2192.98 647.596 658.187 1534.8 558.597 559.599 472.307 976.199 841.356 338.783 264.091 240.839 89.8794 150.959 34.2757 22.545 67.3343 22.8413 20.3285 378.663 335.266 545.169 501.155 42.0683 40.8688 37.7727 98.588 16.7666 14.5299
internal_count=42328 25728 16600 10202 15526 6173 8422 7039 9353 8027 3416 2472 2221 892 1329 259 212 680 232 202 5462 3389 12950 11782 795 770 712 1780 156 129
is_linear=0
shrinkage=0.1


Tree=14
num_leaves=31
num_cat=0
split_feature=17 22 15 15 24 16 19 15 0 24 5 16 0 1 2 23 2 16 5 3 20 1 5 0 20 20 23 18 1 1
split_gain=84.3732 25.9143 15.4575 14.772 15.8051 16.0937 13.8015 13.5117 14.982 17.9142 14.0711 15.3081 14.0468 16.7174 14.3214 14.8161 15.293 13.0486 12.683 12.0992 24.3084 11.6264 11.4369 11.135 12.0551 11.5679 10.8814 9.611 12.5756 26.6908
threshold=8.1666666666666696 46.414285714285718 1.5000000000000002 1.5000000000000002 311.3522727272728 9.5000000000000018 11.366666666666669 2.5000000000000004 2021100954.5000002 134.80909090909094 485.00000000000006 6.5000000000000009 2020103157.0000002 1189.0000000000002 1054.5000000000002 5.3294573643410859 1120.5000000000002 2.5000000000000004 415.00000000000006 1.0000000180025095e-35 128.12500000000003 5187.0000000000009 447.00000000000006 2019105077.0000002 604.06666666666672 414.46000000000009 4.4580419580419592 600.16666666666686 1081.0000000000002 1089.5000000000002
decision_type=10 10 2 2 10 2 10 2 2 10 2 2 2 2 2 10 2 2 2 2 10 2 2 2 8 10 8 10 2 2
left_child=1 2 21 18 7 27 -2 8 10 -10 -5 -12 19 14 -14 26 -17 -11 -3 -13 -21 -1 -23 -7 25 -25 -16 28 -6 -30
right_child=6 3 -4 4 5 23 -8 -9 9 17 11 12 13 -15 15 16 -18 -19 -20 20 -22 22 -24 24 -26 -27 -28 -29 29 -31
leaf_value=-0.014122588703229605 -0.033600552927355615 -0.064346356678759126 -0.066026173344413963 0.0068129989773956824 -0.020880341140701926 -0.0068465772846486601 -0.08170631455223365 -0.016168473884137696 -0.066826810980533377 0.082681892619883235 0.020921065284691967 0.0012831350572151139 0.0031055461543886115 0.0055808647050786279 0.28545777521452875 0.23092375412205202 0.624228337475492 -0.0043436755083925563 0.027588082171753743 0.0016070499189697993 0.4055966033432703 -0.062552088298719333 0.055037986685455537 0.13044937637168816 0.022875504949704806 0.35978527754341094 0.054442810895632944 0.0020449790311678549 0.20473519069063373 0.033156336992523947
leaf_weight=390.60062418319285 364.23478146269917 15.421071730554102 51.10104782320559 141.42830576188862 38.536952245980501 5.6572278253734138 71.31677452288568 382.79425465129316 43.360156457871199 19.143070850521326 53.448753774166107 16.10259087570012 2.6076502986252335 5.0661128498613825 4.7007828354835484 2.0528388060629363 1.9070560187101362 172.35521125048399 557.48265225440264 3.6611690353602162 2.5108761116862297 10.04532592743635 46.831197760999203 5.2725574783980811 4.3083741553127775 3.773556187748909 3.6007554978132257 223.08308674022555 9.5451166909188014 180.77020730264485
leaf_count=7217 9744 209 1163 2044 410 68 2792 5386 657 179 682 224 32 58 37 28 26 1688 5051 63 29 126 434 50 40 34 39 2014 79 1725
internal_value=0 0.00636749 -0.0139219 0.0116956 0.00589695 0.0206068 -0.0414773 -0.00220794 0.00911543 -0.0087861 0.0268487 0.0564709 0.101486 0.162465 0.215918 0.261176 0.420336 0.00435581 0.0251134 0.046912 0.165956 -0.0079717 0.0342697 0.110737 0.160547 0.226116 0.185256 0.0168153 0.0312133 0.0417617
internal_weight=0 2397.17 498.578 1898.59 1325.69 470.947 435.552 854.74 471.945 234.858 237.087 95.6586 42.2098 19.9352 14.8691 12.2614 3.95989 191.498 572.904 22.2746 6.17205 447.477 56.8765 19.0117 13.3545 9.04611 8.30154 451.935 228.852 190.315
internal_count=42328 29792 8940 20852 15592 4420 12536 11172 5786 2524 3262 1218 536 220 162 130 54 1867 5260 316 92 7777 560 192 124 84 76 4228 2214 1804
is_linear=0
shrinkage=0.1


Tree=15
num_leaves=31
num_cat=0
split_feature=18 21 21 7 16 5 0 0 1 17 0 5 0 5 6 23 5 24 1 1 20 9 6 24 18 24 16 21 19 17
split_gain=71.2165 19.2585 18.2567 16.5283 11.307 11.2372 11.1824 10.5259 10.4203 22.0488 10.1724 9.83097 9.89901 15.1405 9.59004 13.1294 9.18646 8.59683 8.31083 41.2587 13.7564 11.7787 10.3862 20.6436 17.9448 12.255 22.3057 10.207 9.59455 9.6989
threshold=27.583333333333339 5.7638888888888902 8.0500000000000025 59.250000000000007 4.5000000000000009 425.00000000000006 2019105565.5000002 2018106727.0000002 677.50000000000011 7.5833333333333348 2020105162.0000002 449.00000000000006 2022106247.0000002 487.00000000000006 -1.0000000180025095e-35 6.7018518518518526 441.00000000000006 248.26129032258066 1087.5000000000002 1089.5000000000002 176.10000000000002 7.5000000000000009 6.5000000000000009 545.54833333333352 606.51666666666677 330.00454545454551 9.5000000000000018 3.7071428571428573 6.1000000000000005 6.5833333333333348
decision_type=8 8 10 2 2 2 2 2 2 10 2 2 2 2 2 8 2 10 2 2 10 2 2 10 10 10 2 10 8 10
left_child=2 5 4 7 8 -2 17 -3 9 -1 -6 -4 -13 -14 15 -5 -12 -7 -8 20 -20 27 24 -24 25 -21 28 -22 29 -27
right_child=1 3 11 14 10 6 18 -9 -10 -11 16 12 13 -15 -16 -17 -18 -19 19 22 21 -23 23 -25 -26 26 -28 -29 -30 -31
leaf_value=-0.10511149348944171 -0.03272863370130321 -0.049488323973886181 -0.087598390228755874 0.17777393782262277 -0.058056446493059743 -0.030962934013059301 -0.0011077921179380582 -0.0059426432764119793 0.0073008143077784738 0.55022559696183782 -0.070838440372065117 -0.046051240893291573 0.027749095259015522 0.60596526401709205 0.013220485785459278 -0.036364861037024541 0.0035346884779625023 0.010497806274592868 0.023226682919878755 0.021510817178810794 0.16413416435785078 0.079679985479857995 -0.022224275124259448 0.088018150205188495 -0.01717255245862721 0.048758650681671539 0.26617947598090574 0.34325878840049068 0.19467805813412919 -0.090971851110987365
leaf_weight=0.98830572515726034 52.445463858544827 60.30862645059824 71.380147149786353 11.068121954798695 82.12587752379477 88.003798069432378 196.98143455386162 697.57907775975764 78.469104049727321 1.0684122890233991 20.672230357304215 145.38439594954252 2.2952592503279443 0.56416415609419335 17.460809644311666 3.8623657561838636 84.473460756242275 115.84114694967866 11.086467172950504 689.19038663432002 13.795642696321016 12.739095680415629 126.41694483160973 19.622436732053757 106.81474076956511 96.06915070861578 4.8902419991791239 4.134576052427291 4.2630746103823176 5.2383879832923403
leaf_count=22 667 1316 2576 105 2176 1310 1937 11409 1890 26 489 5084 84 20 174 43 1822 1296 85 6415 90 90 1205 150 907 745 37 37 55 66
internal_value=0 0.00628291 -0.0357375 -0.00641802 -0.018211 0.0127689 0.0143649 -0.00940777 0.0131247 0.235319 -0.0316852 -0.0571084 -0.0424272 0.141831 0.0635359 0.122378 -0.0110875 -0.0074016 0.0178011 0.021205 0.118693 0.153203 0.0173373 -0.00741166 0.0213246 0.0264669 0.0573892 0.205439 0.0477177 0.0415335
internal_weight=0 2337.81 487.421 790.279 267.797 1547.53 1495.09 757.888 80.5258 2.05672 187.272 219.624 148.244 2.85942 32.3913 14.9305 105.146 203.845 1291.24 1094.26 41.7558 30.6693 1052.51 146.039 906.466 799.651 110.461 17.9302 105.571 101.308
internal_count=42328 28139 14189 13047 6425 15092 14425 12725 1938 48 4487 7764 5188 104 322 148 2311 2606 11819 9882 302 217 9580 1355 8225 7318 903 127 866 811
is_linear=0
shrinkage=0.1


Tree=16
num_leaves=31
num_cat=0
split_feature=17 24 15 15 24 19 19 10 15 0 17 18 20 1 1 19 0 1 12 5 5 1 19 16 20 2 19 2 9 12
split_gain=60.3712 18.5345 14.5502 13.9369 14.5687 12.9094 11.688 15.8551 11.044 9.57792 10.496 13.6967 10.0943 9.06318 13.9368 12.7738 9.51831 9.20466 8.88692 8.9861 9.79735 16.5218 8.44367 9.17285 10.0522 11.1523 13.6928 22.999 9.20914 10.6813
threshold=8.1666666666666696 94.008823529411771 1.5000000000000002 2.5000000000000004 315.79470108695654 11.366666666666669 9.3666666666666689 1.0000000180025095e-35 3.5000000000000004 2021100954.5000002 2.416666666666667 420.13333333333338 39.100000000000009 1086.0000000000002 1089.5000000000002 5.4500000000000011 2022109167.0000002 1162.5000000000002 1350.0000000000002 441.00000000000006 443.00000000000006 1184.5000000000002 8.1000000000000014 3.5000000000000004 385.03333333333336 1105.5000000000002 7.1000000000000005 1065.5000000000002 4.5000000000000009 1750.0000000000002
decision_type=10 10 2 2 10 10 10 2 2 2 10 8 10 2 2 8 2 2 10 2 2 2 10 2 10 2 10 2 2 8
left_child=1 2 13 9 -5 18 -4 -8 -6 12 -11 -12 -3 -1 15 -15 -16 -18 19 -2 21 -21 23 28 -25 26 -26 -28 -20 -30
right_child=5 3 6 4 8 -7 7 -9 -10 10 11 -13 -14 14 16 -17 17 -19 22 20 -22 -23 -24 24 25 -27 27 -29 29 -31
leaf_value=-0.028129143106971621 -0.066213349776699737 -0.0783139400703666 -0.041814804467952889 -0.012954531366462874 0.065135497300024658 -0.078417364296732392 0.40335775640169413 -0.10397855639216549 0.0091426718205246706 0.03598444511087958 0.0041295452981744531 0.17559413544377542 0.040599421606333452 -0.048654014888487307 -2.2872031161383919e-05 0.20559235322097347 0.24397499500077419 0.029895294800738895 -0.075960993846773461 -0.0060530953377629449 0.005802116648955722 0.62932668909578515 -0.052132472291272325 -0.04358506563045262 0.029109313535760479 -0.04346280183196545 0.064094920299441166 0.7239290716792115 0.226691311503249 0.014530889618546095
leaf_weight=106.33814091980457 18.596068046987057 7.3657588418573132 130.24539776705205 368.59536554478109 39.066241346299648 62.548796828836203 1.3793953433632844 1.1130434256047008 358.34883143939078 154.02513094991446 460.27516166679561 4.7063468284904948 231.50740424916148 2.8779903240501854 531.58966665901244 6.3059307858347902 3.0849248357117158 5.7555904872715473 3.4295335114002219 1.0230914466083039 77.985316270962358 0.68210258148610581 164.99359470419586 56.939804332330823 2.9369885548949224 4.8043583482503891 1.1700384058058264 0.96304495260119427 4.5141788572072956 5.0028182789683351
leaf_count=1805 568 167 2624 5198 285 2792 39 32 3471 986 4208 35 2476 25 8287 78 33 43 77 31 2132 21 5210 1311 54 96 23 18 94 109
internal_value=0 0.00506097 -0.00751595 0.0111693 0.00136537 -0.0366369 -0.0377099 0.176798 0.0146468 0.0199234 0.0133595 0.00586504 0.0369327 -0.00140593 0.00376442 0.125918 0.00168856 0.104599 -0.0290188 -0.00361957 0.0109869 0.248108 -0.0392185 -0.0125044 -0.0274324 0.0657104 0.169162 0.361997 0.0645354 0.115165
internal_weight=0 2412.58 788.69 1623.89 766.01 405.59 132.738 2.49244 397.415 857.88 619.007 464.982 238.873 655.952 549.614 9.18392 540.43 8.84052 343.041 98.2866 79.6905 1.70519 244.754 79.7608 66.8142 9.87443 5.07007 2.13308 12.9465 9.517
internal_count=42328 29792 12966 16826 8954 12536 2695 71 3756 7872 5229 4243 2643 10271 8466 103 8363 76 9744 2752 2184 52 6992 1782 1502 191 95 41 280 203
is_linear=0
shrinkage=0.1


Tree=17
num_leaves=31
num_cat=0
split_feature=22 17 15 17 15 20 18 5 2 12 9 14 1 1 22 24 12 18 6 17 18 8 5 12 22 2 5 19 18 3
split_gain=52.4638 18.8251 14.0006 12.6132 11.1808 10.7425 11.8658 10.2324 10.0363 9.04787 16.1418 8.27146 8.15278 16.9239 8.88329 11.864 8.47792 10.4849 11.6855 8.47476 8.44157 12.9897 24.172 15.4262 14.158 13.6795 12.5064 9.85479 9.60823 8.61493
threshold=46.414285714285718 6.8333333333333348 2.5000000000000004 9.1666666666666696 1.5000000000000002 255.10000000000002 119.66666666666667 475.00000000000006 1054.5000000000002 1075.0000000000002 14.500000000000002 2.5000000000000004 1089.5000000000002 1086.0000000000002 289.97500000000008 248.26129032258066 1450.0000000000002 46.250000000000007 1.5000000000000002 5.416666666666667 180.06666666666669 5.5000000000000009 511.00000000000006 1075.0000000000002 133.51500000000001 1085.5000000000002 501.00000000000006 3.1000000000000005 107.08333333333336 1.0000000180025095e-35
decision_type=8 8 2 10 2 10 10 2 2 10 2 2 2 2 10 10 8 10 2 8 10 2 2 10 10 2 2 10 10 2
left_child=3 7 5 4 -1 -3 -7 -2 11 10 -4 -9 13 14 15 -10 20 18 -18 -15 21 24 23 -23 -14 -26 29 -22 -25 -27
right_child=1 2 9 -5 -6 6 -8 8 12 -11 -12 -13 16 19 -16 -17 17 -19 -20 -21 27 22 -24 28 25 26 -28 -29 -30 -31
leaf_value=-0.010780575305132075 0.0019626023071028244 -0.0017643277827419672 0.014322769303646222 -0.058899990341163291 -0.060153877175019077 0.39298752742339316 0.050876916747245531 -0.0082438100157701654 0.028994792962594048 -0.036282247007042204 0.42291769394904721 0.13841004722484004 -0.016234984444634535 0.087746866159425257 -0.010744046793465894 0.14328401959746975 0.27139708142599223 0.0071625149012841246 -0.022246344838603355 0.25796856882715741 0.054301843848147596 0.31615183977421196 0.31919093410589489 0.11353439259343077 -0.063455798767878976 0.30985273543881853 -0.001005558624433458 -0.0033655922654814291 -0.026812338167716672 0.099141149879165891
leaf_weight=209.36048474907875 825.46215120702982 445.88687447085977 6.6519138291478148 136.94653578288853 58.732820048928261 1.3924555294215668 3.7284590192139149 164.74283312447369 59.878048859536648 190.87070026807487 1.1313017904758451 3.9378033466637126 26.623263264074922 32.552809305489063 44.437504760921001 10.706910111010073 3.1661517322063437 412.83724421262741 2.3693728931248188 3.2135380879044524 48.204399757087231 2.3173011392355027 4.8419960886239997 9.7404378466308135 3.6741251051425925 4.8784127756953222 3.4632173292338839 76.920974567532539 9.771479230374096 3.2217278443276882
leaf_count=4845 8731 7974 157 5558 1554 23 50 1666 655 4548 24 40 295 213 418 101 52 3754 43 31 338 25 54 119 37 41 36 827 90 29
internal_value=0 0.00469136 -0.00985325 -0.0342094 -0.0215971 -0.000110376 0.143902 0.0100694 0.0172534 -0.0319727 0.0737126 -0.00482022 0.0221345 0.0429623 0.0242808 0.0463311 0.0170031 0.00899563 0.145709 0.103041 0.0343021 0.0625133 0.117056 0.0722196 0.027762 0.104635 0.158043 0.0188507 0.0432494 0.226045
internal_weight=0 2406.62 649.662 405.04 268.093 451.008 5.12091 1756.96 931.5 198.654 7.78322 168.681 762.819 150.789 115.022 70.585 612.03 418.373 5.53552 35.7663 193.657 68.532 26.6712 21.8292 41.8607 15.2375 11.5634 125.125 19.5119 8.10014
internal_count=42328 30371 12776 11957 6399 8047 73 17595 8864 4729 181 1706 7158 1418 1174 756 5740 3849 95 244 1891 726 288 234 438 143 106 1165 209 70
is_linear=0
shrinkage=0.1


Tree=18
num_leaves=31
num_cat=0
split_feature=21 24 15 15 21 1 20 5 5 0 24 5 12 8 14 6 2 6 2 15 7 0 5 7 21 23 7 20 6 2
split_gain=44.0643 15.5121 20.97 13.8202 13.6415 13.9467 28.1339 11.0699 10.562 15.1431 10.4783 11.4323 10.3935 11.4371 10.2628 13.0379 15.4093 18.3787 9.82867 9.31313 8.67736 10.5006 12.3292 8.28582 9.6535 8.14245 8.08985 8.13511 23.0832 12.3295
threshold=7.8944444444444457 94.008823529411771 1.5000000000000002 1.5000000000000002 4.4722222222222232 1204.5000000000002 112.05000000000001 441.00000000000006 483.00000000000006 2018100184.5000002 175.88560606060608 421.00000000000006 1075.0000000000002 4.5000000000000009 1.5000000000000002 5.5000000000000009 1141.5000000000002 -1.0000000180025095e-35 1036.5000000000002 2.5000000000000004 59.250000000000007 2019104492.0000002 493.00000000000006 54.500000000000007 3.2111111111111117 6.5395010395010402 59.250000000000007 93.366666666666674 -10.499999999999998 1054.5000000000002
decision_type=10 10 2 2 10 2 10 2 2 2 10 2 8 2 2 2 2 2 2 2 2 2 2 2 10 8 2 10 2 2
left_child=1 2 18 4 -3 20 -7 -2 10 -10 19 -12 13 -9 15 16 17 -15 -1 -5 -6 22 25 24 -13 -22 27 28 -11 -30
right_child=7 3 -4 8 5 6 -8 12 9 26 11 23 -14 14 -16 -17 -18 -19 -20 -21 21 -23 -24 -25 -26 -27 -28 -29 29 -31
leaf_value=-0.032194536553552575 -0.074027462484862874 0.016615543886541916 -0.042974395276988125 -0.0086858580358701448 0.025417980296645284 0.0067625796538959872 0.34578526613592186 -0.055806196546944381 -0.073206465756515085 0.44900667558022556 -0.087538584782195145 0.092144803367504746 -0.031013300836628378 0.20781090581261008 -0.10454584591140317 -0.10407163052260762 -0.012662266644785702 0.72520173664987031 0.0045663989029674614 -0.053470262825143458 0.21720570631191147 0.30909135752047701 -0.04390596979889088 0.00035621797450642741 0.014513046611024556 -0.003037954305364706 0.11077059819561644 0.01149142514264858 -0.056130415635571307 0.070457280294582647
leaf_weight=84.043038669973612 61.93795563839376 305.24009965360165 141.84863334521651 149.28853244706988 45.353535963222384 4.899688979610799 4.8914507515728474 4.1501793619245273 19.554323403164744 1.441719127818941 13.343539468944071 21.885279685258865 242.54485421441495 1.5996151845902205 1.1820479631423948 0.97015160880982865 1.0939867328852413 1.20280733704567 540.37772011011839 67.39809175953269 5.8359652012586567 2.3012293409556142 5.1242772266268721 398.6344894003123 59.746894918382168 2.3563694767653951 8.9101167321205121 564.26524847000837 9.8786054011434299 34.79495557025075
leaf_count=1368 2376 2106 3214 2151 454 49 39 130 367 33 181 154 7871 47 35 32 33 32 8216 1282 57 24 57 4441 718 17 95 5858 203 688
internal_value=0 0.00357349 -0.00826603 0.00883234 0.0257865 0.0653463 0.176131 -0.0361398 0.00410724 0.0134369 -0.0042839 0.0037634 -0.026855 0.0720374 0.159756 0.223952 0.305626 0.429876 -0.000381388 -0.0226156 0.0475558 0.111843 0.077757 0.00630009 0.0353258 0.153857 0.0161727 0.0147918 0.055175 0.0424651
internal_weight=0 2491.41 766.269 1725.14 376.003 70.7625 9.79114 314.682 1349.14 638.845 710.297 493.61 252.744 10.1988 6.04861 4.86656 3.89641 2.80242 624.421 216.687 60.9714 15.6178 13.3166 480.267 81.6322 8.19233 619.291 610.381 46.1153 44.6736
internal_count=42328 31772 12798 18974 2803 697 88 10556 16171 7244 8927 5494 8180 309 179 144 112 79 9584 3433 609 155 131 5313 872 74 6877 6782 924 891
is_linear=0
shrinkage=0.1


Tree=19
num_leaves=31
num_cat=0
split_feature=19 20 5 0 12 0 14 15 24 0 24 24 0 0 2 5 21 9 9 5 1 1 9 8 1 16 9 0 13 5
split_gain=38.6425 14.6865 12.4284 11.0453 9.96259 9.66589 12.3834 9.57822 12.1638 10.2987 10.2923 10.1244 9.58448 8.85777 8.58497 8.58132 8.35833 10.8344 9.43267 8.31063 8.05546 9.50604 9.13229 12.2618 7.79958 7.79615 11.1362 7.6905 8.83056 9.43248
threshold=8.3666666666666689 54.990000000000002 441.00000000000006 2022104662.0000002 1175.0000000000002 2022106247.0000002 1.0000000180025095e-35 1.5000000000000002 134.80909090909094 2022105826.5000002 349.33787878787882 136.25717391304349 2021100204.5000002 2022104944.5000002 1136.5000000000002 421.00000000000006 9.4142857142857164 1.5000000000000002 4.5000000000000009 415.00000000000006 5187.0000000000009 5207.5000000000009 8.5000000000000018 3.5000000000000004 1184.5000000000002 3.5000000000000004 12.500000000000002 2022105992.5000002 2.5000000000000004 501.00000000000006
decision_type=10 10 2 2 10 2 2 2 10 2 8 10 2 2 2 2 10 2 2 2 2 2 2 2 2 2 2 2 2 2
left_child=1 3 -2 20 16 -6 -7 10 12 11 19 24 -9 15 -15 -13 17 -4 -19 -3 -1 22 23 -22 -10 26 -17 -5 29 -29
right_child=2 7 4 27 5 6 -8 8 9 -11 -12 13 -14 14 -16 25 -18 18 -20 -21 21 -23 -24 -25 -26 -27 -28 28 -30 -31
leaf_value=-0.023222476386103648 -0.078563983332690254 -0.059211090130807824 0.40649173472583872 0.037006507081095208 -0.03378438200474277 0.045430449916371872 0.54087161297421149 -0.0074159425708595532 0.075839299169403129 -0.089481940295279783 0.22038844776519434 -0.06881940026551335 -0.056927223059305289 0.0059643964731338969 0.20980291184306263 0.040270340564741387 -0.064061616706066846 -0.10449204979023129 0.10638732729604128 0.018936367824205418 0.06532691613200152 0.0035527267032831483 0.0024569330769086163 0.4516036544232252 0.37049388219016272 0.0041010637583827041 -0.038192001163774511 -0.038006957188469914 0.19153927427700021 0.10870500864699072
leaf_weight=386.94331344589591 53.673087464645505 13.941889755427836 0.97843881696462887 69.592371374368668 220.35513638518751 2.6891948785632844 0.62099446915090073 167.15306812524796 3.2290758825838557 11.015915915369986 2.5003707334399214 14.993963500484822 51.036340083926916 4.0402777120470983 4.2286989912390709 124.74121169745922 5.1158776581287375 2.7027076296508303 9.8572067078202945 568.76016978919506 1.6972781009972089 32.535094702616334 2.6322033777832985 1.5931598544120786 1.2446041032671926 971.43536295369267 21.156936973333359 42.977750839665532 1.9977597184479226 4.8797973357141009
leaf_count=8447 2278 194 29 751 7740 97 23 2893 47 100 15 225 823 34 32 1373 202 76 235 4827 22 428 32 18 17 10413 240 637 29 51
internal_value=0 0.00318307 -0.0350246 -0.0113396 -0.0253807 -0.0312365 0.138376 0.00722121 0.00265886 0.00674601 0.0179353 0.00767175 -0.018997 0.00708285 0.110206 0.00632978 0.0448298 0.0859778 0.0610092 0.0170666 -0.0188842 0.0247651 0.141292 0.252354 0.157814 0.00733824 0.0288924 0.01553 -0.0144487 -0.0230475
internal_weight=0 2504.33 295.993 544.849 242.32 223.665 3.31019 1959.48 1374.28 1156.09 585.202 1145.07 218.189 1140.6 8.26898 1132.33 18.6542 13.5384 12.5599 582.702 425.401 38.4577 5.92264 3.29044 4.47368 1117.33 145.898 119.448 49.8553 47.8575
internal_count=42328 31648 10680 10415 8402 7860 120 21233 16197 12481 5036 12381 3716 12317 66 12251 542 340 311 5021 8947 500 72 40 64 12026 1613 1468 717 688
is_linear=0
shrinkage=0.1


Tree=20
num_leaves=31
num_cat=0
split_feature=19 21 17 5 0 0 0 1 7 5 16 0 19 0 2 2 0 9 12 7 1 12 9 2 1 1 20 14 6 15
split_gain=33.3217 15.0763 12.8626 10.207 9.81722 9.40932 15.2878 22.727 8.81462 7.95286 13.4966 9.20343 12.7922 8.50737 11.211 17.7205 9.3944 9.69691 7.67501 7.48459 11.8141 7.24897 10.1602 7.21852 7.12343 10.06 9.34716 13.0728 8.53618 8.63997
threshold=8.9000000000000021 5.7638888888888902 6.166666666666667 449.00000000000006 2018105628.5000002 2021105294.5000002 2021105812.5000002 1073.5000000000002 60.250000000000007 451.00000000000006 3.5000000000000004 2021109072.5000002 7.2250000000000005 2022106247.0000002 1113.5000000000002 1067.5000000000002 2022104662.0000002 5.5000000000000009 2050.0000000000005 59.250000000000007 1064.5000000000002 1250.0000000000002 3.5000000000000004 1002.5000000000001 1211.5000000000002 1176.5000000000002 31.100000000000005 1.0000000180025095e-35 6.5000000000000009 2.5000000000000004
decision_type=10 10 8 2 2 2 2 2 2 2 2 2 8 2 2 2 2 2 8 2 2 10 2 2 2 2 10 2 2 2
left_child=2 -2 24 -3 8 19 7 -7 -4 10 11 18 -13 14 15 -14 17 -17 -6 -5 -21 -9 -23 -22 25 -1 27 -26 29 -27
right_child=1 3 4 5 9 6 -8 21 -10 -11 -12 12 13 -15 -16 16 -18 -19 -20 20 23 22 -24 -25 26 28 -28 -29 -30 -31
leaf_value=0.0088220835845431635 0.39406184012030709 -0.076306652825840204 -0.053548312842812085 -0.044259596525535974 -0.020149576768069489 0.80303215073644452 -0.0039587609852467492 0.44053501726773514 0.29257927238436471 0.0010981670629566214 -0.03453854842106921 0.37306632857202993 -0.053551853452477531 -0.10762397126298595 -0.00096863825772836552 0.39898190904422548 0.5308872022168194 -0.013876780388553897 0.20540375377796855 0.37573292128954189 0.22059071696065821 0.41473955406891599 -0.056596630008193642 -0.058174494002192184 0.059494920031052251 0.0063049584882467402 0.018666898838913523 0.42899886025923162 -0.052703331754601915 -0.032043607188386537
leaf_weight=1098.6392905525863 0.80354801192879577 56.873496249318123 53.91226601600647 123.64293685369194 24.644496353343133 0.55167307704687418 27.292769761756063 0.55094116367399726 0.74593152292072673 571.65351895801723 165.56405128538609 1.4598932825028867 1.8395223543047885 2.4386635255068549 5.6064433380961418 1.189453752711416 1.3963678330183027 1.0904207602143285 1.6069959402084339 1.0393624622374762 1.2095464710146187 0.57994006946682963 2.1633673384785652 4.0035054758191109 3.5979339461773625 201.5304740909487 311.47647089324892 1.3046907410025594 42.949223045259714 82.925516517832875
leaf_count=11055 25 2621 1422 4637 570 21 1119 19 13 10584 3482 29 35 39 99 25 15 23 36 30 22 25 89 99 65 2179 2468 23 498 961
internal_value=0 -0.0382942 0.00236198 -0.0398886 -0.00785784 -0.0270265 0.0223439 0.209002 -0.0488246 -0.00498153 -0.0217846 0.029378 0.0918056 0.0615266 0.0986146 0.199835 0.326625 0.201519 -0.00634224 -0.0388617 0.0678835 0.109522 0.0430447 0.00650537 0.00724864 0.00423698 0.0208233 0.157828 -0.0111487 -0.00487454
internal_weight=0 218.711 2575.57 217.908 833.148 161.034 31.1387 3.84592 54.6582 778.49 206.836 41.2723 15.0208 13.5609 11.1222 5.51576 3.67624 2.27987 26.2515 129.895 6.25241 3.29425 2.74331 5.21305 1742.42 1426.04 316.379 4.90262 327.405 284.456
internal_count=42328 8707 33621 8682 16372 6061 1273 154 1435 14937 4353 871 265 236 197 98 63 48 606 4788 151 133 114 121 17249 14693 2556 88 3638 3140
is_linear=0
shrinkage=0.1


Tree=21
num_leaves=31
num_cat=0
split_feature=22 0 18 15 5 24 22 5 18 6 19 18 0 5 22 9 2 2 24 18 20 13 5 22 0 23 0 0 2 1
split_gain=29.9233 12.5252 12.6013 10.5068 14.3376 13.1951 10.3591 10.0126 9.57419 7.43306 12.5091 11.2872 10.5381 10.713 10.3673 11.3439 12.7669 9.96556 9.17195 11.0888 10.0043 9.34535 9.01624 8.62136 8.44218 7.32953 10.8639 16.887 12.7255 10.9273
threshold=46.414285714285718 2020100793.5000002 38.166666666666679 1.5000000000000002 441.00000000000006 174.18859649122808 1213.7300000000002 451.00000000000006 26.750000000000004 4.5000000000000009 2.3666666666666667 524.48333333333346 2021105812.5000002 529.00000000000011 51.015000000000008 9.5000000000000018 1134.5000000000002 1021.5000000000001 311.3522727272728 250.03333333333339 290.24000000000007 1.0000000180025095e-35 527.00000000000011 323.78750000000008 2021105553.5000002 2.5192307692307696 2021103854.5000002 2021102609.5000002 1150.5000000000002 5354.0000000000009
decision_type=8 2 10 2 2 8 8 2 10 2 8 8 2 2 10 2 2 2 10 10 10 2 2 8 2 10 2 2 2 2
left_child=3 2 6 4 8 -6 -2 -3 -1 11 -11 12 14 -14 15 -9 -17 -16 20 21 -19 -20 25 -13 -22 -21 27 28 -27 -28
right_child=1 7 -4 -5 5 -7 -8 9 -10 10 -12 23 13 -15 17 16 -18 18 19 22 24 -23 -24 -25 -26 26 29 -29 -30 -31
leaf_value=-0.079777669272336593 -0.05276633286384691 -0.0065792315468864637 -0.0042876747367804778 -0.059914087239038252 -0.0076730487604861619 0.40907743766124494 0.34473010140177124 0.056475782943476376 0.0067368005283770446 0.043143110049794403 -0.01292512398040236 -0.09362883508581471 -0.0019394123896752176 0.14199495935626061 -0.017944200923257794 0.46626640549911641 0.048928091251010858 0.027702955265185798 -0.088379021729457038 0.03400185449679121 -0.030631450244917726 0.058743391428935449 -0.092376763603107676 0.001056947928485075 0.15752682172517529 0.054811401918941419 0.21842139238851008 -0.12038049231349474 0.19515437884899584 -0.009561837338756346
leaf_weight=51.901166884228587 72.817100513726473 429.51198159344494 418.6091432236135 77.965876341797411 221.79644611012191 0.76234398409724136 0.66157869249582191 6.6801183391362411 16.975348420441151 47.653486773371696 241.19237478636205 9.9219819568097574 221.9113737102598 5.2944602593779555 50.216617699712515 1.7393618747591975 1.2669213917106388 463.64287410117686 8.56699679605663 21.697534389793873 44.728472609072924 8.7043137457221729 3.0868361964821807 312.09309618920088 2.5188426077365866 20.546901136636738 11.666769295930861 3.9764072187244883 9.4243607223033887 2.5644856244325629
leaf_count=2236 2430 5756 6175 2637 6665 12 12 111 407 310 2705 100 1933 39 557 27 19 5240 123 138 438 108 21 3732 20 169 88 31 71 18
internal_value=0 0.00324833 -0.0109921 -0.0273076 -0.0185845 -0.00624553 -0.0491874 0.00688181 -0.0584553 0.0107386 -0.00367505 0.0141786 0.0199934 0.00141462 0.0263792 0.129074 0.29039 0.024852 0.0284271 0.0578189 0.0232358 -0.014233 0.0748744 -0.00186053 -0.0206004 0.0822628 0.103997 0.0732518 0.0989418 0.177339
internal_weight=0 2420.69 492.088 369.401 291.435 222.559 73.4787 1928.61 68.8765 1499.09 288.846 1210.25 888.234 227.206 661.028 9.6864 3.00628 651.341 601.125 90.2346 510.89 17.2713 72.9633 322.015 47.2473 69.8765 48.1789 33.9477 29.9713 14.2313
internal_count=42328 30371 8617 11957 9320 6677 2442 21754 2643 15998 3015 12983 9151 1972 7179 157 46 7022 6465 767 5698 231 536 3832 458 515 377 271 240 106
is_linear=0
shrinkage=0.1


Tree=22
num_leaves=31
num_cat=0
split_feature=19 2 18 14 9 8 5 12 22 10 0 5 12 5 16 18 20 17 0 4 1 8 8 20 18 21 1 2 6 18
split_gain=25.2228 10.5698 11.7223 12.5315 11.5727 28.0977 16.6928 17.5697 13.8331 12.4803 13.5794 9.96208 10.861 9.84824 9.62181 13.4148 38.7689 10.5218 12.5289 14.9695 10.41 9.55079 9.42945 11.6435 10.2037 9.04144 8.99235 10.2917 8.84417 12.6551
threshold=8.9000000000000021 1051.5000000000002 63.583333333333336 1.0000000180025095e-35 8.5000000000000018 4.5000000000000009 535.00000000000011 1750.0000000000002 252.51500000000004 1.0000000180025095e-35 2019105470.5000002 491.00000000000006 1075.0000000000002 449.00000000000006 9.5000000000000018 65.166666666666671 60.850000000000001 4.8333333333333348 2020100403.5000002 4.5000000000000009 1199.5000000000002 7.5000000000000009 7.5000000000000009 60.850000000000001 74.250000000000014 5.7638888888888902 677.50000000000011 1152.5000000000002 5.5000000000000009 40.083333333333336
decision_type=10 2 10 2 2 2 2 10 8 2 2 2 8 2 2 8 10 8 2 2 2 2 2 10 10 10 2 2 2 8
left_child=1 2 -1 -4 5 9 11 21 26 10 -3 12 28 -2 17 16 20 18 19 -12 -16 -8 23 24 -5 -15 27 -7 29 -6
right_child=13 4 3 22 6 8 7 -9 -10 -11 14 -13 -14 25 15 -17 -18 -19 -20 -21 -22 -23 -24 -25 -26 -27 -28 -29 -30 -31
leaf_value=-0.036895541692951624 -0.072749525838198895 -0.055315916434458316 -0.013241711656616481 0.03316787356024696 0.37178802952503998 0.049206489422649193 0.10247105409595146 -0.018894741593013638 0.059508390727654008 0.013422935332128766 0.31576739111843594 0.011152117690784467 -0.015104128961674887 0.26743610473034374 -0.044178094979068681 0.013580852364672958 0.63408225979628385 -0.024551695765232365 0.0031764359388710868 0.041499736110977535 0.34105960552529535 0.29551316338071504 0.11188471093466762 0.0093215378046866641 0.42107326004487589 -0.023963969543824949 0.013420374191129195 0.34374670849531125 -0.077012012579919145 0.071319097979565024
leaf_weight=133.28867141902447 50.554354693740606 56.640044808387756 233.48916707187891 1.4030347485095256 1.6757861264049978 3.6784894578158847 7.7191303949803132 9.1549508757889253 144.7618441414088 493.14849903434515 2.7715271953493339 235.45853976160288 590.20738808438182 1.0721457712352265 3.2656131405383375 14.622809760272501 1.4830277469009159 176.43254084698856 198.76437499187887 7.0574530214071274 0.8933258969336747 3.8368356544524431 12.615877717733381 65.321900172159076 1.3124643266201017 154.89117227401584 166.45169367641211 1.7510197609663007 2.9128042552620164 8.5713517032563686
leaf_count=3004 2623 1065 2549 23 39 48 88 104 1415 6176 26 2756 7978 23 75 148 26 3000 1598 71 20 36 131 692 20 6061 2365 24 43 101
internal_value=0 0.00192654 -0.0120464 -0.00150312 0.00485999 0.0109181 -0.0041032 0.0845855 0.0367332 0.00235944 -0.00945174 -0.00629295 -0.0131007 -0.0343936 -0.00304215 0.0641192 0.195104 -0.006577 0.00862637 0.118836 0.0385696 0.166565 0.0324798 0.0177561 0.220652 -0.0219608 0.0175514 0.144196 0.0767494 0.120457
internal_weight=0 2578.69 447.431 314.142 2131.26 1271.72 859.537 20.7109 316.643 955.079 461.931 838.826 603.367 206.518 405.291 20.2648 5.64197 385.026 208.593 9.82898 4.15894 11.556 80.6533 68.0374 2.7155 155.963 171.881 5.42951 13.1599 10.2471
internal_count=42328 33621 6419 3415 27202 16057 11145 228 3852 12205 6029 10917 8161 8707 4964 269 121 4695 1695 97 95 124 866 735 43 6084 2437 72 183 140
is_linear=0
shrinkage=0.1


Tree=23
num_leaves=31
num_cat=0
split_feature=19 22 0 15 5 0 21 18 24 21 6 2 1 5 20 12 11 2 6 12 20 17 0 5 18 19 8 21 0 20
split_gain=22.1642 12.531 11.0878 9.93573 8.98013 9.53836 12.4914 10.1613 8.47616 8.17654 11.0286 7.85469 9.15903 7.61338 7.52434 7.98124 7.29147 7.18288 8.66208 7.67717 20.1765 49.0885 10.5269 8.76925 7.40364 9.44233 10.4346 9.44837 11.4041 7.30431
threshold=10.900000000000002 46.414285714285718 2018100184.5000002 1.5000000000000002 483.00000000000006 2020101290.0000002 2.683333333333334 860.21666666666681 174.18859649122808 9.3166666666666682 -2.4999999999999996 1051.5000000000002 1086.0000000000002 441.00000000000006 44.100000000000009 1750.0000000000002 inf 1186.5000000000002 23.000000000000004 1250.0000000000002 16.050000000000004 9.1666666666666696 2021110107.5000002 493.00000000000006 249.96666666666667 3.3666666666666667 5.5000000000000009 4.8166666666666673 2021103548.5000002 933.1600000000002
decision_type=10 8 2 2 2 2 10 10 8 10 2 2 2 2 10 10 8 2 2 8 8 10 2 2 8 10 2 10 2 10
left_child=1 3 -3 8 5 6 -4 9 13 -7 -11 12 -6 14 -1 -16 -14 18 19 20 21 -13 24 -24 25 -22 -27 28 -28 -26
right_child=-2 2 4 -5 11 7 -8 -9 -10 10 -12 17 16 -15 15 -17 -18 -19 -20 -21 22 -23 23 -25 29 26 27 -29 -30 -31
leaf_value=-0.054041635349552024 -0.05925955604098302 -0.04179583694176791 0.11842600984069081 -0.052573600900247763 -0.052774433621845085 0.0033004392690983461 -0.024769262424372773 -0.060836994314034221 0.28411920443871858 0.40367788060149351 0.038321419548541971 -0.10423922281663736 -9.6838003439207439e-05 -0.00064700242977717331 -0.014608612261200636 0.30608639883450595 0.13807593649864999 -0.019100089794186887 0.168081399303116 0.012870805856743068 0.17457745575832009 0.90608766891764303 0.0075740368430366883 0.2155781686689387 -0.010416421504920843 -0.0021752062890561105 0.28212790286568579 0.045931730145477849 0.021677210037929162 0.12961349520468887
leaf_weight=48.504736937582493 63.274153530597687 53.964200502261519 6.2769460678100577 66.814768064767122 36.274223294109106 1158.3302758987993 206.65269379131496 24.84932242706418 0.98293337225913902 1.1786530110985043 2.7629269044846287 1.0452962704002846 123.65703664906323 184.91280941851437 2.1639089155942197 1.2099781502038238 3.94089601188898 55.466455098241568 3.8364463560283175 613.80457295849919 5.6402484755963078 0.89066034369170655 3.1709019020199758 5.6175903305411339 49.62836505100131 28.65346016921103 4.4443098083138493 16.469860812649131 2.7040151432156563 4.0273931808769694
leaf_count=1735 3650 1105 51 2283 492 13704 3724 228 11 33 67 29 1520 4885 41 23 49 745 43 6534 40 26 33 53 507 390 38 236 18 35
internal_value=0 0.000610558 0.00302285 -0.0185023 0.00404798 -0.00105879 -0.020548 0.00243692 -0.0089282 0.00378971 0.147574 0.0115013 -0.00843452 -0.0101447 -0.0439975 0.100402 0.00417066 0.0156086 0.0182104 0.0174293 0.0403089 0.360574 0.0351573 0.14053 0.0268569 0.0516526 0.0383887 0.0876007 0.183607 9.42031e-05
internal_weight=0 2717.88 2413.29 304.589 2359.32 1400.05 212.93 1187.12 237.774 1162.27 3.94158 959.272 163.872 236.791 51.8786 3.37389 127.598 795.4 739.933 736.097 122.292 1.93596 120.356 8.78849 111.568 57.9119 52.2716 23.6182 7.14832 53.6558
internal_count=42328 38678 29700 8978 28595 17807 3775 14032 6695 13804 100 10788 2061 6684 1799 64 1569 8727 7982 7939 1405 55 1350 86 1264 722 682 292 56 542
is_linear=0
shrinkage=0.1


Tree=24
num_leaves=31
num_cat=0
split_feature=19 17 0 5 16 0 20 1 16 9 15 22 0 1 17 8 6 17 14 18 1 5 16 0 2 21 17 6 12 24
split_gain=19.6443 11.2358 10.5757 10.1631 8.12502 7.84418 9.22483 6.99748 6.1975 6.07495 5.75548 15.6065 8.30541 6.77984 12.0624 14.7869 15.1467 9.69266 9.40987 14.0081 10.8945 7.70877 6.95935 6.03248 5.97954 6.82285 9.679 7.12928 7.71145 11.3976
threshold=11.366666666666669 6.166666666666667 2018103116.5000002 451.00000000000006 3.5000000000000004 2021109072.5000002 27.100000000000005 5659.5000000000009 4.5000000000000009 16.500000000000004 1.5000000000000002 43.050000000000004 2022105826.5000002 1205.5000000000002 5.5833333333333348 5.5000000000000009 -1.0000000180025095e-35 5.8333333333333348 1.0000000180025095e-35 183.35000000000002 1209.5000000000002 413.00000000000006 6.5000000000000009 2022104944.5000002 1185.5000000000002 4.8166666666666673 4.5833333333333348 -1.0000000180025095e-35 1850.0000000000002 165.00147058823532
decision_type=10 8 2 2 2 2 10 2 2 2 2 10 2 2 10 2 2 10 2 10 2 2 2 2 2 10 10 2 10 10
left_child=1 9 8 4 5 -4 -7 -5 -3 10 13 -12 23 21 18 17 -17 -16 22 20 -20 -1 -15 24 -13 -26 27 -27 29 -29
right_child=-2 2 3 7 -6 6 -8 -9 -10 -11 11 12 -14 14 15 16 -18 -19 19 -21 -22 -23 -24 -25 25 26 -28 28 -30 -31
leaf_value=-0.07830921529851019 -0.067320603473639676 0.0093697386585194931 -0.016589023323018703 0.0011052436821422627 -0.03351898506482958 0.047778051554233543 0.34836498310324376 -0.10798346036512003 -0.07583657319743492 -0.055738043348730996 -0.097871692496985144 0.0049366979560365246 -0.086758294209318354 0.025697850681427561 0.18657556501112899 0.47476619120176899 0.10298305782627287 -0.059142918543586304 0.21016867135290865 0.22043876337641582 0.015537401906393154 0.0099508543222681326 -0.037792002917459301 0.084594212806237204 -0.046147122957359864 -0.015443952166744086 -0.039307199106339168 0.39496532809889606 0.026558302802461509 0.054887835359227657
leaf_weight=10.104317128658293 43.605726370587945 11.299155987799166 32.885583490133286 681.43630073964596 185.82620428130031 15.922521728090944 1.0909352619200934 5.9312480501830569 34.911780846305192 16.270627537742257 15.611202711239455 1024.955474331975 10.257846280932425 59.270319700241089 2.6904170997440797 2.0502314865589142 2.3540028966963291 3.9803968109190464 3.3111003339290681 5.2668546363711348 21.883396383374929 479.84005289711058 24.360712189227343 9.1287137269973737 48.917528126388788 4.1749685145914555 13.122293844819067 2.1727652177214645 2.9132929183542728 1.8035421445965765
leaf_count=166 2792 334 947 14467 4907 291 16 104 1185 167 433 10182 97 398 37 31 35 60 27 27 158 4384 190 66 479 51 213 28 36 20
internal_value=0 0.0003318 -0.00831782 -0.00598074 -0.0238984 0.0119291 0.0670523 0.000163925 -0.0550026 0.00508351 0.00564959 0.00142193 0.00280911 0.0134371 0.0342082 0.133847 0.276053 0.0399582 0.0245363 0.0721215 0.0411161 0.00813063 0.00720402 0.00363893 0.00296591 -0.0246654 0.018781 0.0876721 0.150158 0.240716
internal_weight=0 2733.74 969.304 923.093 235.725 49.899 17.0135 687.368 46.2109 1764.44 1748.17 1133.06 1117.45 615.112 125.167 11.075 4.40423 6.67081 114.092 30.4614 25.1945 489.944 83.631 1107.19 1098.06 73.1044 24.1869 11.0646 6.8896 3.97631
internal_count=42328 39536 22251 20732 6161 1254 307 14571 1519 17285 17118 11605 11172 5513 963 163 66 97 800 212 185 4550 588 11075 11009 827 348 135 84 48
is_linear=0
shrinkage=0.1


Tree=25
num_leaves=31
num_cat=0
split_feature=19 22 0 15 5 5 18 12 8 22 6 22 1 18 18 23 18 6 5 2 9 22 1 20 8 9 7 5 23 0
split_gain=17.0885 10.1262 8.65272 8.57616 8.00012 7.09334 6.98607 6.83074 13.619 16.4425 9.99953 7.86175 7.69255 6.60183 9.85403 18.6718 7.78114 7.55112 7.04138 6.81751 11.6841 6.54136 8.21141 10.8069 7.58044 7.27159 6.39178 8.1323 6.09975 8.97718
threshold=11.366666666666669 46.414285714285718 2018100184.5000002 1.5000000000000002 441.00000000000006 475.00000000000006 26.750000000000004 1250.0000000000002 7.5000000000000009 82.050000000000011 3.5000000000000004 104.49500000000002 1186.5000000000002 356.73333333333341 289.83333333333343 5.9298029556650258 250.03333333333339 13.500000000000002 483.00000000000006 1109.5000000000002 1.5000000000000002 51.015000000000008 1184.5000000000002 46.733333333333334 4.5000000000000009 11.500000000000002 59.250000000000007 491.00000000000006 3.6754385964912282 2021102892.0000002
decision_type=10 8 2 2 2 2 10 8 2 10 2 10 2 8 10 8 10 2 2 2 2 8 2 10 2 2 2 2 10 2
left_child=1 3 26 4 6 21 -1 8 13 10 12 -11 -10 14 16 18 -7 19 -16 20 -15 22 23 -4 -25 -26 -3 -28 -13 -30
right_child=-2 2 5 -5 -6 7 -8 -9 9 11 -12 28 -14 17 15 -17 -18 -19 -20 -21 -22 -23 -24 24 25 -27 27 -29 29 -31
leaf_value=-0.068549192181510579 -0.064894506386382486 -0.064045423758138292 0.008767908366732342 -0.049554782809685366 0.00097775177226136034 0.025474462807697912 0.010509019149163946 0.0050456462214180792 0.20866189344538211 -0.11992582939808759 0.043574564623888548 -0.037108144780587118 0.48604394043964022 0.23384549812523756 0.18482581746622365 0.3616888126056626 -0.057975373363783424 0.17554930396692967 0.016636510816504229 -0.053207603589738799 -0.0035537762936740064 -0.0032470043998012173 -0.026415371012325373 0.06277810181537799 0.47610928532359981 0.16438230182702723 0.064237273868966896 -0.072806852108932091 0.050414104047759527 0.2035352381259323
leaf_weight=35.083488494157791 40.856442506425083 33.404903456568718 4.3310424629598838 63.468867282383144 194.09421010129154 104.39237458445132 16.403334092348814 1004.6562976203859 2.5065769720822564 2.4671447649598148 1.9213429260998962 4.5131611675024059 1.6632063593715427 2.249917738139632 3.2450168579816845 2.3293159753084174 12.512892803177236 2.049033895134925 10.687231861054896 29.836620468646288 26.392654005438089 1125.7030316488817 6.1657120985910288 1.7667911127209661 1.5331515762954953 1.4617834798991678 10.894535491243007 7.1862167008221141 14.101004447788002 5.2560417223721734
leaf_count=1575 2792 909 85 2380 5287 1382 406 11181 36 29 26 30 23 23 27 33 148 20 85 313 288 14603 115 34 22 23 122 96 186 49
internal_value=0 0.00026 0.0024341 -0.0167868 -0.00831817 0.00331451 -0.0433618 0.00857998 0.0242829 0.0842614 0.232328 0.0500175 0.319302 0.0142412 0.0266879 0.0996244 0.0165425 -0.0131424 0.0558102 -0.019754 0.0150943 -0.00236546 0.0626707 0.123079 0.227051 0.32396 -0.0381233 0.00976892 0.0675823 0.0919913
internal_weight=0 2732.28 2423.23 309.05 245.581 2371.74 51.4868 1230.78 226.124 32.4285 6.09113 26.3374 4.16978 193.695 133.167 16.2616 116.905 60.5282 13.9322 58.4792 28.6426 1140.96 15.2585 9.09277 4.76173 2.99494 51.4857 18.0808 23.8702 19.357
internal_count=42328 39536 29888 9648 7268 28761 1981 13879 2698 379 85 294 59 2319 1675 145 1530 644 112 624 311 14882 279 164 79 45 1127 218 265 235
is_linear=0
shrinkage=0.1


Tree=26
num_leaves=31
num_cat=0
split_feature=17 2 0 9 8 10 23 0 10 5 6 22 21 24 5 21 17 24 12 20 1 2 19 0 0 18 12 24 0 2
split_gain=15.1044 9.31857 9.97446 9.50904 20.6788 11.3529 13.6776 11.0927 10.954 9.66433 9.14224 8.77052 14.7886 9.68593 8.48437 22.2745 25.0964 9.34177 9.33122 18.2234 8.99034 8.59395 24.3753 26.6155 9.4234 8.33933 8.10824 10.9634 10.5321 9.08182
threshold=10.41666666666667 1021.5000000000001 2017103291.5000002 8.5000000000000018 5.5000000000000009 1.0000000180025095e-35 7.202272727272728 2021105812.5000002 1.0000000180025095e-35 421.00000000000006 4.5000000000000009 152.02000000000004 3.7638888888888893 206.52857142857147 503.00000000000006 7.2928571428571436 8.1666666666666696 57.514705882352949 1075.0000000000002 168.02000000000004 1156.5000000000002 1155.5000000000002 6.7083333333333348 2021100204.5000002 2021101458.0000002 147.16666666666669 2450.0000000000005 90.031250000000014 2019102630.0000002 1170.5000000000002
decision_type=10 2 2 2 2 2 10 2 2 2 2 8 10 8 2 10 10 8 8 8 2 2 10 2 2 10 10 10 2 2
left_child=1 -1 -3 4 8 10 7 14 -4 -10 11 12 25 -14 17 -16 -17 20 19 -19 -7 22 24 -24 -22 -5 28 -28 -6 -30
right_child=-2 2 3 5 26 6 -8 -9 9 -11 -12 -13 13 -15 15 16 -18 18 -20 -21 21 -23 23 -25 -26 -27 27 -29 29 -31
leaf_value=-0.019249747205407012 -0.037272039615482803 -0.062192413069642183 -0.0061589761909234637 0.075236936377279184 -0.063157181457508316 -0.014178463281730815 -0.07189772236349079 -0.036510771314780345 -0.043085456760414254 0.015245491430539472 -0.023394291844761429 -0.0015195078594082024 0.017471619571835149 0.29914562533194605 0.021620871435095369 0.036054681657452729 0.66781181783308441 0.33324155685180157 -0.015665144544836387 -0.067513925700547234 0.29731817513313685 -0.010714119041659812 0.049403498255701186 0.88604119364924383 -0.00096918678712822862 0.23692896116156997 -0.072002340343766166 0.15805829804878596 0.050319160954736368 -0.0060798843471586012
leaf_weight=212.88111519627273 108.34271400701255 23.558205437846482 601.67955676466227 11.580693153664468 10.764008592814205 8.553230123594405 39.503091763705015 118.48695894889534 29.768725529313087 619.39166137296706 87.312801155261695 219.55019631143659 178.5789450481534 1.2292124163359393 48.438233210705221 1.3707955144345754 1.1616690503433345 2.2268365807831279 240.80267774127424 2.3134982250630856 1.4876743853092174 3.1391898915171623 0.65409239567816235 0.90821033902466297 3.6763998586684465 4.4022719636559478 2.5665772119536987 10.735953742638229 139.23555238358676 35.916529911570251
leaf_count=3209 5510 559 8467 95 228 174 1208 1412 654 7856 1240 2483 3166 24 489 23 26 33 2975 32 34 67 23 22 59 29 47 116 1636 432
internal_value=0 0.000818347 0.00256279 0.00319175 0.00832706 -0.00444274 -0.0155677 -0.0104313 0.00356129 0.0125706 0.00601978 0.0122032 0.0275911 0.0193972 -0.000613157 0.0367363 0.325849 -0.00783077 -0.0129872 0.129039 0.0608547 0.125907 0.189668 0.535764 0.0849619 0.119773 0.0382501 0.113671 0.0328537 0.038754
internal_weight=0 2661.87 2448.99 2425.44 1450.06 975.377 472.723 433.219 1250.84 649.16 502.654 415.341 195.791 179.808 314.733 50.9707 2.53246 263.762 245.343 4.54033 18.4188 9.86557 6.72638 1.5623 5.16407 15.983 199.219 13.3025 185.916 175.152
internal_count=42328 36818 33609 33050 19436 13614 6577 5369 16977 8510 7037 5797 3314 3190 3957 538 49 3419 3040 65 379 205 138 45 93 124 2459 163 2296 2068
is_linear=0
shrinkage=0.1


Tree=27
num_leaves=31
num_cat=0
split_feature=19 1 1 24 15 21 16 16 23 1 12 0 5 0 2 3 18 24 7 1 1 8 18 16 9 5 0 6 0 22
split_gain=13.7602 9.34452 12.4632 9.49755 12.1578 9.00045 8.65116 11.6338 8.15888 13.6144 10.1834 7.89115 7.6179 9.22333 7.58253 7.26845 8.04616 8.08254 9.18586 7.06613 26.2093 12.8287 12.3624 8.34696 8.82392 10.8256 8.45176 10.3216 8.34415 8.27399
threshold=11.366666666666669 5319.0000000000009 5568.0000000000009 94.008823529411771 1.5000000000000002 2.4142857142857146 9.5000000000000018 4.5000000000000009 6.9883720930232567 5502.0000000000009 1350.0000000000002 2018100184.5000002 523.00000000000011 2022105108.5000002 424.00000000000006 1.0000000180025095e-35 698.83333333333348 444.81333333333345 53.500000000000007 1089.5000000000002 1086.0000000000002 2.5000000000000004 284.40000000000003 7.5000000000000009 6.5000000000000009 483.00000000000006 2021105856.5000002 -1.0000000180025095e-35 2021105812.5000002 1213.7300000000002
decision_type=10 2 2 10 2 8 2 2 10 2 10 2 2 2 2 2 10 10 2 2 2 2 10 2 2 2 2 2 2 10
left_child=1 3 8 4 -1 -6 7 -5 -3 10 -10 -9 13 -4 -13 19 17 -17 -19 20 21 -16 23 26 25 -25 -23 -28 -21 -24
right_child=-2 2 12 6 5 -7 -8 11 9 -11 -12 14 -14 -15 15 16 -18 18 -20 28 -22 22 29 24 -26 -27 27 -29 -30 -31
leaf_value=-0.0047165832266407789 -0.061128092978193285 0.025758571608510434 -0.034433867891921884 0.014784954643010426 0.14637854109122581 -0.038624806840999226 0.0269377018166507 -0.061844613725399539 0.30611057230496036 0.43374879381234632 -0.038701346204249754 -0.064511132330759821 0.07368345743815112 0.16197098401047194 -0.059694612620042678 -0.013245908085791118 -0.058300801029141994 0.21382985923176068 0.024119674013455678 0.0037273385874280322 0.09282312971027222 -0.0092695942027293931 -0.028483296098875441 0.30783770469765065 0.051906937871905118 0.066425920186504533 0.24126787381135759 0.004428535711126445 -0.03004464020589568 0.15592132096196754
leaf_weight=677.99850683286786 37.134978594258428 218.83185063488781 69.329259778372943 404.98854997660965 2.6749022975563994 155.5927814450115 133.99145871773362 24.001080789603293 1.2079437784850586 1.2881580833345649 2.9438709942623973 20.193512430414557 8.2716522160917503 2.4764262642711392 28.352967279963195 299.10542158409953 36.888829238712788 2.9584740363061455 18.59251039288938 375.6561028342694 39.196499712765217 28.897949943318963 51.124798502773046 3.5481211896985796 17.889450665563345 3.8984929602593184 3.3254415653645992 4.1196129359304896 90.852818638086319 2.5547502860426894
leaf_count=13592 2792 1503 795 4886 30 4459 1698 661 24 24 68 250 81 20 323 3846 367 24 210 4356 244 427 491 44 220 52 31 36 750 24
internal_value=0 0.000156828 0.0166739 -0.00191494 -0.0105421 -0.035498 0.00262217 0.000384702 0.0287658 0.149738 0.0616195 -0.00516341 -0.0171919 -0.0276603 -0.00383897 -0.00262226 -0.0140724 -0.00898428 0.0501627 0.00368177 0.0203405 0.000571316 0.0153835 0.045923 0.0899821 0.181452 0.0152077 0.110216 -0.00284977 -0.019707
internal_weight=0 2730.75 304.349 2426.4 836.266 158.268 1590.14 1456.15 224.272 5.43997 4.15181 1051.16 80.0773 71.8057 1027.16 1006.96 357.545 320.656 21.551 649.417 182.908 143.712 115.359 61.6791 25.3361 7.44661 36.343 7.44505 466.509 53.6795
internal_count=42328 39536 2515 37021 18081 4489 18940 17242 1619 116 92 12356 896 815 11695 11445 4447 4080 234 6998 1892 1648 1325 810 316 96 494 67 5106 515
is_linear=0
shrinkage=0.1


Tree=28
num_leaves=31
num_cat=0
split_feature=19 5 0 14 6 19 17 1 20 16 2 2 18 5 0 24 15 6 0 5 5 7 19 1 0 17 1 1 5 0
split_gain=12.0324 8.13028 7.89574 10.9647 8.38248 7.78426 7.93948 11.8099 29.3405 8.78465 7.79333 16.8171 21.609 11.3518 7.12413 8.4761 9.34596 7.42709 11.7323 10.6907 9.18862 8.37469 8.2234 15.2465 12.5617 8.88328 7.80568 7.62375 8.50229 7.12431
threshold=11.550000000000002 451.00000000000006 2022103030.0000002 1.0000000180025095e-35 -4.4999999999999991 9.1000000000000014 10.583333333333334 1139.5000000000002 110.01000000000001 3.5000000000000004 1036.5000000000002 1040.0000000000002 173.29166666666671 433.00000000000006 2019109098.0000002 463.45726190476199 4.5000000000000009 4.5000000000000009 2022104944.5000002 473.00000000000006 511.00000000000006 59.250000000000007 8.7083333333333339 1179.5000000000002 2021103178.0000002 3.166666666666667 5458.0000000000009 1196.5000000000002 463.00000000000006 2020103510.5000002
decision_type=10 2 2 2 2 10 10 2 8 2 2 2 10 2 2 10 2 2 2 2 2 2 8 2 2 10 2 2 2 2
left_child=1 5 -2 4 -4 6 10 8 -8 -9 -1 12 13 -12 15 -3 -17 21 20 27 -19 -16 25 24 -24 -22 -27 28 -20 -23
right_child=2 14 3 -5 -6 -7 7 9 -10 -11 11 -13 -14 -15 17 16 -18 18 19 -21 22 29 23 -25 -26 26 -28 -29 -30 -31
leaf_value=-0.041811773743843712 -0.076914131382166934 -0.015365230356177876 0.42598210760306743 0.55392191542712732 -0.10143691096502705 -0.062481084467403337 0.89525530762436889 0.29790733154513899 0.0011618917854325417 -0.10310697168321686 0.12141529487534471 -0.0069276636836303517 -0.048541911121077738 0.46809126428976722 0.0083802048560726317 0.12848265401986195 0.010075007937903932 -0.019467881679576575 0.21210659496359607 -0.00083136217225459957 0.068002768403749123 0.25302586365838126 0.70683608225865369 -0.10411809939590236 0.076624603188232887 -0.024925124575937731 0.20304023343203981 0.32528534896525452 -0.062369667239745644 -0.0050244451525614737
leaf_weight=64.053722063079476 28.680114561691884 347.81724571064115 0.37927431799471389 0.45725775696337212 1.4665655214339486 27.603649714961648 0.60028650332242128 0.74525994621217284 0.94455453008413326 2.0458537163212895 1.7392935901880258 455.0732276532799 3.0200099274516106 2.0670817699283361 1410.8677709260955 7.4179283715784541 65.760062634013593 266.02876330539584 2.7352732922881824 7.660457787103951 21.178098645061255 2.5884767659008494 0.73270544502884083 0.88556864764541376 0.55650682561099529 32.600952703505754 1.5745544023811806 2.184646550565958 1.9212773162871597 1.8236233722418544
leaf_count=1135 2327 7168 30 27 112 1547 22 22 24 78 33 7193 33 31 17413 54 805 3442 29 82 147 28 17 29 23 396 16 17 24 24
internal_value=0 6.14614e-05 -0.0626088 0.115534 0.00693462 -0.0107077 -0.0080127 0.12675 0.348584 0.00396853 -0.00912368 -0.00459068 0.151202 0.30968 0.00282463 -0.00885683 0.0220778 0.00562947 -0.00768738 0.0803084 -0.0116313 0.00881038 0.0246074 0.215351 0.434796 0.0171133 -0.0144222 0.171165 0.0988586 0.146368
internal_weight=0 2732.23 30.9832 2.3031 1.84584 557.893 530.289 4.33595 1.54484 2.79111 525.953 461.9 6.82639 3.80638 2174.33 420.995 73.178 1753.34 338.059 14.5017 323.557 1415.28 57.5284 2.17478 1.28921 55.3536 34.1755 6.8412 4.65655 4.4121
internal_count=42328 39832 2496 169 142 10118 8571 146 46 100 8425 7290 97 64 29714 8027 859 21687 4222 152 4070 17465 628 69 40 559 412 70 53 52
is_linear=0
shrinkage=0.1


Tree=29
num_leaves=31
num_cat=0
split_feature=17 5 1 19 20 20 16 5 19 8 6 1 16 12 9 17 15 2 1 1 8 0 17 2 24 18 8 8 23 17
split_gain=10.8952 6.70819 6.31719 7.97775 14.8787 14.2185 9.30976 24.634 8.47089 10.7851 8.67814 6.54584 13.4364 10.7593 20.4667 14.5729 10.0348 13.186 7.89354 8.17314 7.8133 7.41053 12.2367 18.391 10.8818 17.0415 16.7034 8.83997 8.61851 8.10778
